2000 128
1995 -0.22877666 -0.3844163 0.09737132 -0.39811957 -0.03376945 -0.06284745 -0.15100364 -0.13246791 0.20488594 -0.15620527 0.23974368 -0.17378719 -0.077463426 -0.32968453 -0.07811296 0.14174093 0.12306315 -0.031491548 -0.50511265 -0.14941764 -0.3599271 -0.14640066 0.40488514 -0.22263771 0.09583799 -0.050684616 0.25247532 -0.13469012 -0.20109944 0.09201371 -0.113339365 0.019942287 -0.08132217 -0.002622113 0.027523924 -0.112171195 -0.019602666 -0.37828958 -0.035393618 -0.11569877 0.11235325 0.11323323 -0.061689097 -0.10295756 -0.19464171 0.022233667 0.18162282 0.27861425 0.04238109 0.31800762 0.3669143 0.20356256 -0.11960843 0.008800704 0.29280782 0.039235033 -0.28091377 0.15815763 0.0029135998 0.16683106 -0.10402377 0.05836328 -0.37264004 -0.12162071 -0.10483748 0.26575026 0.25463483 -0.2582793 0.3821857 -0.25721416 0.13906103 -0.1449246 0.2785422 -0.23381992 0.31896108 -0.047546778 0.11626961 -0.45663017 -0.057427082 -0.36018682 -0.19048794 -0.21959922 0.17940009 0.5343535 0.13397959 0.20435356 0.34959444 0.0042862003 -0.32708067 -0.29875603 0.28643167 0.048633713 -0.35707614 0.29903495 -0.03211528 0.3581369 0.42202613 -0.07470211 0.08044799 -0.1340171 0.19100814 -0.016219523 0.15657692 0.12695889 -0.29817683 -0.5502245 0.36614507 -0.10531572 0.06038369 0.5151559 -0.21560255 -0.20924896 -0.2994867 0.08209793 0.012873291 0.16277844 0.05793815 -0.40406102 0.03598175 0.17770891 0.26773798 -0.28030077 -0.58298695 0.49028912 0.18563898 0.48560572 -0.2751303 -0.48521024
1987 -0.014999355 0.28008264 -0.1653724 -0.055077516 0.30668557 -0.32425144 0.05495654 -0.15579219 0.16186723 -0.26304924 0.13693854 0.24560967 0.1665934 0.47930205 -0.2560011 -0.27246547 0.15157583 0.3069927 0.06724654 0.08399826 -0.0067242878 0.12784085 -0.11730144 -0.086065434 0.24502271 -0.38243708 -0.10863831 0.1313412 -0.19198933 0.04002304 -0.20563127 -0.2078917 0.104854465 0.5353626 0.063179724 0.1619955 -0.0971613 -0.010500108 0.07953019 0.16099566 0.2522156 0.05691057 -0.17202967 0.21009395 0.23293598 0.026569203 -0.17378199 0.10449832 0.21145813 -0.06716124 0.44029716 0.22827886 -0.036208913 0.17168792 -0.042769175 0.36677393 0.32887754 0.5322791 -0.23347378 -0.063931346 -0.10787026 -0.008276009 0.24920386 -0.23034655 0.12876569 0.14138731 0.021193046 0.3225347 -0.003539097 -0.44051033 0.14721212 -0.15534465 -0.022621367 0.0031819895 0.16743053 0.30593488 -0.1322063 0.07862931 0.08987433 -0.03899983 -0.3807237 -0.05866062 -0.06991057 0.30631575 0.3826477 0.45651314 -0.066415355 -0.40136862 0.559152 -0.08627112 0.04634483 0.6509175 -0.32054144 -0.09361128 -0.08538279 -0.5354864 -0.15435171 -0.30452096 -0.039858714 0.03983528 0.123227455 0.4250399 -0.26524615 -0.03209784 -0.43898395 -0.23880695 0.006442178 -0.036754988 -0.44182885 -0.123150796 0.26239368 -0.25040492 0.40692297 0.30870005 -0.02688652 0.11020962 0.06381167 0.05254341 0.11643029 -0.1754503 0.11819571 -0.33530942 -0.11190156 -0.1391161 0.5578559 -0.50906837 -0.4020258 -0.081434734
1999 -0.10571529 0.17674375 -0.33146584 0.020101206 0.15275681 -0.19590764 0.009373526 0.077962846 0.040464368 -0.3629984 0.08203184 -0.6144331 0.11615477 -0.11860147 -0.06577619 -0.23892692 0.083505504 -0.11136855 -0.25842103 0.047645967 -0.40490612 0.4307139 -0.31108248 -0.08271783 0.3551788 0.056039292 -0.2567369 0.29879808 0.072577156 0.11869504 0.08821401 -0.016290665 0.12236789 0.085822225 -0.41431683 -0.4755951 -0.20336618 0.37862605 0.013866879 -0.12228913 -0.033951398 -0.027037058 -0.12764223 -0.09657506 -0.08838637 -0.06491335 -0.3301545 0.26064944 -0.27003458 -0.026451476 0.15596364 -0.06006715 -0.2513442 0.07293768 -0.2006995 -0.021936925 -0.18688142 0.17169791 0.14312145 -0.6088928 -0.06611946 0.15551765 -0.078936756 -0.10561212 -0.0043327874 -0.22443166 0.21826021 -0.14388283 0.32140884 0.16843888 -0.21962322 0.15592307 0.34490076 0.08577558 0.31868696 -0.008485194 -0.21785694 -0.2351363 0.066114165 -0.056744047 -0.3927479 -0.3244273 -0.6678193 0.32741892 -0.1328594 -0.1475618 -0.35586473 0.06418575 -0.17623438 -0.14570996 -0.2716713 -0.36455056 -0.21649067 0.23965715 0.023225833 0.18600713 -0.21672708 -0.00034561296 -0.1259154 0.18691936 -0.15861045 -0.43236884 0.16755919 0.11037883 0.11891638 0.25992414 -0.15799652 0.08572346 -0.21918036 0.0019422569 0.24576716 0.1861735 -0.19443004 -0.72737914 0.5455221 0.5329676 -0.14064331 0.12632184 0.028781008 0.10547373 -0.32044303 0.02001025 -0.11473064 -0.005470238 -0.17426729 0.09539186 -0.1923352 -0.30656406
1990 -0.14147836 -0.28115076 0.19546779 0.02887607 0.01627272 0.2874588 0.3034418 0.34297282 -0.40892056 -0.23492335 -0.2581313 -0.0064135143 0.055469897 -0.062148437 0.3436255 -0.11873238 -0.017114082 0.38107228 -0.1435762 0.021273654 0.08508896 0.23931566 -0.26999426 0.14780927 -0.023079531 -0.06654925 0.34757176 0.47072807 -0.39095923 -0.23838966 0.31934306 -0.050750818 -0.111708574 0.1436943 0.064352915 0.1538179 -0.01193648 -0.42738077 0.28315818 -0.076482214 -0.4508903 -0.3572375 0.18827955 0.03787766 0.22797339 -0.3151492 0.3325123 0.38172406 0.16367315 -0.11415218 -0.17178835 -0.057941053 -0.32656673 -0.13369973 -0.19560808 0.14012776 -0.10370363 0.29973835 0.16148284 0.005640141 -0.1278714 -0.08437134 -0.50754726 -0.05553242 0.31771222 -0.2920645 -0.20709331 -0.300315 -0.16600855 -0.3330142 -0.48504958 0.16775261 0.34802586 -0.025744779 0.34976888 -0.18858087 -0.27690947 -0.023349863 -0.109711096 0.066207945 0.24106559 0.07818851 0.1584481 0.12280927 0.12837642 -0.043338712 0.0755569 -0.20567408 0.4244492 0.12635751 0.25378072 0.18063302 0.035201617 0.26798853 -0.13514474 -0.3022202 0.03322528 -0.09933134 0.0010922154 0.16781108 0.24352026 0.054497812 0.39110303 0.37449694 -0.15909909 0.020168772 -0.051359456 -0.2795339 -0.27551877 -0.18747133 0.5246675 0.22132683 0.13064504 0.19917531 0.23299037 0.054943908 -0.1233062 0.058862302 0.29487225 -0.025170866 0.24398856 -0.08198607 -0.30710497 0.09815562 0.21186753 0.32426673 0.19913866 -0.33421135
1986 -0.010170142 -0.14950496 -0.07179133 -0.7806893 -0.003675715 0.3247682 0.27295187 0.18390593 0.040112946 -0.3953778 0.25673723 -0.06103604 -0.25571778 -0.23659752 0.04948924 0.2818472 0.33134234 -0.14974275 -0.122355565 -0.14747596 -0.43407324 0.09488514 0.16333951 0.16735606 0.10680003 -0.050335173 -0.12055311 0.18453391 -0.14596216 -0.25789744 0.06448916 0.114852555 -0.31316736 0.0143469265 -0.119008005 0.025205925 -0.090594605 0.30881208 0.020079292 0.04354462 -0.14454474 -0.636212 -0.13799767 0.48701176 -0.007977355 0.011510355 0.27055106 0.048021216 0.4808865 -0.21315593 -0.041386478 0.116756395 -0.38933048 0.11975001 -0.10662769 -0.13713141 0.06945744 0.24980146 -0.4042703 -0.2071836 0.120464884 -0.38966388 -0.18993144 -0.24721844 -0.17946999 -0.13811228 -0.10174429 -0.19178812 0.0077879936 -0.40318677 -0.37683976 -0.38155958 -0.24511783 -0.39138928 0.05855885 -0.29075405 -0.30984563 -0.1530148 -0.0026203245 -0.67664254 -0.13728483 -0.034165174 0.25181982 0.12518196 -0.43179038 0.17018233 0.03743055 -0.16283125 -0.06029043 0.056633126 0.0003096986 -0.21557805 0.3680111 0.09443982 -0.0066928915 -0.30398884 0.010752363 -0.17561834 0.057567272 0.0901053 -0.27504122 -0.29425982 -0.32541594 -0.03605172 0.4820848 0.17053013 -0.23471925 0.5321564 0.43178743 -0.08945155 0.2788339 0.29877293 -0.19913475 -0.16636802 -0.14410517 0.013590891 -0.32622775 0.41162822 0.33523753 -0.18664484 0.29721433 0.13690399 -0.46105522 0.22908868 0.052873086 -0.1140188 0.184787 0.002639731
1994 -0.18352292 0.014647839 0.33308372 -0.24237877 -0.024768066 -0.19343539 0.07690361 0.011060785 -0.1536226 -0.35471898 -0.049320355 0.20645127 0.14800318 0.033725485 0.12302964 -0.28316203 0.0063913893 -0.58206767 0.032742925 -0.03467861 -0.117816135 -0.30648968 -0.25710246 -0.25327027 -0.4658679 0.09973637 0.06569071 0.18928926 -0.090883546 -0.14873959 -0.13319845 -0.42747468 -0.21895157 -0.08162717 -0.09412281 0.30530557 -0.43482488 -0.25398812 -0.105812855 0.04567758 0.3206719 0.008144653 0.38183707 0.09205062 -0.18662775 -0.06915957 -0.47906467 0.1547431 0.20524262 -0.07496967 0.37841743 0.3479538 -0.25519505 -0.16733791 -0.101900905 0.0010231722 -0.027096719 -0.059334088 -0.16963725 0.40427336 -0.14721075 0.0063897283 -0.26984793 0.061916545 -0.02125221 -0.34956184 0.18169883 0.4809444 -0.020519307 -0.25681537 -0.088117555 0.018200293 0.6953524 -0.1785142 -0.058944907 -0.2950063 -0.19968598 -0.46933487 0.11845469 -0.51810205 0.2523185 0.39611062 0.17324682 0.042626552 0.21853827 -0.06097752 -0.14910056 -0.17807667 -0.18728888 -0.2678417 0.31250075 -0.20180282 -0.37549683 -0.32774067 -0.3187207 -0.21691708 0.12674531 -0.010163469 -0.2758949 -0.2771865 0.08425575 0.34461978 -0.119276665 0.3577562 -0.10769194 0.24380286 -0.2718018 -0.03779965 -0.19150144 0.057844922 -0.062125046 -0.1294218 0.22006944 0.056911096 0.03407691 0.46351 0.3406077 0.20000736 0.06638735 -0.08831957 -0.02867619 -0.18008389 0.12727055 -0.3625296 0.04427522 0.2591607 -0.2043614 -0.16986893
1979 0.095953986 -0.2967092 0.06673708 0.003265104 0.15147308 -0.09253717 0.44323888 0.13855162 0.33814934 0.2008639 -0.1803063 0.054900438 -0.25136057 -0.076114446 -0.053375438 -0.07872894 0.34749353 -0.10447636 -0.19442551 0.33026952 0.15962613 0.2396751 -0.5556465 -0.41301042 0.4406982 0.025265146 -0.025820285 -0.32081258 -0.12774548 -0.24112393 0.05720227 0.18223956 -0.4584147 0.15823767 -0.423721 0.19331594 -0.3214713 -0.04631115 0.072540246 0.39963397 0.21081936 -0.34748504 0.18930836 0.25548542 -0.019144977 -0.299621 0.090541214 0.22688577 0.39242557 -0.25050843 -0.2866635 -0.119787045 0.2535569 0.068370596 0.10975884 -0.1339598 0.48466143 0.17767406 -0.08891418 -0.024830073 0.35206825 0.42568633 0.13300993 -0.26272565 0.24444462 -0.031230243 -0.10987833 -0.09418161 -0.2642473 0.1726864 -0.32841894 -0.022639306 0.19033815 0.2835807 0.19543761 -0.071060345 -0.18159415 0.015140162 0.24623792 0.24383079 -0.35316074 -0.062539324 0.31090406 0.32155153 0.408692 0.18076688 -0.056096718 0.27983677 0.060238324 0.32268983 0.035172224 -0.24609856 -0.06081871 0.22590494 0.056497093 0.229844 0.14027119 0.10013402 0.06460692 0.04204867 -0.010757967 -0.17637417 0.34398913 -0.10171833 -0.16178447 -0.04303854 -0.112202086 0.06982069 0.34262183 -0.16171455 -0.019616498 -0.24250026 -0.2064394 -0.13205126 -0.22534153 -0.3849041 0.528782 0.46268108 0.46034443 -0.16178522 0.38244566 0.2390509 -0.108952515 -0.45955566 -0.034952346 0.0670675 0.08237244 -0.4300915
1998 0.6069694 -0.114163265 -0.25437286 -0.14890221 0.31911668 -0.16496694 0.097864166 -0.21203052 -0.03989551 0.03810092 -0.13926467 -0.0067549106 0.21144834 -0.32250705 0.28338456 -0.17073347 -0.10263061 -0.09693738 0.014928882 0.31911582 0.1688502 0.036517657 -0.31465292 -0.42331353 -0.060230583 0.39964578 0.11554358 0.2162678 -0.26133332 -0.13871177 -0.22486925 -0.06109162 0.4989194 -0.34077236 -0.2850963 -0.1779078 0.11121257 0.14059861 -0.23914729 0.19234793 0.06975326 -0.2208694 -0.04925289 -0.20777556 -0.09049084 -0.12587552 -0.021091606 -0.123161 0.28052425 -0.2562398 -0.2864471 -0.015110038 0.03006585 -0.12948975 -0.2848089 0.19142023 0.2812711 0.25895217 -0.37544367 0.24794844 -0.15491877 -0.051954553 -0.23352525 -0.3040734 -0.110021025 -0.14706774 0.16615735 -0.27138364 0.15882288 -0.005554976 0.059933458 0.528484 0.26880464 -0.22989458 0.12839544 0.69509256 0.09150034 0.0800945 0.36160815 -0.06273781 -0.16008615 -0.0399556 0.32442236 0.36550036 0.09918835 -0.084397666 -0.29490876 0.22146867 -0.05233921 0.19087563 0.025634702 0.08154118 -0.12577267 -0.07868091 0.107731864 0.3870222 0.13925828 -0.317745 0.22179572 0.018879712 0.08009926 -0.09122616 0.57848823 0.5020208 -0.08129772 -0.3986667 0.12980258 -0.36743686 0.39735684 0.20384791 -0.40400007 0.1254692 0.14800587 0.11479083 -0.31457764 -0.1991798 -0.33878025 -0.27204087 0.622676 -0.42361623 -0.061462585 -0.2869898 -0.014261372 -0.08145621 0.28632802 0.06055645 -0.2072327 0.22291279
1991 -0.24604219 0.26876178 -0.11479366 -0.18446428 0.061726965 -0.067438506 -0.13247272 -0.082019106 -0.3701825 -0.35480383 -0.055354737 -0.03759802 0.026558328 -0.18970643 0.5551394 0.4916216 -0.04861209 -0.13083005 -0.44959486 0.2279457 -0.22465631 0.0642975 -0.057421837 -0.011378415 0.4501138 -0.31430578 0.14886042 0.16939573 -0.037923202 -0.35500607 -0.35080302 0.32711592 -0.28090128 0.08130153 0.32922912 -0.18008138 -0.4280016 -0.28451833 -0.008848917 0.02394324 0.44187903 0.10262304 -0.048853233 -0.22635703 0.0041849692 0.095226206 -0.07050479 0.038805094 -0.22672 -0.4616882 -0.29639816 -0.076455645 0.18219277 0.26114497 -0.04777274 0.25370154 0.09435087 0.23161538 0.041795183 -0.22591932 -0.037962586 0.06047183 -0.06941034 -0.18560925 -0.24485973 0.3358937 -0.03454247 -0.29681846 -0.053882096 0.07747246 -0.24197252 -0.08721109 0.26875928 -0.022829274 0.38356942 0.334028 -0.15147367 0.36940378 -0.4783868 -0.07316336 -0.17683966 0.31652838 0.065038286 0.19288258 -0.13427937 -0.25393352 -0.30415812 -0.21937051 0.28925818 0.13805322 0.18676725 0.15224278 0.03569402 0.20236711 -0.1974749 -0.44179034 0.24161354 -0.08677227 -0.23629835 0.06148119 0.16728394 0.42869362 -0.19105695 0.43715242 -0.17671205 -0.0047825766 -0.18452391 -0.1588005 0.27734196 0.2571806 -0.11743257 0.011451545 -0.41610587 -0.08437045 0.21025927 0.25135872 0.17853834 0.13152966 0.17254543 0.060687587 0.31621006 -0.045363843 0.20782922 0.2655895 -0.0716491 0.029424345 0.121222034 0.0014008406
2000 0.27591252 0.09507015 0.3711244 -0.3017705 -0.073817 -0.24274687 0.12788917 0.48483995 0.116228156 -0.0262355 0.16102207 0.27702972 0.18372889 -0.24807958 -0.10963568 0.37726477 -0.13783474 -0.014681907 0.17624821 0.14813569 -0.350132 -0.34793246 0.09713189 -0.100868784 0.12614195 -0.082081765 -0.034716424 0.04418199 0.17311336 -0.30179584 -0.3573891 -0.08671189 -0.07658092 -0.35440606 0.010760446 0.21205862 -0.32590044 -0.31523454 -0.0005001127 -0.006812473 0.105551794 -0.29596564 -0.0757908 -0.28420663 -0.30477062 -0.14516066 0.5891207 -0.3370035 0.068367556 -0.43333292 -0.12280122 0.42198417 -0.60564125 0.21422844 -0.61111933 0.08324298 -0.12585688 0.08212611 -0.321337 -0.013365183 -0.4505578 0.1865318 -0.05048358 -0.016175168 -0.10883429 0.0006712177 0.11623317 0.0056847804 -0.076639816 -0.008487997 -0.6218402 0.20104732 0.19747601 -0.29362446 -0.14975882 0.22443683 -0.3201082 -0.013257711 0.09122967 0.15647584 -0.2213574 -0.3317602 -0.2303332 0.024990942 0.13228081 -0.291457 -0.22091617 0.22824988 -0.06264207 0.14966884 0.34569785 -0.033584382 -0.5388778 0.004974779 0.013310596 0.008127874 0.029466098 -0.26221463 0.5528784 -0.35255554 -0.096040316 -0.2242001 0.1714843 0.04963548 -0.037325293 -0.28425655 -0.073855676 0.30136138 0.2724424 0.10827273 0.12476491 -0.13993132 -0.103093095 0.31503832 0.17513894 -0.008288308 -0.002585189 -0.18937974 0.084750645 -0.2189947 -0.0015215082 -0.23586784 -0.33278129 -0.11816743 0.05832194 -0.115625955 -0.49459752 0.12582664
1971 -0.088866584 0.348204 0.26149762 -0.14519668 -0.13309722 -0.011179096 0.6339662 -0.12836152 0.077495866 -0.06895864 -0.0060688253 0.05926079 0.07933328 -0.47555697 0.03983256 -0.039237723 0.34258354 0.021516789 -0.03669242 0.25445628 0.0036427707 -0.13927433 -0.35284272 -0.34234977 0.19753262 0.013585855 -0.058900096 -0.23250513 -0.22596426 0.22732255 0.3607883 0.17512377 0.06774723 -0.12057788 -0.042244736 -0.51382 0.22596867 -0.4550361 0.08493919 -0.11550227 0.38532737 0.16984797 -0.10385189 0.35117012 -0.0010223957 0.04292615 -0.21174422 -0.16090749 0.16436909 0.1732721 0.09383417 0.01822398 -0.36756295 -0.009863344 -0.15777068 0.3319931 -0.1493037 0.44210744 0.23071238 0.05425059 -0.114795655 -0.45554614 -0.37705663 0.1402441 0.42465934 -0.016100733 -0.17692843 -0.23629664 0.12450924 0.31280226 -0.14062575 -0.35473818 0.23041537 -0.034695163 -0.053629857 -0.05341735 -0.080989614 0.018108698 -0.2282508 -0.13389285 0.36995012 -0.30151317 0.0068282704 0.2881146 -0.019637903 -0.34682038 0.1092797 0.1835718 0.2553826 -0.14360839 -0.008009398 0.23276182 -0.01973951 0.17804988 0.3248016 -0.011087199 0.22844371 0.3572623 0.1314597 0.38538337 -0.028085858 -0.008410066 -0.017479956 0.18881875 -0.1822273 -0.048434425 0.09626827 0.07410507 0.0023802377 -0.14708264 0.24826637 -0.1792213 0.049109306 0.2557231 -0.4401348 -0.28249896 0.02233211 0.3974672 -0.31862214 -0.5619287 -0.7978778 0.091507494 -0.2521947 0.03999256 0.19903874 -0.40586323 0.043416306 0.0038939312
1997 0.025246646 -0.046171986 0.16954409 -0.17385648 0.2885107 0.2470044 -0.46078655 -0.21084212 0.31711245 -0.3470083 0.022215044 0.025443038 0.21260087 0.06909382 0.3116932 -0.38825315 -0.22159968 -0.2707821 0.24936932 0.05613906 0.044212252 -0.23648986 -0.32602948 0.11532751 0.030779762 -0.37417808 -0.16760635 -0.18584274 -0.56981 0.29035857 -0.1348509 -0.48188406 -0.034693077 0.029715003 0.21330151 -0.18364832 0.13588184 0.04179636 -0.26488647 -0.19227526 -0.2825912 -0.06485804 0.0007300527 0.009287711 -0.21393497 -0.3484742 -0.20205767 -0.18891014 0.07002117 -0.08093149 0.20385732 0.034969516 0.13546515 0.23423733 0.056546193 0.049086586 0.24240161 -0.04163577 -0.040588167 0.30415118 -0.02548965 0.17589962 -0.20850515 -0.48791212 0.027348824 0.21133669 0.12637891 -0.13114113 0.54141057 0.17193343 -0.6254909 -0.24988303 0.25556576 0.03178842 -0.038382016 -0.15774451 -0.13728027 0.21329845 -0.22584447 0.0959566 0.10821876 -0.21434696 0.11396689 0.19830757 -0.41555548 0.1724985 -0.25958318 -0.22488618 0.5547567 0.51589227 -0.092058524 -0.04345495 0.17437975 -0.101536825 0.3459535 -0.08420611 -0.18248402 0.5552266 0.5036832 0.14651991 0.07362974 -0.12569302 0.37621227 0.0690724 -0.13123277 -0.18553837 0.3657017 -0.20172311 0.0672143 -0.121668406 0.13744989 -0.07364316 -0.03282704 -0.16677128 -0.025711028 0.23924032 0.123628065 -0.07765173 0.2420435 -0.04616073 0.24700898 -0.07636528 -0.33158797 -0.24700375 0.14381552 -0.18193041 -0.2541813 -0.1880856
1983 0.11550581 -0.48529056 -0.23225133 -0.21818985 0.059892688 0.1040187 -0.073769666 0.13887979 -0.099663146 -0.29737478 -0.048048873 -0.08460782 -0.32345766 -0.06717043 0.40717736 -0.04613507 0.15198731 0.21219037 -0.33306092 -0.2327661 -0.23151472 0.039147504 -0.05256637 0.28721255 0.36331457 -0.19885853 -0.0011212168 0.17161916 -0.06765419 0.07861856 0.16487691 -0.00040236342 -0.21554689 0.2916252 0.14102252 0.085147284 -0.019380929 -0.048298348 -0.4579566 -0.046902016 0.31544545 -0.21592245 0.5555224 -0.22304262 -0.022184081 0.14640169 0.11144419 0.27733985 -0.029838864 -0.03810083 -0.14983441 0.11787232 -0.35186946 0.22227536 0.011523579 -0.2122807 -0.09357507 0.095582254 0.0577371 0.25600186 -0.17810676 -0.29554236 0.31698906 -0.15959965 -0.36330062 0.3331292 -0.122871056 -0.34035814 -0.30515292 0.0068844305 -0.6901346 0.19928274 0.24316825 -0.0829592 0.25124115 0.21003936 -0.5805611 0.48736924 -0.43055105 -0.033892397 -0.18558522 0.34985676 0.5013491 0.2682613 -0.010433033 -0.08782414 -0.3843427 -0.06404937 -0.34190252 0.24262406 -0.2430956 -0.03527667 0.06347637 0.15137367 -0.2462978 -0.50050807 -0.1138813 -0.17245103 -0.14173596 0.09909427 -0.14156456 0.04025397 -0.14351796 0.18189976 -0.3032808 -0.23656717 -0.1078716 -0.3605144 -0.16595285 0.40162036 0.10283631 -0.3652761 0.15230206 0.13691325 -0.03968951 0.36990604 0.16277047 -0.049314283 0.05900029 0.24669504 -0.08487762 0.40283942 0.13316251 -0.13949047 0.32000434 -0.11612735 0.14282025 -0.20519958
1964 -0.14038813 0.041159388 -0.05274994 0.20114964 0.35443678 -0.023222774 -0.13619862 0.27074122 0.09502558 0.0018842574 0.2014988 0.050414283 0.44894734 0.044790197 -0.033086065 -0.5055117 0.08866678 0.13335535 0.19493616 0.25426185 -0.10581673 -0.371797 -0.3210991 -0.07845939 0.1870144 0.24353802 0.03761979 -0.19387002 0.037751604 -0.011177745 0.13950871 0.023511833 -0.18718953 0.06302278 -0.12665434 -0.14927742 -0.18449536 0.017832136 0.09468504 0.37121484 0.2738949 -0.25007492 0.17365345 -0.046226643 -0.14605628 0.33688107 -0.08718896 0.07562139 0.217267 -0.07195217 -0.098429516 -0.38210222 -0.17683654 -0.11602395 0.4645837 0.4983986 -0.14748074 -0.13294634 -0.08208711 -0.12137441 -0.13452525 -0.33050674 -0.07490902 0.14624575 0.42923692 0.6564501 0.6085734 0.14529075 0.1796302 -0.5518832 -0.35948285 -0.37176722 0.30477968 -0.031217573 -0.0021985 0.46431726 -0.00077218853 0.055728007 -0.098675504 -0.4299822 -0.24783137 -0.35968757 0.2575338 0.097516224 -0.117421746 0.061985604 -0.33498767 -0.11692082 -0.198682 0.4941736 0.09508041 -0.06815337 0.0072242734 -0.06098439 -0.10472045 -0.088157035 -0.10693415 -0.24891378 0.2206591 -0.06307743 -0.1265677 -0.26150027 0.18351135 -0.26017573 -0.0011313464 0.45404375 0.07522002 0.11069216 -0.3310578 -0.020708246 0.022979908 -0.1260948 0.20034811 0.109740466 0.02323806 -0.23218101 0.29742184 0.1490653 -0.045508064 -0.256265 0.23074302 0.019764705 -0.2842109 0.104043394 -0.24387829 0.30382532 -0.14129733 0.30558527
1977 0.29707792 0.2677432 0.6061417 0.08875292 0.06971172 -0.07329139 0.32739475 0.011434911 0.042734105 0.11553494 -0.16548552 -0.07606789 0.42356023 0.23911208 -0.15778172 0.006324871 0.05712275 -0.093997076 -0.29063073 0.37259647 -0.19605598 -0.114000745 -0.016672311 -0.050154228 0.27832472 -0.34350076 -0.14555013 0.11640494 -0.045729946 -0.17781667 -0.16105537 -0.015138711 -0.16065538 -0.27463862 0.09733207 0.29944697 -0.05634824 -0.19580261 -0.2630164 0.15804113 -0.3425188 -0.06356061 0.06148304 -0.16966581 0.056661725 -0.33646023 0.1757022 -0.10147081 -0.3075697 -0.008296391 0.42223513 -0.122578755 0.095348045 0.28123045 0.006082689 -0.26668805 -0.02295106 0.40001562 -0.1534755 -0.16418667 0.064028084 -0.17520304 -0.5511203 0.42862144 -0.05262365 0.11483752 -0.02113287 -0.14412168 0.22901894 -0.33716238 -0.58385915 -0.0037122464 0.04133834 0.017991988 -0.06015105 -0.22430211 0.044642184 0.34165195 0.10473449 -0.032229457 0.3378606 0.119867645 -0.009718377 0.3366393 -0.43375844 -0.39276776 -0.13264102 0.18741712 -0.0901894 0.09006119 -0.029130079 -0.017120339 -0.5601009 0.10221743 -0.25297448 0.028249003 0.13293546 -0.50263685 0.22521111 0.24053757 -0.0383833 0.10945127 -0.082033485 -0.0699321 0.081717424 -0.06630509 -0.41327065 0.42283654 -0.04399895 0.5593523 0.11617266 -0.15200609 -0.34605277 -0.023425953 -0.07947537 -0.0955953 0.19589402 0.12431545 0.17349644 -0.39761838 0.16908033 0.01855473 0.18227422 0.29168573 -0.122095905 -0.26644647 -0.33407947 -0.38276196
1996 0.42011172 -0.31872022 0.2822355 -0.13346934 -0.11799505 0.029526297 -0.14689611 0.035072763 -0.015323015 0.21360514 -0.0027814573 -0.29596397 0.15387632 0.003788675 -0.2358843 -0.22369498 0.047013916 -0.08702594 -0.09922497 0.20961282 -0.31649807 -0.14141144 0.20421311 -0.40972117 -0.012870933 -0.14818004 0.027024755 0.16814299 0.09015282 -0.12430774 -0.11988728 -0.11370221 0.017967502 -0.011629728 0.0015942209 -0.07349671 -0.27689937 0.23386744 -0.20378603 0.11198735 0.14855044 -0.0057003484 0.17118354 -0.063219935 -0.119832136 -0.17560413 -0.16442692 0.31863484 0.1362085 -0.22456503 -0.12906475 0.24509403 -0.29632306 -0.1160532 -0.38249964 -0.11858818 -0.16134728 0.28059283 0.36521813 -0.15430018 -0.48247978 0.72642106 -0.11991872 0.28840393 0.24258819 0.74777555 -0.045930445 -0.5525897 -0.117774464 0.30747056 -0.28393075 -0.07637269 -0.13219316 -0.20947783 -0.18118085 -0.040843938 0.2757757 0.21180443 -0.42124438 -0.022246325 -0.14770666 -0.043933224 -0.0009775348 0.051586587 -0.049126036 -0.084472254 0.047269523 -0.5263618 0.17343189 -0.11702658 -0.11752757 0.16384576 -0.69668335 0.08138052 -0.053900983 -0.111376755 0.20168144 0.1476182 0.23932044 -0.02603801 -0.20270568 -0.13383952 0.08431896 -0.07591007 -0.062915236 -0.0976961 -0.12668881 0.45364892 0.07348284 0.2539829 -0.54578257 -0.11726789 0.19533095 0.03697808 -0.2095929 -0.0839389 -0.20689459 0.3314284 0.059431203 -0.34320614 -0.37336197 -0.093088076 -0.018155174 0.06936758 0.0066694748 0.16736087 -0.28968573 -0.046058305
1992 -0.26081887 -0.119561285 0.23149264 -0.05713792 0.28997657 0.05060432 0.22305404 -0.019858163 -0.31767547 -0.2141648 0.054467693 0.07924131 0.10265938 0.41799197 -0.060226392 -0.1635363 0.36384296 -0.44227973 0.09668603 -0.10189115 0.0041815513 0.14562474 0.11197065 0.097622104 -0.2652463 -0.047352277 -0.16862634 -0.018185414 0.17101417 -0.0028124244 0.11970277 0.07560164 0.19769877 -0.21081518 -0.08317203 0.285679 -0.03944808 -0.15128745 0.2732128 -0.118681334 0.027912844 -0.056641877 0.21130218 -0.21551956 -0.332053 -0.015503374 -0.41801482 0.39263245 0.057918232 0.29311898 -0.1386965 0.094317615 -0.66934353 -0.18030798 0.06156259 -0.0318346 -0.36387593 0.19035596 -0.4239213 0.11242647 0.07568436 0.40445012 0.1555701 0.051471118 -0.1122324 0.111973315 -0.17210153 -0.18934469 0.23032178 0.3128755 -0.5862859 -0.1260279 0.46981812 0.016396536 -0.15215981 0.19628045 0.048458166 0.036906146 0.06160572 -0.32652372 0.03602508 0.34936276 0.17317095 0.2771881 0.25922728 0.166948 0.102608986 0.0145520065 0.10843196 -0.09875959 0.11511227 -0.032930784 -0.20117636 0.515662 -0.45497325 0.51132375 0.22243473 0.12344056 0.2160607 -0.1019981 0.39475334 -0.16399659 0.1730664 -0.12762208 -0.4417369 0.061847072 -0.37635493 0.11625927 -0.1744383 0.25402442 -0.26528522 -0.15539742 0.2309147 -0.11268406 -0.21083972 -0.3490982 0.41893044 0.107833385 0.6193959 -0.23221959 -0.38856915 -0.14120235 0.14731483 -0.25952977 0.22193281 -0.038239546 -0.03631234 -0.08780441
1989 0.26954764 0.54250765 0.4431557 -0.12156519 0.052538134 0.054573085 0.33636853 -0.21899393 0.3612388 0.21459746 -0.047721237 -0.13478601 -0.23600133 -0.4569516 -0.3290661 0.0931951 0.31383738 -0.2674519 -0.19087376 -0.313137 0.040213782 -0.2738005 -0.4239776 -0.2953626 0.27304512 0.08141035 -0.10276766 0.3188271 0.039115835 0.021091828 -0.079670876 -0.072082646 -0.27663186 -0.07799357 -0.0538559 -0.21811464 0.13244435 -0.3512032 -0.061006863 -0.60977274 0.28420997 0.21426739 0.068178095 0.63901883 0.19679828 -0.3654534 -0.32496583 0.09984928 -0.13663457 0.09462094 0.28089288 -0.08989699 -0.32302988 0.123777665 0.013780052 0.17639004 0.0485454 0.28826952 0.119996145 0.19371454 0.18990593 -0.13645779 -0.04909746 -0.23276661 -0.035323445 0.1965936 -0.15404865 -0.3080866 0.02762766 0.23739684 -0.21057026 -0.14555962 0.26029065 -0.07633442 -0.19998804 -0.06807628 -0.18155724 0.03519053 -0.11876834 -0.35983238 0.12748377 -0.49583927 0.1234334 0.09518735 -0.21238546 -0.04658475 -0.13019533 -0.3824028 0.5169717 0.1021858 0.27023196 0.14578605 0.18356322 0.24156216 -0.10980718 -0.03218468 -0.22600235 -0.13558114 0.16159146 0.2101346 -0.21680419 0.15803798 0.36393392 0.20098826 0.32647592 0.3299537 0.06249348 -0.050666243 0.010757911 -0.2350548 -0.11052501 -0.17579542 0.15666065 0.07347649 0.3520087 -0.32726508 0.18387598 -0.12740415 -0.23749562 -0.21535678 -0.08311605 0.115792975 -0.16671598 0.076891504 0.23706034 0.109971546 -0.49292704 -0.32563812
1975 0.32580253 0.15081409 -0.19134565 -0.11907931 0.19907843 -0.0067139007 -0.013529687 -0.21707132 0.37665093 -0.23290546 0.50870645 -0.16502495 0.26010096 -0.14717937 0.6147413 -0.093442604 0.5291158 -0.23421054 0.41819236 0.28788248 -0.115516186 0.106910035 -0.23713419 -0.16143323 0.052695163 0.3249325 -0.13755356 0.13028008 -0.58840156 0.15355119 -0.1920982 0.0044550416 -0.28623465 0.042493958 -0.09369034 0.10726207 -0.25462812 -0.24656618 -0.054092195 0.033453085 0.03502949 0.6584588 0.030865623 0.1736228 -0.22077334 -0.07205135 -0.02521387 0.028899208 -0.12200891 -0.22569904 0.19725437 0.04182361 0.2847709 -0.5065135 0.5327412 -0.27094126 -0.128058 -0.05295386 0.023345226 0.2789947 0.19586258 -0.2886487 -0.029690968 0.026260545 0.09320377 -0.2030192 -0.18803617 0.029890468 -0.05459439 -0.09872449 -0.5319618 0.39313686 -0.22063357 0.10346455 0.15499125 0.15544252 -0.15185243 0.0022753126 0.5414105 -0.20110276 0.14652783 -0.26060975 -0.17467016 0.41223544 -0.015270015 0.10002114 -0.08666811 -0.37574273 0.16165206 -0.08779862 0.32575852 0.57290906 -0.22142132 0.105203934 0.03334883 0.027284961 0.5021525 0.33043954 0.15997574 -0.27897674 -0.28147495 -0.22743154 0.023918986 0.05535163 -0.44051108 0.5311519 -0.35173243 -0.47240037 0.13837697 0.21768343 -0.05694734 0.28257635 -0.17445792 0.019266268 0.19687536 0.14870302 0.03535222 0.36001647 0.019560933 -0.3606635 0.37360573 -0.10650795 0.09122339 -0.19234954 -0.0690471 0.051905423 -0.023483073 0.24198161
1982 0.027196003 0.011524071 -0.4145931 -0.2131186 0.07129969 0.43306094 -0.0020724142 0.5243737 0.2793584 0.18655288 -0.312608 -0.014843721 -0.11035035 0.05485827 0.026856132 0.38692975 -0.4956886 0.15949449 0.0743455 0.059956074 -0.12545624 -0.21532829 -0.32881635 0.039809313 0.019668046 0.14157586 0.26526335 0.086939655 -0.5070525 0.10205594 -0.11494416 0.09497348 0.051167566 0.6245466 0.17307056 -0.23222058 0.10372818 -0.13313116 -0.3951377 0.09430196 -0.18284768 0.06517118 0.2871603 0.28731614 0.038613997 -0.2941529 -0.09994055 0.55749613 0.22153609 0.15797712 0.054400157 -0.3309317 -0.64095914 0.13134901 -0.32896724 -0.014945537 0.16419646 0.5109263 0.20179372 -0.40364876 -0.1895349 -0.17402026 0.0074443314 -0.03233706 -0.13851675 0.0110028135 -0.051673163 0.52972835 -0.026064789 -0.31821463 -0.4436349 -0.2879322 -0.084462404 0.31105193 0.31213036 -0.021231933 -0.12179742 -0.23566209 0.4298179 -0.27784747 0.12257765 -0.038476255 0.2504055 0.031957485 0.20918864 -0.13987777 0.07671034 -0.4096324 0.13901554 0.35273907 -0.18181242 0.06362582 -0.22680123 0.51285076 0.070080444 -0.12778802 -0.08092874 0.11854541 -0.41284245 -0.2546732 0.105082385 -0.29426277 0.41388217 0.23780791 -0.17312649 0.06259499 0.21416701 0.15864156 0.09750067 -0.42075303 -0.2366421 0.31028026 -0.17289896 0.26197422 -0.011318732 -0.06898801 0.31580773 -0.07063859 -0.0320967 -0.26547143 0.013208126 -0.30157122 0.1827313 0.18789826 -0.013518089 -0.097104505 -0.21450472 -0.29443485
1981 0.17943704 -0.055848144 0.34754014 0.056267437 -0.029443987 -0.119249105 0.13738294 -0.21268333 0.081115924 -0.21118923 -0.22655788 -0.16665863 -0.036102887 0.1948573 0.026933642 0.06520286 -0.036496047 -0.033221073 -0.06928438 0.06781132 -0.2132785 0.09074789 -0.103633 -0.2184946 -0.17906933 0.017693846 -0.012259743 0.40286475 -0.26939437 0.09115277 -0.45883447 -0.15273203 -0.01807467 -0.07218478 0.1795502 -0.18869077 0.09467215 -0.0638738 -0.14327908 -0.19636962 -0.017870845 0.22576521 -0.26183715 -0.54046315 -0.18545054 -0.052979644 0.040294472 0.022241231 -0.0749474 -0.10002476 -0.6018167 -0.1393867 0.047305815 0.031306382 -0.42945904 0.12410165 -0.084163 0.09994819 -0.6505071 0.028657367 0.521053 -0.36255154 0.029980581 -0.3509203 0.05681663 -0.023436345 0.07055116 -0.264092 -0.33964297 -0.34167492 -0.42963454 0.08134441 0.31489274 -0.12768942 0.44446042 0.38641605 0.18593417 -0.054568913 0.50425714 -0.028508525 0.08457172 -0.18557031 0.10073187 0.2314066 0.060409058 -0.0899427 -0.28102046 -0.02745398 -0.632598 0.17925368 0.2191812 0.19003503 -0.68494964 -0.16268408 0.1322763 -0.2162928 -0.2566795 0.19953613 0.0089349 -0.30723017 0.2592187 -0.120065756 0.020559834 0.13510469 0.4256049 -0.15760389 0.3690194 -0.45920348 0.024911376 0.26331207 0.38436598 -0.12566549 -0.20261748 0.48841327 0.0408155 0.21104601 -0.07519298 0.29479492 0.0029144196 -0.08525041 -0.25964716 -0.07965052 -0.116716355 0.033690818 0.06283456 0.13032626 0.014353973 -0.41451827
1976 0.048078466 -0.018909372 -0.08886825 -0.12170158 0.20538308 -0.49002028 -0.024391398 0.51971525 0.26842818 0.057515237 -0.37241566 -0.309591 0.19117625 -0.02573891 -0.12932168 -0.10986224 0.5055478 -0.6154888 -0.118578166 -0.29162604 -0.36337456 0.1547876 0.29352888 0.23813446 0.11908796 0.7823951 0.2681401 0.11406346 -0.31543404 -0.04740873 -0.009535847 0.097559504 -0.585476 -0.32129234 -0.17120986 -0.58280677 0.03302248 0.10016821 -0.16766757 0.036763094 0.25789455 0.16733597 -0.123607986 -0.103430375 -0.20192574 -0.14272772 -0.042776324 0.044413492 -0.13201931 -0.24335031 0.3300067 -0.14939235 0.0039822287 -0.0980715 0.056450676 0.018043589 0.0054319315 0.29636216 -0.22653724 -0.07614973 0.07400977 0.25785783 0.37363723 0.100354366 -0.024039647 -0.20397793 -0.32945782 -0.16376455 0.15389755 -0.3033015 -0.17728518 0.035366617 -0.107929595 0.097018555 0.23798732 -0.09959901 -0.101680934 0.16353214 -0.19607475 -0.31488943 0.07929379 -0.24479952 -0.066993356 -0.42396605 -0.2989403 0.07951652 -0.05128294 0.0060750614 0.014984359 0.39808065 0.118664764 0.059300113 -0.26995817 -0.22100773 -0.122363076 0.22840707 -0.080619335 -0.45736423 -0.35137823 -0.00785039 -0.11226263 0.2595104 0.09927194 0.39051306 -0.1613507 -0.095002145 0.35886437 -0.31695592 0.10654312 0.12159566 -0.12054883 0.35137156 0.06509956 -0.091274895 -0.0787986 0.019545518 0.31264547 0.07393482 0.1499812 -0.3257659 0.43473706 -0.16509019 0.20928654 0.035980433 0.33045104 -0.041105095 -0.23136637 -0.14380862
1967 -0.044697575 0.033362485 -0.06462177 0.24202505 -0.04335684 0.16812257 -0.23071434 0.1316019 0.10716867 -0.3666929 -0.028040923 -0.29430887 -0.1914099 0.11838631 -0.2985286 -0.18289867 0.031492732 0.27823707 -0.30858737 0.017819883 0.28407472 0.41320193 -0.8588703 -0.051040072 0.24656783 0.61787945 0.08355209 -0.18525621 -0.17747341 -0.08691314 0.29045334 0.17654079 -0.42872584 0.2717716 0.18434295 -0.10429404 -0.19833162 0.14285843 0.17005742 0.07523523 0.16781987 0.18835701 0.2637115 -0.20975892 -0.07448868 0.12177606 -0.042737335 0.249038 0.3550487 -0.2155221 0.15992826 -0.16404244 -0.12185121 -0.15879633 0.22145732 -0.1025697 -0.38501477 0.08687573 -0.124061234 0.1853935 -0.15990686 -0.4195006 0.27527153 0.30744573 0.34796742 0.5899988 0.12071753 -0.40949634 -0.2870307 -0.23385908 -0.26547784 0.07449169 0.06477632 0.20692444 0.105268784 0.2635706 -0.26589912 -0.121285215 0.22191098 -0.17407839 -0.11909198 -0.42515206 0.17752597 0.20955543 -0.3578945 0.14435738 -0.5346607 0.06228248 -0.30120793 0.17671654 -0.30227703 -0.32939205 -0.043057792 0.039787814 0.028937204 -0.3115263 -0.07292204 -0.045897394 0.1352347 -0.23825859 0.17536123 -0.16877115 0.21446851 0.2883815 0.13870148 -0.25664306 -0.24088924 0.18038929 -0.07353413 -0.19670036 -0.13905193 -0.3436422 0.65026516 0.16590036 -0.08948427 -0.024734477 0.36003524 0.29545027 0.2984889 0.044852324 0.052678518 0.016395641 -0.18778202 -0.17492071 -0.15123534 -0.07120014 -0.0601864 0.008343012
1984 0.16388854 -0.058346987 0.037953205 -0.17763689 -0.065488204 0.17543347 -0.0903659 0.08040284 0.105391756 -0.1867375 0.21659249 -0.179514 0.1636431 0.053831615 -0.05669829 -0.44421324 -0.035673387 -0.18043669 -0.41868836 -0.31003687 -0.18607123 -0.08430623 0.33829033 -0.24256779 0.0732394 0.26007634 0.01261411 0.086259484 -0.14861692 -0.061625045 -0.028716043 0.16543879 -0.15630522 0.0072248043 0.30285853 -0.17093715 -0.16349047 0.1290226 -0.31241125 0.038331367 0.09921692 -0.03199108 0.17762846 -0.3039699 -0.12984593 0.08073771 0.46862626 -0.021425813 -0.016473303 0.23128107 0.28490853 0.16941965 0.074405245 -0.21211419 -0.384242 0.09020951 -0.29217562 0.5668001 -0.27730516 -0.0041623074 0.052632425 -0.3056483 -0.24749136 -0.3199844 -0.20164406 -0.18805008 0.044984944 -0.079624444 0.190393 -0.32766986 0.13310947 -0.379288 0.10957106 0.099703655 0.3099565 0.086474456 -0.1618267 -0.3024619 -0.09936655 0.3109319 0.14141928 -0.32605174 0.16556317 0.43520057 0.027713438 0.16977584 0.064205214 0.38008925 -0.1003504 -0.22210513 0.1608518 -0.17275707 -0.39807278 0.20163044 -0.13477404 0.37093237 0.38503227 0.18246272 -0.10483541 -0.23814322 -0.06541805 0.06441553 -0.16382994 0.4508011 -0.18507907 -0.16987203 0.40433973 0.06952306 -0.36185196 0.09245754 -0.00828469 -0.39560524 0.046538223 -0.03325301 -0.03613271 -0.44201583 -0.038679805 -0.29630867 0.20662801 -0.012277597 0.80138075 0.094142444 -0.001354557 0.5303582 0.2967067 -0.11890567 -0.32524115 -0.03147918
1972 0.40337825 -0.15125205 -0.3390707 0.17678353 0.003073878 -0.11778164 -0.016978098 -0.117677286 -0.10292155 0.22043042 0.1476696 -0.0997244 -0.21190716 -0.08449334 0.022890046 0.032179724 -0.12423264 -0.018075095 0.100109 0.43392983 -0.5075367 0.29651424 -0.10533587 -0.1251538 -0.35977393 -0.17678107 -0.16682881 0.37626287 0.06565149 -0.028379915 0.03879774 0.0101112295 0.1693179 0.03402124 0.010376091 -0.015545141 -0.3524013 -0.20735574 0.15780042 -0.019823574 -0.07064546 -0.12795071 0.51637983 0.20735337 -0.08470584 -0.25578123 0.53409916 0.2305547 0.07208707 0.24675764 -0.18203208 0.6067785 -0.4026974 0.05477486 -0.09752565 0.07667659 0.12284467 0.17311713 -0.784503 0.17084503 -0.44715536 0.0850709 -0.5097261 -0.34528938 0.28904834 0.011328583 -0.018322906 0.0116296485 0.46827793 -0.020120986 -0.17575528 0.51535565 0.2549809 0.17750907 0.17635548 0.0059842654 -0.6046529 -0.37914342 0.17293355 0.13660303 0.053275045 -0.45769134 0.09024177 -0.34159654 0.087014586 -0.36437067 -0.12529367 -0.22767879 -0.17023957 0.018008357 0.36002946 0.10121386 -0.04457963 -0.28759515 0.014521662 -0.12632895 -0.28195024 -0.062481012 0.088924065 0.061990384 0.44680846 0.03979253 0.06667928 0.4860481 0.18435457 -0.10573597 -0.087093815 0.06916325 -0.180107 0.42633754 -0.10092029 -0.103798 0.056553252 -0.020146336 0.17170127 0.2570548 0.07044823 0.098979644 0.05016169 -0.17537124 0.02699755 0.0777906 0.1438053 -0.121130526 0.07321859 -0.18872514 -0.39147672 -0.3872365
1973 0.052103978 -0.3673144 0.5222136 -0.1599669 0.18133526 0.2261532 0.32818985 0.3742456 0.08544116 0.28298143 0.037485067 -0.03366298 -0.2623064 0.120582 0.01924473 -0.18755583 0.019714853 0.046418164 -0.19935071 -0.28193682 -0.23136058 0.07609499 -0.11619249 0.36133322 0.3660006 0.17945784 0.09533408 -0.021683766 -0.5955701 -0.056369122 0.28290617 0.0431445 0.17042412 0.32745412 0.054259315 0.18673636 -0.13675402 0.21292944 -0.059384596 -0.15621617 0.1838633 0.0607853 0.093243174 -0.44988695 0.05445403 0.20075269 0.028799135 -0.25931683 0.12780538 -0.32406268 0.21037313 0.2252423 -0.29646194 0.1583555 0.006896255 0.01833472 -0.32576066 0.46100825 0.04482865 0.38615027 -0.25557786 0.34006006 -0.29724503 0.03924014 0.023748001 0.016502148 0.20683585 -0.12074922 -0.34210387 -0.18184893 0.07024001 -0.057832897 -0.029423011 0.38218683 0.3928814 0.32800293 -0.46510231 -0.18364659 -0.1066992 -0.24980886 -0.04053415 -0.29297748 -0.17690957 0.14308669 0.2881766 -0.19752303 -0.24653675 -0.00954574 0.18245552 0.037732847 -0.14780985 -0.027305203 -0.42578706 -0.12367641 -0.12369528 -0.09843548 0.42953125 -0.27429342 0.21008328 0.02717818 0.06737526 -0.29265657 -0.78994524 0.29790398 0.21482731 0.27157286 -0.03163868 -0.19824445 -0.10387732 0.02493772 -0.27653962 -0.2681165 -0.39942977 0.043659497 -0.03675554 0.00943229 -0.13684562 0.046311107 0.52882916 0.091297895 -0.13541982 0.25755572 0.13220376 -0.15048349 0.1611087 -0.19891399 -0.22630031 -0.09999911
1993 -0.03433628 -0.08225809 -0.12201758 -0.25973403 -0.13944542 -0.004227101 -0.015525347 -0.28025582 0.09353504 -0.22369671 -0.21769047 0.3376913 -0.7238682 -0.106620826 0.12533899 0.15467152 -0.006966748 -0.082232006 -0.5347347 0.18700573 -0.319812 -0.34222785 -0.12066546 -0.21422265 0.04749759 0.22922081 -0.12616004 0.19937907 -0.2712431 0.032992955 0.14007749 -0.23722416 -0.30879033 -0.31848967 -0.13588902 -0.06252855 0.10673512 -0.31371316 0.108452655 0.09090665 0.25600454 0.05175773 0.18057026 -0.043399572 -0.3358801 0.16067076 0.23077044 0.15709598 -0.22589569 -0.3871526 0.08642803 0.016456252 0.14267401 0.2166543 0.3700753 0.3923909 -0.084222496 0.17353301 0.024819179 0.38955927 -0.10780671 0.23924999 0.21003433 -0.0677786 -0.03938923 0.19238485 -0.060563933 -0.43841296 0.2074238 -0.1841909 0.26554292 -0.39370778 0.04575548 0.2419635 -0.08587813 -0.18956439 -0.22346693 -0.2832939 -0.025552008 -0.45884836 -0.16977428 -0.008652764 0.25507024 -0.21175851 -0.1666455 -0.072429076 0.2116163 0.13594694 0.15906173 0.026020143 0.117120735 0.40175307 -0.65191627 0.069927484 -0.3863878 -0.37839165 -0.20842843 -0.1853651 -0.100508444 -0.18262807 0.096360095 0.48440447 0.09080187 -0.19729184 -0.41663438 -0.04747602 0.26929003 -0.17280495 0.24188545 0.22122425 0.12938951 -0.16021243 -0.082506664 -0.19227278 -0.32351494 0.19970644 0.12658876 -0.032704752 0.22727434 -0.25722924 0.4782146 -0.19882222 0.35597134 0.6271244 -0.20379145 0.28128 -0.35758308 -0.012206167
1980 0.13630058 0.24156694 -0.1398317 -0.06395818 -0.13774616 0.05149638 0.1424057 0.44044566 0.049068023 0.39586532 -0.026682187 -0.3801838 0.21759507 0.054228004 -0.043259036 0.07586055 -0.10125279 0.4036039 0.032133713 0.46210998 -0.12851737 0.17950647 0.044876635 -0.2080958 0.2926546 0.2719111 -0.32224932 0.43762997 0.004546572 0.23296736 -0.17419085 -0.080304496 -0.025898576 0.018836183 -0.22161032 -0.48113537 -0.027641905 -0.077549085 -0.021302924 -0.19757377 -0.03210641 -0.23809206 0.4103958 -0.40145582 -0.12698592 0.02217828 -0.42898682 -0.28218076 0.095317364 -0.36395276 0.17375986 0.10730074 -0.20107831 -0.06567177 -0.040458757 -0.05472405 -0.23595513 0.44756487 -0.07327304 0.23383446 -0.15085493 0.2519925 -0.13821682 -0.21541248 0.3712417 0.24615006 0.26997283 -0.09772463 -0.058904476 -0.46585193 -0.10526321 -0.14111184 0.056368195 -0.11561344 -0.0039086402 0.09991747 -0.080942474 0.22453287 -0.40635628 0.23276652 0.056275558 0.04918343 0.21995097 0.14014286 0.2433637 0.18978469 0.09303157 0.25706893 -0.26404124 -0.24023756 -0.3484011 0.7877457 0.029866178 0.15090717 -0.2953155 -0.23742223 0.014235682 -0.14280532 -0.16825539 -0.1495223 0.008863828 -0.25745213 0.587936 -0.22413474 0.3978677 0.6127089 0.14802648 -0.083931744 0.20641132 0.5782036 0.1711439 0.28998017 0.4165104 0.08978902 0.21110345 -0.023809483 0.16556218 -0.17765824 0.3248843 0.0840208 0.09733659 0.32869637 0.0034257825 -0.19866367 -0.119236626 -0.13555424 -0.44301358 -0.21368423
1988 0.05101204 -0.38947976 0.17925543 -0.21563968 0.011112208 0.052884854 0.3919096 0.19746678 0.008865704 -0.18537103 -0.08126858 -0.22226642 0.023575937 -0.30423948 0.6483179 -0.101041414 0.053362504 0.06734647 -0.22020788 0.06787203 -0.06296666 0.26235417 -0.043660693 0.14159556 0.1422147 0.37603107 0.05619312 0.25223207 -0.19998154 -0.13860592 -0.27844396 -0.10718829 0.35973874 0.034149285 0.36225137 0.18006639 -0.2530576 -0.10908323 0.15099274 0.07139559 -0.32898182 -0.13126707 0.10697317 -0.0039354945 -0.06817238 -0.16767585 -0.08178785 -0.08825702 -0.007863743 -0.33458114 -0.24209638 -0.15938462 -0.20211305 -0.2390918 -0.052869257 -0.2337219 -0.18680868 0.22997521 0.08191126 0.007814268 -0.21745569 0.025582403 -0.4461596 -0.17164226 0.402871 -0.3635219 0.055462267 -0.1179701 -0.45238778 -0.1374451 -0.49023125 0.07859348 0.28839186 -0.18695618 0.39861828 -0.25012118 0.24336194 -0.0835337 -0.02994182 -0.26759684 0.021286516 -0.07058274 -0.25677055 0.40775853 0.063708335 0.057741348 0.31481704 -0.42838237 0.16560072 0.3276785 -0.20613353 0.029222572 -0.13590474 0.1355382 -0.25362986 -0.07993989 0.29000854 0.0559915 0.09931378 -0.07584363 0.07804433 0.021390853 0.510645 0.22307402 -0.58846384 0.06489751 -0.04575589 -0.120968364 -0.1674443 -0.30720133 -0.014571977 -0.08281338 0.2966327 0.07851666 0.023290673 -0.018360306 -0.42158005 0.27665433 -0.033417262 -0.018058136 0.25046375 0.19097702 -0.1510154 0.07757846 0.22376764 0.3976085 0.027810354 -0.519001
1963 0.17909898 0.13175008 -0.07007634 -0.06327671 -0.015066716 -0.1668156 0.23616603 -0.09910979 -0.21282156 -0.2059473 -0.2898286 -0.050229345 0.48112032 0.103800006 -0.1957004 -0.6367294 0.3659251 0.016823819 -0.48330176 -0.30190998 -0.31603795 0.082201384 0.21601442 -0.16122347 -0.24933481 0.19134676 0.042679492 -0.38517368 -0.08929845 -0.06233739 -0.4028718 0.5192324 0.009861622 0.021059016 0.0570252 -0.15612867 0.29201663 -0.27058107 -0.065276764 0.23786291 -0.39564627 -0.35081613 0.28899407 -0.042898417 -0.25611162 0.016502736 -0.04903614 -0.23456532 0.2593057 -0.29732576 -0.07984409 -0.066234924 0.17703272 0.13981237 -0.24177597 0.22221695 -0.20348631 -0.020418035 0.11876193 0.16059482 -0.057658106 -0.11827985 -0.619877 -0.51182926 0.1393338 -0.08828426 -0.2622588 -0.06720296 -0.11340427 -0.3335775 -0.08530754 -0.33398026 0.016040754 -0.25346738 0.20025957 -0.28851363 -0.4737076 -0.44890288 -0.09613039 -0.17869768 0.06254576 -0.022415359 -0.25124428 -0.17220145 0.31980813 0.25047266 -0.02815793 -0.33352396 -0.27723253 0.19104147 0.13715759 0.13512948 -0.17970969 0.20495817 -0.04768719 0.066315286 0.4816251 0.010081271 -0.04070148 0.15729581 0.1042382 -0.44364506 0.364591 0.3234877 0.04465897 0.38923785 0.10575988 -0.038745116 -0.02471574 -0.29762453 -0.037553504 -0.4659672 0.10276375 -0.13177596 0.09530121 -0.27539477 0.048530046 0.14162503 -0.08627102 0.24616075 -0.04534776 -0.011573987 0.5060449 0.26452857 -0.12317147 -0.27021864 -0.06966403 -0.1623065
1958 -0.09494413 -0.07322839 -0.19329531 -0.3235405 0.068646275 0.13044342 0.8683188 0.30353662 0.26584926 -0.03731719 -0.20855618 0.26291582 0.049247324 -0.08833719 0.11266472 -0.2664082 -0.2563218 -0.39508405 0.21212056 0.14404733 -0.2642656 0.008207866 -0.115731746 0.21747139 -0.105294436 -0.13002421 0.5537165 -0.1548149 -0.09646765 -0.10566978 -0.02300538 0.042174846 -0.2657736 0.026840048 0.011802471 -0.17151147 0.04875246 -0.11230737 -0.18559812 -0.12844485 -4.3919492e-05 0.13699958 -0.17151314 0.21881448 -0.4714474 0.14925146 0.07858448 -0.29501075 0.21930172 -0.27362457 0.13639216 -0.16525848 -0.11085019 -0.055961188 -0.20767541 -0.0050878725 -0.39882684 -0.04107519 -0.44020966 -0.06604345 -0.07548474 -0.322397 -0.10074228 -0.337261 -0.27802205 0.53852034 -0.41676247 -0.010890546 0.20420821 -0.2715415 0.2354659 -0.3015908 0.27208734 -0.12908866 -0.069595926 -0.23712097 0.074616686 -0.07856331 0.056872316 -0.27494186 0.09171359 -0.04928277 -0.23156223 0.23226288 -0.20388147 0.13652773 -0.15899879 -0.2955503 -0.0188359 -0.17796752 0.07106516 -0.1588737 -0.32931626 -0.21137968 -0.016690582 -0.10631223 0.20499972 -0.27063283 0.11916173 0.1141329 0.09789918 -0.16365066 0.07713629 -0.021993669 0.050159633 0.16129273 0.17789546 -0.47060373 -0.045044582 -0.09185381 -0.29094663 0.34058946 -0.22553377 -0.06562699 0.38276562 -0.042069893 0.2623214 0.24742043 0.023460748 -0.3579325 -0.078051135 0.0077726482 0.059315156 0.032531906 0.57357645 -0.13577305 0.31273025 -0.44138402
1956 0.052221045 -0.046778746 0.30540776 0.087921225 0.15200098 0.06921902 0.040243573 -0.02712899 0.20256823 0.014694121 -0.1445861 0.21780865 -0.119790934 -0.1609568 -0.02540667 -0.2579842 0.16876964 -0.04299037 0.46288064 0.23094735 0.18921225 0.1536329 -0.21970631 0.20851709 0.11854746 0.20346208 0.07412797 0.23937128 -0.039225392 -0.005298361 0.090898305 -0.020775609 -0.056451514 0.23285116 0.1910741 -0.060669236 0.034644168 0.047023628 -0.059407502 -0.23961493 -0.42932045 -0.04074658 -0.1870635 -1.0027237 -0.24284221 -0.26913187 0.3764604 -0.11137536 0.36991614 -0.049930427 -0.08183003 0.2890987 -0.37416285 0.16857088 0.38085404 0.11693668 0.38373438 0.06634834 0.50785846 0.051238615 0.022952907 -0.032016832 -0.16128801 -0.19331402 -0.14794043 -0.121114574 -0.12589529 0.059969347 -0.35274497 -0.41103214 -0.33507624 -0.4480431 0.0978483 0.23934343 0.015349306 0.17378211 -0.18830632 0.13979396 -0.2939729 -0.17974295 -0.060277537 -0.051915936 -0.3864759 -0.18830876 0.08076904 -0.045947004 -0.037461873 -0.1378988 -0.44203964 -0.37097836 -0.0034527413 -0.36972094 -0.30591437 0.479409 0.07504779 -0.21807407 0.34259793 0.0789606 -0.323367 0.0051350077 -0.1968645 -0.1434668 -0.12525474 0.14150235 -0.071905345 0.17684092 0.015667707 0.05972399 0.08392054 0.20014869 -0.36734343 -0.04127644 0.023595631 -0.27653056 0.020952076 0.064020604 0.012292291 0.20898579 0.18079814 0.18932442 0.5082193 -0.2484555 0.15166008 -0.10617556 0.045867085 -0.3927219 -0.783144 0.028010836
1959 0.29331312 0.11219689 0.06506834 -0.19851911 -0.030087294 0.24111578 -0.0024471101 0.36574876 0.21685135 -0.12697597 -0.39513218 -0.0033715905 0.14299963 0.5717245 -0.012461242 -0.44020373 0.15370838 -0.25889245 -0.09175731 -0.020795211 -0.11927138 -0.11805087 -0.37028188 -0.16255818 0.5003262 -0.09827597 -0.24485748 0.090949826 -0.65172637 -0.017731464 0.35129195 -0.047162674 0.13582936 -0.31220204 -0.05605185 0.030140638 0.43910667 0.17341653 0.11408562 0.15663925 0.008682512 -0.085854284 0.110860795 -0.2497492 -0.005331122 -0.2886593 0.1953327 0.2133295 0.11872886 0.28028017 -0.064171135 0.43663272 -0.5548115 -0.27130792 0.37060902 -0.17426479 0.04175767 -0.05649282 0.3972673 -0.18279086 0.033484574 -0.02945618 -0.099381305 -0.5236891 0.12001993 0.09859141 0.17666373 -0.02513096 0.25715423 -0.30088228 -0.055797167 -0.06274875 0.3506761 -0.08121682 -0.3888706 -0.12573636 0.44564405 0.22012109 -0.28956524 0.2249742 0.03960249 -0.42561346 0.12103591 0.14230834 0.1272604 -0.054362494 0.024461022 -0.12994121 -0.09423529 0.411221 -0.09497096 -0.2207046 0.055157032 0.09943813 -0.10916693 -0.323437 0.461261 0.23472987 0.062037434 -0.22887552 -0.11615299 0.06799635 0.042858884 0.04224872 -0.2672702 0.2532639 -0.22966422 -0.26981014 0.38848346 -0.019039 -0.3143693 0.11579885 0.049780957 0.07588539 0.27403677 0.39294767 0.10752079 -0.22397552 0.29422495 0.3148915 0.048196 0.119613096 0.10028608 0.5209663 0.41979054 0.08769489 -0.16834034 -0.08306559
1985 0.14260045 0.07361668 -0.26078835 -0.1438025 0.17639925 0.124241166 0.21661936 0.21058057 0.0628258 0.33564493 -0.5944334 0.022362031 0.1664133 0.11703739 0.124155425 0.04298758 0.023162704 0.21307652 -0.013478859 -0.22512971 -0.4236338 -0.32185763 -0.13685071 0.03600757 0.31534547 0.23579517 -0.5076315 0.67734593 0.18402639 -0.19173257 -0.23693427 -0.031894732 -0.10129315 -0.107137986 0.38282406 -0.3275224 -0.24579091 -0.5256135 -0.24035335 -0.017167475 0.065965205 -0.1715224 -0.049899627 -0.18213496 -0.06711222 0.11089544 0.0396881 0.0161909 -0.01585569 -0.028052628 -0.5391441 -0.19238497 -0.26823786 0.4909182 -0.48101184 -0.20182508 0.043789107 0.00486809 -0.62411827 -0.14162195 -0.23111251 0.15942056 -0.041811243 -0.36207014 0.090628184 0.05444242 0.29116517 0.24130611 0.0349061 -0.188281 -0.19702263 0.013329838 0.102427356 0.19659323 0.7271154 0.33157298 -0.3554302 -0.046653744 -0.08254814 0.10430017 -0.13992563 0.19171233 -0.20072371 0.26791877 -0.22612835 0.36511457 -0.12089268 0.03959294 -0.34193325 0.30479288 0.36296153 0.095559314 -0.30974975 -0.29060617 0.21543847 -0.09164946 0.21548225 -0.06564572 -0.006736937 -0.05971424 0.26125658 -0.19480315 -0.33096945 0.16099516 -0.23258068 -0.27044955 0.21302585 0.14832126 0.25792968 0.12506065 -0.05216331 -0.29719296 -0.253608 0.18382299 0.22705525 -0.30899602 0.11417678 -0.025324607 0.14537126 -0.07911663 0.0026862961 -0.33250707 -0.032895308 -0.23919868 0.014047481 0.088450626 -0.31038165 0.22944176
1962 0.52644104 -0.19072354 0.5444342 -0.05582781 -0.10860132 -0.1965774 -0.013809203 0.03371752 0.00023659178 -0.19505359 -0.121914215 -0.26553693 0.018576076 -0.81374073 -0.20214579 -0.006752805 0.41499093 0.17096914 -0.117274426 0.110755526 -0.3507447 -0.2783821 -0.11943318 -0.11315182 -0.036044486 0.33259815 -0.0593404 0.04434795 -0.18953635 -0.14751472 -0.239981 -0.26243392 0.17567217 -0.3535952 -0.28486556 0.06576243 -0.12961254 -0.07955344 0.027776524 -0.07128849 0.5265579 0.15886009 0.033777583 -0.15774532 0.18150492 -0.32221565 0.083695926 0.5229541 -0.2921114 0.06622635 -0.45689803 0.3036973 -0.25619003 0.25955948 -0.106277436 -0.07814448 -0.18611026 0.16624878 0.10309227 0.2242217 -0.44890067 -0.051438626 -0.28613997 -0.19627306 0.13923247 0.21919236 -0.2205661 -0.35434267 -0.10081738 0.17479233 -0.034126632 -0.24088675 -0.53720295 -0.21402279 0.042751927 -0.2588869 0.091970704 0.008241752 -0.1404253 -0.22774324 -0.051840845 -0.036021683 -0.24503344 0.140663 -0.059943993 -0.0207371 0.36365005 -0.45943058 -0.3385841 -0.26427448 -0.0063038436 -0.038120866 -0.40272757 0.3865413 0.03218213 -0.27222994 0.05109189 0.37321448 0.08512725 0.3053649 0.02812452 -0.2923323 0.16772738 -0.045419905 -0.3065371 -0.14905587 -0.068293616 -0.16213344 -0.25745034 -0.08722142 0.04814192 -0.24681741 0.08345052 0.15800987 0.11216238 -0.10328002 -0.056834407 -0.25803226 -0.13370267 -0.32753095 -0.18515857 0.34199744 -0.1919503 -0.16158204 0.2867637 0.10408618 -0.20747393 -0.14752619
1948 -0.061160497 0.29129985 -0.043939773 0.19902936 -0.083179176 -0.102953516 -0.48901063 0.11348741 -0.22918345 -0.2986522 0.16265835 0.16096152 -0.08593654 -0.204727 0.105803795 -0.332422 0.16535082 0.15904224 0.023408685 0.1672701 0.2568144 0.23993753 -0.60713327 0.24544305 -0.08398276 0.3815271 -0.0730581 0.117333874 0.13254014 -0.039317656 0.26728135 0.0770221 -0.44066814 -0.14215715 0.22897406 0.033381674 0.03154003 0.041299645 -0.22823626 0.030025963 -0.040462904 -0.19232187 0.27142724 -0.15623425 0.14687286 -0.18608859 -0.19958264 0.37661543 0.36106768 -0.16544427 -0.14784887 -0.055264413 -0.23328727 0.063857324 -0.25914663 0.15551351 -0.24075627 -0.011462831 -0.28837237 -0.08961657 -0.043491308 -0.14075688 0.16286969 -0.11318912 -0.18777 0.4239822 0.088372365 0.065252155 0.21041024 -0.5987711 -0.22822145 -0.36527035 0.47625536 0.36599302 0.067452654 0.32203442 -0.19192842 0.057179324 0.039415766 -0.36364213 -0.29108316 -0.5509362 0.06436186 0.029320493 -0.43447462 -0.23012634 -0.4580573 0.10776644 -0.26471803 0.1896804 0.13993998 0.4236912 -0.06485055 -0.50627863 -0.25752202 -0.41470388 0.028010195 0.14744176 0.23892508 -0.16712646 -0.02417089 0.09989946 0.017555993 -0.2626095 -0.08150701 0.062021356 0.009959739 0.11769739 -0.1039964 0.10864905 -0.1234194 -0.23005232 -0.26233083 0.034671117 0.17453806 0.08215859 -0.09740264 0.067807905 0.48980734 -0.33214203 0.09810405 0.008198093 -0.031701926 -0.03623615 -0.15309922 0.68173474 0.014254065 -0.17312025
1974 0.082835734 0.2860818 -0.055940874 0.13537021 -0.21303374 0.2165379 0.1822846 0.15259434 0.107779205 0.012269646 0.47443947 0.24753134 0.25108817 0.0022011283 0.29845476 -0.44698665 0.08894434 0.16299501 0.13771135 0.26526448 -0.34727392 -0.016015878 -0.35593104 -0.22680087 -0.21293895 0.08010115 -0.16599937 -0.11431638 0.21044451 0.084853396 0.18400429 0.007918407 -0.04200152 0.26230973 -0.63828564 0.20106904 0.22766815 0.06402145 -0.13237533 -0.28892282 -0.19359623 0.39983937 -0.019543245 -0.0876931 0.1159445 0.20884965 0.2574504 0.1593216 0.051491804 0.22946046 -0.5260028 -0.20754427 -0.18561837 -0.4997949 0.31635985 0.009135661 -0.064525105 0.73446405 -0.3556644 0.025208889 0.098199286 0.26187798 -0.16270734 -0.14256118 -0.06724445 0.20028022 -0.030537901 -0.21876834 0.10716669 0.32421142 -0.33985016 0.12116558 0.31916592 0.06797536 -0.03288268 0.3567943 -0.40852025 -0.0105219595 0.11328987 -0.18973228 0.15909252 -0.13477471 0.01776842 0.24991742 -0.1278862 0.12577926 0.1600715 -0.08579401 0.14057483 0.020053977 0.1936596 0.4748704 0.05043017 0.3430677 0.06807937 0.32723927 0.19156843 0.17893128 -0.07843527 -0.08304771 0.038753975 -0.034651224 -0.06647147 0.4218469 -0.11144062 -0.0007700958 -0.13995084 -0.16866674 -0.17195942 -0.13487248 -0.109093525 0.08582788 -0.21534629 -0.41816804 -0.04001474 0.23410156 0.16006139 0.024794515 0.18069807 -0.62502867 0.33807343 -0.18355682 0.29845464 -0.26303914 0.16758537 0.28643295 0.08327183 0.035338003
1966 -0.0057779574 -0.3001001 -0.14874282 -0.31001043 0.36004707 -0.36722893 -0.17832327 0.09257568 -0.17341201 -0.16451164 0.48594448 0.5754744 -0.40920365 0.004161297 -0.2508357 -0.14633147 0.39570934 0.029546408 -0.2999706 0.3879896 -0.04473132 -0.11994118 -0.3328558 0.31425762 -0.020175349 0.054404713 0.19325827 0.37962162 -0.23453 -0.12431723 0.09719759 -0.14088358 -0.38036337 -0.32492733 -0.118350625 -0.05380349 0.3074008 0.16456264 -0.22787775 -0.056599192 0.39478117 -0.16048266 0.20090042 0.051557112 -0.18282986 -0.37452373 0.25277618 -0.112497754 -0.007910091 -0.10092302 0.22438551 0.0879622 0.31779438 0.1517274 0.27452236 0.11155598 0.16689415 0.14029463 0.1571506 0.16681215 -0.30352768 0.045139715 0.28613287 0.024265433 0.17914516 0.3286633 -0.053910278 0.0049062343 -0.13107514 0.056071848 -0.41465527 -0.10380817 0.026570307 0.14456148 -0.14371207 -0.048202004 -0.6215032 -0.42072475 0.010346406 -0.62037796 0.010557646 -0.10413172 -0.08182228 0.20686953 0.17156157 0.06527534 0.21496326 0.03064319 0.08717565 -0.14741379 -0.23283294 0.2407204 -0.08840282 0.31632555 -0.04573725 -0.2691917 0.12496566 -0.0220048 -0.5680951 -0.046757307 0.30083463 -0.1325708 -0.10896203 0.17995922 -0.15459931 -0.29375044 0.14456244 0.117005244 0.101998836 -0.032658745 -0.4857697 0.1023127 -0.013118291 -0.5220069 -0.2568856 -0.55763584 -0.03943796 -0.3088845 0.037528448 -0.025325745 -0.142855 0.35062146 0.012116029 0.7090366 -0.16255687 0.15770823 -0.28966174 -0.16541545
1952 0.022811815 0.08521786 0.11768499 -0.08609409 0.0012572428 0.36504596 -0.1934844 0.2719047 -0.17674038 0.20538175 0.3312754 0.32965645 0.21607126 -0.33007184 0.24045447 -0.13383289 -0.22820641 -0.24167936 -0.31183168 0.31840548 -0.2705429 0.13243967 -0.13772587 -0.18988848 0.2668371 0.41100514 0.1882278 -0.022170663 0.045061246 -0.36200896 -0.032053404 -0.27785295 0.020866642 0.010745321 -0.23476604 -0.25517696 0.2219631 0.13071479 -0.43796754 0.15342672 -0.28106534 -0.121034466 0.22551633 0.027120844 0.4379036 -0.5736495 -0.22946002 -0.044063553 0.41119516 0.12549531 -0.12405529 0.4409282 0.091411464 0.34155455 -0.37953526 0.46115097 -0.1290372 0.112859614 -0.10348427 -0.23466423 0.4209314 -0.24065802 0.05750861 -0.086528674 0.14720885 0.045927282 -0.21454178 0.29007694 0.016447373 -0.61137336 0.24499132 -0.49277863 -0.08261512 0.12580016 0.28064424 0.10923364 -0.31144002 0.33946797 0.10585832 0.074142076 0.1412531 -0.0652778 0.09778819 0.0243571 -0.6864313 -0.25781584 0.087367445 -0.14323403 0.17918202 -0.10037336 0.12751356 0.4021456 0.03651379 0.1736967 -0.23875551 0.10435201 0.3430179 0.49365333 0.08441619 -0.16106528 0.38743475 0.14987911 -0.074475184 0.05796804 -0.018699033 -0.02840892 -0.3513334 -0.5417159 0.11684209 0.045614436 -0.5510635 0.13237305 0.14543834 -0.13662384 0.44776818 0.29156008 -0.17565626 0.13266125 0.27989548 -0.066848636 -0.17850532 -0.10934926 -0.110518284 0.25178203 -0.10562881 0.13834335 -0.15180461 -0.13912828
1955 0.16779429 0.18545064 -0.4862621 -0.017414149 0.19311453 0.17779325 -0.040050425 0.1651337 0.08774978 0.36158404 -0.45100427 0.0142568555 0.17220901 -0.5114798 0.23911317 0.20529747 -0.09204973 -0.40768158 0.29685846 0.14733982 -0.19333984 -0.003934662 0.17333046 0.07084311 0.18351093 0.46044144 -0.35355842 0.4070739 -0.42472544 0.15161693 -0.36806035 -0.032698277 0.015087544 -0.29702988 0.04244173 -0.09718865 -0.40011957 -0.02897981 0.14752199 -0.11102039 0.16481854 -0.2505146 0.0924699 -0.04024737 -0.24302062 -0.209925 0.3515304 0.01456602 0.14713316 -0.2172555 0.15112442 -0.24402283 -0.057529293 0.13229716 -0.26008004 0.24231307 -0.118191175 0.19782543 -0.16355973 -0.060330212 0.02074905 -0.20137261 -0.07190065 -0.51870745 -0.1605359 -0.15926282 -0.2002314 0.11201253 0.019099683 0.02579953 -0.2781532 0.2562849 0.11540422 -0.12811372 0.19172737 0.23975034 -0.30578637 0.08051377 0.13788679 -0.36783844 0.07065577 -0.23267305 -0.021485262 0.30539337 0.40129587 -0.17635293 0.008556877 0.17025839 -0.30836037 0.37262735 -0.143578 0.21421058 -0.3934744 -0.15642485 -0.08067751 -0.053337295 0.25885203 0.207538 0.10998019 0.3210388 -0.030598009 -0.27246314 -0.015588623 -0.029022828 0.28117234 -0.017856536 0.101851486 -0.20264311 0.4474247 -0.09895649 -0.17616221 0.30047223 0.042652506 -0.08781402 -0.13528736 -0.35792357 0.33404115 0.34335813 0.1435974 -0.12386865 0.056596097 -0.09054002 -0.18318006 -0.2041996 -0.15018506 -0.07734777 -0.51456577 0.08615755
1947 0.18899842 0.08733044 -0.031551175 -0.18736754 0.29713795 -0.05227749 0.5159868 -0.16079898 -0.18464474 0.17849696 0.13905461 0.23265052 -0.1730107 0.08030097 -0.0029742604 -0.08616686 0.24740987 -0.16699667 -0.23746715 0.090216175 -0.03855301 -0.06922302 0.06587681 0.10261699 0.18644421 0.1756183 -0.025075393 -0.23647496 -0.52302927 0.22893311 -0.4991885 0.049220912 -0.25730297 0.018348534 0.23001087 -0.20910874 0.15570961 -0.5759235 -0.2100085 -0.18383409 0.1739901 -0.30764535 -0.14723119 0.026602533 -0.15598196 -0.51324576 0.2122795 0.37554666 0.13978249 -0.39226645 -0.17760453 0.289311 -0.13650775 -0.034888234 0.23754239 0.12904358 -0.33130088 0.1969814 0.08837668 -0.116512604 -0.13391857 0.035589788 -0.07906604 0.27064472 0.05390519 0.08881984 -0.30335617 0.14204359 0.1512115 0.14915448 0.35775188 0.089335896 0.37922978 -0.50793463 0.074792825 0.1729765 0.08566792 -0.09711255 -0.3444772 -0.04730526 0.11773511 -0.1254371 -0.3446033 0.07206044 -0.03331686 0.4347252 -0.4237643 -0.35421577 -0.051692404 0.40535054 -0.28855327 -0.12575604 0.08522405 0.17887197 -0.118882336 -0.09236496 -0.46340775 0.1597815 -0.34584013 -0.07809222 0.39331225 -0.058254372 -0.38158607 -0.06146872 0.2974831 0.43033037 -0.02313285 0.2888934 -0.24376157 0.25169757 -0.18087786 0.23054162 -0.14312464 0.08454966 -0.022975389 -0.19431227 0.3604506 0.112558685 0.30837917 -0.015197124 0.0729373 -0.24549256 0.24473867 -0.5042456 0.40921324 0.45112008 -0.48257595 -0.1211799
1978 0.30393854 -0.15671793 -0.08344087 0.09606423 0.22368732 -0.4199345 0.2698963 -0.3513984 -0.047596138 -0.14305465 0.2125168 0.15921156 -0.29911175 -0.47592956 -0.005403398 0.06741564 0.57697314 -0.039492216 0.0701815 -0.21119805 -0.014797384 0.32468235 0.015040495 0.2950009 0.16817848 0.44365937 0.20447697 -0.104845494 -0.3001879 0.03262472 0.013369975 -0.12705165 -0.4069471 -0.1961737 -0.3864447 -0.5484413 0.25183827 0.077781655 -0.11469966 0.005036548 0.05271112 -0.19795841 -0.13514419 -0.44211522 -0.25532767 0.31129563 0.3172807 -0.16720246 -0.20017967 -0.18489216 0.11444603 0.43667582 -0.031809583 0.030925747 0.24564086 -0.10381499 0.044848524 -0.18954845 0.33089525 -0.09697081 0.09622484 0.008834754 0.13551992 -0.16981874 -0.026021931 0.06613046 -0.13397528 0.14299148 0.12689672 -0.042446952 -0.3917136 -0.22999759 -0.12350839 -0.23302008 0.16602114 -0.30031374 0.042482894 0.09013713 0.10999587 -0.29481032 0.018735543 -0.18893968 0.020527367 -0.19576906 -0.182257 0.08015208 -0.05557272 0.13159154 0.10580677 0.31874573 0.08081011 0.02072758 -0.7727977 0.057942536 -0.19541498 -0.2912187 -0.29932988 0.22627816 -0.37488174 0.08275741 0.10840742 0.10293803 0.058451634 0.30782372 -0.13546364 0.019985558 0.06815681 -0.13980718 0.067309864 0.27658126 0.04742893 0.056580868 0.056313213 -0.14212689 -0.09550108 0.14315575 0.17068516 0.1401388 0.07619051 -0.52051306 -0.01374781 -0.20589983 0.3563844 0.02786323 0.10554364 0.099549375 -0.6627786 -0.10707983
1940 0.078032635 0.3214626 0.40382645 0.10969257 0.24790044 -0.0407613 -0.26310015 -0.015953315 -0.29153776 0.047850482 -0.54580903 0.3526136 0.40927443 0.23720866 0.17010444 -0.487901 0.1485494 -0.1056608 -0.3115578 0.29171613 0.42128927 0.07129695 0.022834 -0.5492119 0.18660606 0.24123533 0.056489997 0.27557105 -0.33912334 0.34405202 -0.10776328 -0.03078182 -0.27076516 -0.02706106 -0.18070616 -0.10808285 -0.013460144 0.14160591 0.22685856 -0.21298893 -0.17853115 0.34377012 -0.2279262 0.2025502 -0.041023303 -0.19037859 0.39962918 0.10544267 0.1588094 -0.06880267 0.046944138 0.18230037 -0.034670833 -0.2511513 -0.07494853 0.19221543 -0.19514327 0.42658773 -0.46805847 0.23249862 -0.040578485 -0.32657477 0.22305804 0.088923104 0.060423438 0.57029724 -0.2283152 -0.6911999 -0.25142324 0.030066691 0.17756441 -0.10228806 -0.07362861 0.15045883 0.73432636 0.05644304 -0.07537844 -0.17619583 0.12321064 0.0060581095 0.15950663 0.17924835 -0.381912 0.1834765 0.16152464 0.07879203 -0.13966054 -0.32525432 0.05578105 0.14149228 -0.18005498 -0.15436482 -0.48269582 0.242939 -0.03415534 -0.21563964 -0.047881834 -0.4317727 0.2071237 -0.2056343 0.29459846 -0.2635645 0.29286513 0.16522771 0.1200326 0.14433962 0.08871792 -0.32086405 0.1883721 0.21772516 0.422276 -0.10970104 0.07080397 0.19619139 -0.14036007 -0.115248896 0.15385677 0.12074275 -0.10648165 0.28776422 -0.19635521 -0.16990696 -0.21618381 -0.039553948 -0.3006982 -0.20606926 -0.17063421 0.07091631
1950 0.06797249 -0.103796065 -0.070090644 -0.17151433 -0.6378399 0.26256382 0.13965394 0.079329096 -0.11152637 -0.2344468 -0.14408231 0.05606611 0.117334954 0.05192711 0.049419753 -0.5389497 0.44549882 0.3984908 -0.21811144 0.056711074 -0.010177908 0.011673909 -0.15572584 0.047944754 -0.016626047 0.122443005 0.17510927 0.10300739 -0.007017795 0.22399017 -0.14985774 -0.15723483 -0.29567918 -0.36916402 -0.08383967 -0.13689685 0.086763166 -0.013889518 -0.3251085 -0.33395374 0.5285524 0.05295773 -0.2065481 -0.2396306 -0.22985971 -0.6162945 0.26913413 -0.24257445 0.16029198 0.15094846 0.08668167 0.39282522 -0.12679304 0.21107946 0.17368612 -0.24661887 0.32115194 0.3283198 -0.13742326 -0.46387205 -0.04313365 0.0019080176 -0.3249313 0.040601708 0.3774191 0.06507564 0.5776296 0.32774356 0.035019122 -0.14307725 0.3526237 0.21471025 0.026257334 0.39279482 -0.2530627 0.36984274 0.034104172 -0.24588323 -0.30396524 -0.27403706 -0.11859736 0.12647337 -0.12935595 0.08294506 -0.20452204 0.03368367 -0.010809485 -0.09862033 0.49427333 0.35874343 -0.15352109 -0.03416493 0.091167636 0.25407848 -0.120337725 0.019657044 -0.26021755 -0.14736778 -0.033235885 -0.16481896 0.11809721 0.05416582 -0.04837076 -0.40257773 -0.21174836 0.22780244 0.05261523 -0.33074394 0.27049524 -0.14494367 -0.45129916 -0.21363562 -0.14441665 -0.05230962 -0.20116466 0.030300438 0.23079215 0.60344 0.0032269233 -0.27876252 -0.16855644 -0.24223743 0.27514413 0.28411543 0.5563103 -0.23928908 -0.009592243 -0.4841969
1930 -0.23161168 0.8778824 0.070178874 -0.20294419 0.2894068 0.009002066 0.557197 -0.6569085 0.048573248 0.14201371 -0.0101815695 -0.2047547 -0.020365553 -0.2032996 0.17492345 0.42233473 0.21813934 -0.5047213 -0.38327658 0.10476295 0.17835355 -0.23219228 -0.52622944 0.22853121 -0.0067785024 -0.23067985 0.32106236 -0.10251502 -0.32051355 0.069901705 -0.00036476544 0.24335964 0.1514758 0.2121217 -0.3774691 -0.33221838 -0.22785082 -0.5997652 -0.4097707 -0.111948356 -0.10942852 -0.025776276 -0.4583705 0.119015746 -0.008396104 -0.07836715 -0.33184928 0.15341724 0.0358086 -0.09969576 0.14445247 -0.2141158 -0.27292174 -0.06769828 0.034129247 0.20569402 -0.27891073 0.2520128 -0.17788185 -0.036371443 0.0093546165 0.17036092 -0.06762481 0.063848265 0.019855473 -0.045597106 -0.16841628 -0.18189679 -0.034028918 0.16254611 -0.45782962 -0.22504823 0.19199263 0.09052075 0.082822904 -0.0882188 -0.08770308 0.0058587263 -0.33310413 -0.31651005 0.34479484 -0.29010528 0.2997733 0.18839157 0.19456047 0.016229196 -0.15661018 -0.10728133 0.23632711 0.40285543 0.00895278 -0.03149245 0.10915005 0.31807178 0.36988577 -0.20595086 0.14641859 0.38015345 0.19427288 0.29788756 0.06700249 0.30065545 -0.010109175 0.41391566 -0.1655707 0.15499945 0.16012949 -0.15442891 0.026606286 0.088456154 0.11175991 -0.44326758 0.018478451 0.009840538 -0.026157903 0.010313086 0.17866756 -0.21623868 -0.4306564 -0.120992504 0.010561599 0.30268696 -0.06777051 -0.1471392 -0.037361473 -0.17739022 -0.39164022 0.017632255
1944 0.16093594 -0.14252156 -0.26570335 0.023747955 -0.22078314 0.018406723 0.06322359 0.6112922 0.15795346 0.031629622 -0.07812177 0.21588117 0.07293547 -0.27311376 0.05789558 -0.28410223 0.08641662 -0.09706914 0.108285405 -0.41125712 -0.10063778 0.08584108 -0.33643317 0.040465113 0.12381754 0.022438295 -0.4841224 -0.075714916 -0.61332506 -0.15042965 -0.31284726 0.2489608 0.18718217 0.08865379 -0.31753242 0.17475891 -0.1413681 -0.16523364 -0.19681986 0.040662374 0.04551881 0.2021144 0.19014683 0.2438822 -0.37583745 -0.40679032 -0.18467157 -0.13876268 -0.015023458 0.050581716 0.26114848 -0.08616647 -0.014805895 -0.49873868 -0.7596359 0.30567926 0.29375565 -0.121404566 -0.0460526 -0.058815196 0.1142073 0.27535692 0.021425903 -0.28260005 -0.07076666 -0.049799833 -0.027907789 -0.23858136 -0.34270245 0.21507154 0.20790474 0.06750794 0.20261015 0.26250002 0.031228308 -0.075883105 -0.4977099 0.1387941 -0.41020513 -0.1775301 -0.3951681 -0.32384425 -0.044922102 0.24758278 -0.44916198 -0.10070888 -0.24467203 0.06252372 -0.31639028 -0.15591392 -0.086507656 0.39142826 -0.30368122 0.014537459 0.053861234 0.17714153 0.1080603 0.058109313 0.080803216 0.122582264 0.20513882 0.21742064 0.006633557 -0.14828768 0.26957393 0.77870226 0.30420858 -0.21411406 0.06619343 0.15564422 0.24159513 -0.3235579 0.18961369 0.15895377 -0.522335 -0.33933535 0.35037705 0.30612117 -0.16153246 -0.06255972 -0.043912508 -0.07839766 -0.1676239 0.23348884 0.039812252 -0.03870003 -0.049606342 -0.07364253
1970 0.2440586 -0.12548818 -0.25324196 -0.11812768 0.32977456 -0.10021936 0.07354774 -0.010065489 -0.35899577 0.016367514 -0.41757712 0.23057471 -0.04070634 -0.16112581 -0.13352013 -0.11272844 0.2960238 -0.14407846 0.22423796 -0.17162253 0.0084096035 0.48763156 0.21164338 -0.115410775 0.09043366 0.11426596 -0.26387602 -0.17020796 -0.0065366733 0.10578052 -0.40500036 -0.06406147 -0.24489692 -0.78539944 -0.025780678 -0.5033184 0.087623745 -0.037683964 -0.035673793 0.19496949 -0.29385677 0.25357816 -0.23424365 -0.37410307 -0.10791682 -0.05654013 -0.07880331 -0.25183836 0.6615239 0.047473125 -0.31646687 0.062663704 -0.4166083 -0.37240738 0.098835416 0.041163057 -0.35294533 0.35622793 0.14451718 -0.017570792 -0.20545325 -0.48249197 0.1299504 0.34674504 0.1036614 -0.2557415 0.111659355 -0.056349754 0.015230191 0.18187436 0.059571203 -0.11011049 0.26589948 0.40716153 -0.13895854 0.07065024 -0.26628152 0.20023035 -0.14368737 -0.33027312 0.019419199 -0.2513452 0.21883605 0.28306365 0.13829194 -0.20020267 -0.11467627 0.31062 0.39989656 -0.07274732 0.19453798 -0.33558503 -0.527616 0.44752458 -0.21290398 -0.48361203 -0.09569828 0.11738483 -0.32032773 -0.3560758 0.107270755 -0.30165806 -0.082788624 -0.2140761 -0.15740721 0.0764746 0.047358856 0.27480486 0.21843317 -0.042228233 -0.10534427 0.08931929 0.14706233 -0.22954555 -0.17245649 0.36642295 -0.035352126 -0.10995305 0.2218386 0.13164099 0.061829615 -0.16421992 0.06346017 0.13456939 0.24005572 -0.035043217 0.055544175 -0.5669022
1961 0.18452583 0.3207363 -0.2839221 -0.16104522 -0.22371018 -0.33197108 0.41808194 0.3762603 -0.02661607 -0.17713836 0.070267744 -0.18982893 -0.07790194 -0.016027618 0.014730702 -0.043928795 -0.24315292 0.24947453 -0.14199135 0.07657732 0.10057204 -0.1499375 0.09607272 0.38062957 0.19696976 -0.3338334 0.12816025 -0.0069120405 -0.008487664 -0.23339812 -0.21925135 0.039757747 -0.098556116 0.4012538 -0.01921752 -0.04273306 -0.28045356 -0.31102782 -0.16814718 0.18102325 0.41771153 -0.047766473 0.19976231 0.039085872 -0.2340317 0.024464753 0.1457419 0.24943906 -0.1924338 -0.045308627 -0.2858068 -0.107571214 0.2082297 -0.242638 -0.29112968 0.43863252 -0.5630924 0.23409852 0.14409527 0.15206665 -0.08388823 -0.30907902 -0.20020956 0.049364638 -0.5255753 0.4541133 -0.14624923 0.2583244 0.43839818 -0.07618381 -0.7086922 0.7007828 0.33445385 0.18255901 -0.07332272 0.066902876 -0.20515281 0.32547146 -0.39439052 -0.15819125 0.062217813 0.085068256 0.06448683 0.022129193 -0.14303562 0.07994806 -0.20020111 -0.33317694 0.02724522 -0.20206158 -0.041259844 0.024868952 0.011316912 0.31611967 -0.024009071 -0.009268988 0.34613043 0.0121358065 -0.2879968 0.18700676 0.23265368 0.24215382 0.38242722 -0.17454772 -0.10197672 -0.029572403 -0.060987085 -0.18819414 -0.013408973 0.14722869 -0.32571635 0.17039935 -0.3943915 -0.08027224 -0.15521002 0.5870507 0.31438616 0.13464163 0.19963856 -0.09512399 0.035846554 0.34934714 0.031984225 0.05307456 -0.016919937 0.029304752 -0.099064484 -0.22011523
1969 -0.13339868 0.09476409 0.09369195 -0.11514667 0.14034641 -0.09659646 0.4337672 0.5957373 0.28193232 0.12618436 0.008200437 -0.09567836 0.06803914 -0.11311563 -0.14160639 0.0028178196 0.03764952 -0.21368557 -0.36522922 0.11062748 -0.36044157 -0.088282816 0.082773276 -0.43014696 -0.08864316 0.072885625 -0.008538287 -0.34073827 0.019068452 0.1961354 0.12598883 0.03441013 0.25832897 0.0945371 -0.560676 -0.08447602 -0.23058365 0.058666997 -0.3291438 0.43604782 0.24884723 0.1083391 0.18338482 0.21198317 0.47011977 0.12773958 0.22026627 0.03980804 0.40233538 -0.091777794 -0.28404245 -0.009918013 0.05035795 -0.15688322 0.6289169 0.13900216 0.18724722 0.3939849 -0.09255535 -0.086175315 0.26745433 0.38586566 -0.10005014 0.04232631 0.17337671 -0.06804972 -0.70165676 -0.23528439 -0.1367175 -0.056628138 -0.17164886 0.14664602 0.5057145 0.39567998 0.33215478 0.13381463 -0.15137218 0.098063976 0.169187 -0.13323149 -0.08940604 -0.034855258 0.3515208 0.23704998 0.014727136 0.030175388 -0.30211148 0.013751308 -0.00035259235 0.34460816 0.058841184 -0.37681857 0.16415125 0.5369165 0.28483218 0.27128965 -0.23755677 0.33792254 -0.12720366 -0.14365284 -0.050612617 -0.08671419 -0.4459762 -0.0028436477 -0.08332791 -0.1771021 0.12762572 0.023579873 0.09109462 0.021988198 0.3062936 -0.071317926 0.10387054 -0.4924692 0.3322703 -0.38708857 0.551678 0.33861414 0.40462756 -0.38422155 0.44339865 0.14491832 0.06701536 0.019000906 -0.066749774 0.0058908756 0.026311625 -0.37193555
1965 0.0013082352 -0.07361977 0.09193266 0.017998986 0.29173368 -0.024222324 0.284899 0.1498348 0.13235606 0.12553221 -0.23165372 -0.12547998 -0.2755346 -0.08475173 -0.2032023 -0.028494056 0.23532827 -0.06446974 0.2491524 0.3791303 -0.18492036 0.22309579 -0.069046855 -0.406566 0.29840767 0.29574636 0.020873427 -0.009214573 -0.11527645 -0.04924382 -0.27104768 0.012484401 -0.070889965 -0.3196073 0.18167563 -0.13357116 -0.084280156 -0.21694313 0.2574922 -0.06435892 -0.07387126 0.060517862 0.09449019 0.019516855 -0.22421724 -0.09282528 -0.1642756 -0.2740574 -0.13157775 0.17508318 -0.37723452 0.23797639 -0.19604824 0.35228023 -0.34753805 0.11073474 -0.15454711 0.24658687 -0.80147123 -0.0051820986 0.103335015 0.05898664 0.116541155 -0.51785445 -0.027663007 -0.058503043 -0.16554786 0.22632062 0.4025401 -0.36841008 -0.49586692 0.659752 -0.07430677 -0.23096102 0.2743205 0.03489373 -0.29255795 -0.27328014 0.25527796 0.052799255 0.06320247 0.015343012 0.0418785 0.08911065 0.19029117 -0.13494158 -0.06228391 -0.03408787 -0.43233335 0.34907356 0.12797587 -0.07313264 -0.36188486 -0.1772461 0.17393671 0.33305168 -0.15332879 -0.039518535 0.40303847 0.112590164 0.23547415 0.1746076 0.10967986 0.27875203 -0.025471637 0.067963734 0.08468173 0.14043772 -0.12714897 -0.027612608 -0.15750892 -0.18426163 0.30496284 -0.005305649 -0.10450219 -0.25205675 0.18902357 0.18889728 0.5064705 -0.31233862 -0.12271259 -0.15380086 0.16424407 0.058824003 0.15186122 0.010820601 -0.25019842 -0.07633678
1945 -0.45038077 0.42139092 0.38729882 -0.36137855 0.42079645 0.048892234 0.47147018 -0.22569333 0.024175702 0.050107587 0.35778666 0.085869454 -0.39612636 -0.5875444 -0.07241768 0.32504818 -0.18123142 0.15943733 0.10683313 -0.09371299 -0.068697564 -0.31884223 -0.46116298 -0.023399755 -0.026194956 -0.058693137 -0.26468146 -0.025860634 -0.077172406 0.2918792 0.07995143 0.106077604 0.23660648 0.07314507 -0.018136285 -0.35310283 0.02884069 0.13309982 -0.3741404 -0.38678852 0.14174895 -0.005592665 0.00062167394 -0.18876024 0.25232476 -0.23755604 0.14521968 0.05327616 0.5402782 0.09727213 0.2646316 0.17009287 -0.12532376 0.26126194 -0.6773333 0.4236626 -0.28087473 0.14909525 0.1153984 -0.04165658 0.10395121 -0.15579064 -0.042617586 0.48767728 -0.12735043 0.28384304 -0.27169272 0.02772504 0.30829364 0.06317719 -0.28224838 0.092760876 0.107938506 0.12793316 0.25123563 -0.32663605 -0.320974 -0.034547597 -0.46268472 -0.22673827 0.13410854 -0.21658574 -0.1520974 0.2542921 -0.24293515 0.098779775 0.31463808 -0.09377175 0.20927095 0.30914262 -0.031019863 0.2898162 -0.19729781 -0.19333224 0.005091332 -0.13385977 0.14407556 0.012111302 0.05931365 0.16886418 0.06354611 -0.33505404 0.23028207 0.18139149 -0.07253219 0.25683203 0.18865 -0.17262305 0.13781062 -0.074000835 0.011211904 -0.4552331 -0.24794042 -0.19279455 0.008597121 -0.4190518 0.11581663 0.3564405 -0.3512627 -0.36817247 0.22420426 -0.2650452 -0.29346526 0.14500524 0.027058471 0.26338217 0.10248808 -0.122994035
1946 0.37748033 0.07156713 0.57637656 -0.16699822 0.29584122 -0.08719492 -0.017313471 0.22704796 -0.35765 -0.10681116 -0.1874713 0.4881621 0.5573205 -0.22494806 0.23878276 -0.3118648 0.00626026 -0.096924104 0.0065024826 -0.15681766 0.004004394 0.37963557 -0.098539226 -0.06888018 0.41454053 -0.21579824 0.44916993 0.25030196 -0.44230843 0.09534232 -0.085083045 -0.3600904 -0.30579662 0.109677844 -0.033429228 -0.06512087 -0.4034172 0.103350185 0.24229266 -0.030858086 -0.004892194 -0.43878144 0.33998862 0.21928568 0.25772622 0.1830176 0.38665843 -0.16895987 0.11296957 0.3886889 0.032267205 0.32010743 0.052174937 -0.36972398 -0.03841662 0.027222661 -0.2069237 0.09110766 -0.49063146 -0.080958515 -0.085840635 0.05328779 -0.124456964 -0.029714862 0.3527794 0.26533273 0.1844999 -0.39234185 -0.32996666 0.12411891 -0.22258183 -0.44572902 0.03125985 0.18334407 0.53510314 0.068065375 -0.15624776 -0.28457564 -0.05299549 0.12716867 -0.15721126 0.6045068 -0.013419258 -0.21419439 -0.021139307 -0.17192753 -0.078286424 -0.66091263 -0.10557666 0.20234525 0.13291508 0.040234026 -0.055585567 0.19560999 -0.016401282 -0.26778623 0.119269155 0.08613649 -0.13567412 0.14932927 -0.11307939 0.16812924 0.25817558 0.16707623 0.035164546 0.27577436 -0.18981919 -0.07257527 0.051518895 0.079001084 0.56370014 -0.0645672 0.07607505 -0.45029432 0.067317344 -0.14126654 -0.084506586 -0.17768916 -0.073055886 0.25379476 -0.14703225 -0.09038057 -0.13956264 0.29958326 -0.1411657 -0.11893256 0.06664059 0.12611698
1960 0.073073976 0.23311977 -0.30188072 -0.0026138008 0.15024254 -0.16978487 0.069644265 -0.034458548 0.26763374 -0.22826289 0.0672222 0.08001626 -0.16684192 -0.36525863 -0.022507336 0.0859839 0.08334626 0.039341122 0.23323517 0.017765205 0.29951677 0.34428495 -0.14853662 -0.30541348 0.13044007 0.51485026 -0.06721313 -0.016266378 0.06396694 0.18884742 -0.1157698 0.049760778 -0.058987178 -0.17296223 -0.26675397 -0.48737347 -0.76583874 -0.0110300835 0.4289494 -0.12581706 -0.0566656 -0.20150097 -0.08587627 -0.50369567 0.08154746 -0.31419492 0.2627618 0.02366635 0.09809958 0.08400843 -0.29618996 0.03985905 0.07951792 -0.04540087 -0.44319808 -0.08543952 -0.14494209 0.2975148 -0.17533667 0.4217365 -0.25328922 -0.27213985 0.02498501 0.11131811 -0.14713211 -0.008606838 0.15148877 -0.25805855 0.28097475 -0.19437583 0.12780845 0.32271895 0.08352596 -0.31156698 0.012181271 0.10893082 -0.16529256 0.054280646 0.3142792 -0.32091403 -0.1863999 -0.15263212 0.26275775 0.45585507 0.30174473 -0.14083083 -0.07810637 0.19756304 -0.16667011 0.5924047 0.25204423 -0.04114187 -0.5858583 -0.24082802 0.13393798 -0.60388654 -0.1924002 0.17201805 0.13527262 0.43575415 0.31521222 -0.008940771 0.17667398 -0.23442437 0.232377 -0.3975885 -0.2840519 -0.05599249 0.023962576 0.12762706 -0.20967896 0.17856802 -0.024273228 -0.16179986 -0.11167647 -0.098144636 0.12875699 0.03791875 0.28578922 -0.35448632 0.07354913 -0.270781 0.37024936 0.5179097 -0.037725594 0.10594467 -0.29395068 -0.06901343
1949 0.12404619 -0.55392295 -0.049129866 -0.39226556 0.42603633 -0.14348878 0.26228696 0.08077779 0.3402383 -0.035683934 0.4796112 0.22200826 -0.22654372 -0.5661979 0.08344996 -0.27032346 0.5673587 0.3265028 -0.70267844 0.1750061 0.20569666 -0.24887078 -0.06544443 0.26849908 0.047494367 0.40658367 -0.025819771 -0.1396442 -0.017205674 0.035486426 -0.382149 -0.1648748 -0.173166 -0.020482458 0.04704896 -0.44662458 0.023635369 -0.014346759 -0.27804497 0.09569021 0.105029166 -0.16805464 -0.08841899 -0.35302085 -0.042253602 0.13564345 -0.34666723 -0.07721267 -0.052763127 -0.39305952 0.3401555 -0.022875523 0.12802723 0.058528952 0.28896457 -0.060902987 -0.17806153 -0.28741786 -0.13782077 -0.14604919 -0.085386574 0.26185492 -0.15651104 -0.055386893 0.60043246 0.11291169 -0.44146958 -0.029022187 -0.09005349 0.056993414 -0.6904743 0.056415495 -0.022855232 -0.3609515 0.09905451 -0.10054972 -0.006906438 -0.18545437 0.033179346 -0.021989569 0.098920934 0.031275693 -0.004002019 -0.26748735 -0.3741064 -0.15687582 -0.12445214 -0.2759475 -0.03927854 0.37323043 0.0656498 0.020219367 -0.14941189 -0.19483867 -0.07232329 -0.094732806 0.06659189 -0.26294062 -0.29066083 -0.18028735 0.3245599 0.20448738 0.37220702 0.40250617 -0.22597173 0.21862267 -0.28105068 0.094874986 -0.14857896 -0.14049822 0.044584338 0.5413914 0.1388517 0.0595552 -0.34843728 0.08530658 0.078782834 -0.18640201 0.23035431 0.1150553 0.13595098 0.020852294 -0.10682997 0.09425621 -0.05079742 -0.05427279 -0.56801516 -0.15714438
1942 -0.18394133 -0.29427463 -0.03652613 -0.07374567 0.30312395 -0.08936977 -0.43981066 -0.101683415 -0.106384024 -0.051308393 -0.31444833 -0.038840372 0.09002213 0.1809643 -0.20702437 0.09006613 0.3710046 -0.10058578 -0.08675714 -0.14185975 -0.3250708 0.1173055 0.14258121 -0.30451098 -0.14908989 0.45263046 -0.32846883 -0.015407707 -0.40161166 -0.053815134 -0.39504445 -0.3915686 -0.33590555 -0.14812249 -0.13285303 -0.4495606 -0.06597949 -0.26063213 -0.119924545 -0.06714871 -0.37207276 0.4600283 -0.48811018 0.10350905 0.031483397 0.06272186 -0.08342848 -0.10607178 0.602029 0.5161219 -0.10643064 -0.06179584 -0.034775443 -0.172451 0.26309547 0.17745544 0.0142506 0.29040194 -0.15711418 0.27523893 -0.43746516 -0.025502127 0.12339409 0.028404877 -0.2645406 0.28607732 -0.020537421 -0.17825067 0.35462576 0.33351985 0.010346714 -0.2626649 0.25082818 0.49565133 0.17089187 0.15177381 -0.21947664 0.23108616 -0.024022823 -0.2899533 -0.1962579 0.07410894 -0.050020877 0.1929609 0.48668674 -0.31695396 -0.08437312 -0.036897507 0.050514057 0.012308562 0.07933882 -0.2308052 -0.211132 0.55562264 -0.26055878 -0.20557882 0.2575528 -0.097228184 -0.048241567 -0.28279367 0.064413026 -0.25254124 -0.060878865 0.10562052 -0.15762061 0.014943699 -0.018726844 0.2065278 0.5121698 0.06415763 0.18191735 0.0927577 0.13636461 0.10556885 -0.23776844 0.24592684 0.17529106 -0.070846304 0.1467742 0.18320282 -0.066940226 0.05479851 -0.34223542 0.22982058 0.44209164 0.019675154 0.23006879 -0.6419012
1921 0.42456967 -0.5435715 -0.52181005 -0.40287453 0.17358142 -0.65005565 -0.0017881172 0.34758344 -0.03569116 -0.002693037 0.12810783 0.1750328 -0.34111992 -0.25520587 0.020634716 0.24931084 0.40071633 0.09591402 -0.29914567 0.21248862 -0.04163849 -0.35835412 -0.17321444 0.3826801 0.10985111 0.06139076 0.12702847 -0.24517038 -0.06807662 -0.42048067 -0.35069802 0.1360299 -0.24872953 -0.19433412 -0.14516994 -0.3696037 0.4667527 0.21189377 -0.1608485 0.06406409 -0.14768586 0.16094244 -0.20473504 -0.054027725 -0.29069397 -0.27986944 0.18472391 0.41720864 -0.02589579 0.09113327 0.091814145 0.2177648 -0.10022531 0.23691837 0.15618847 -0.09155216 -0.014751721 -0.099654496 0.17681278 -0.44330668 0.10080288 0.26398432 -0.03842617 -0.30161834 0.33269674 0.2737983 0.077722825 -0.4246431 -0.08720027 -0.4315429 -0.2993222 -0.016361734 0.04940819 0.08051118 -0.001393032 0.3109893 -0.44726568 0.4153043 0.15435682 -0.21977839 0.5641831 -0.10624672 0.04306371 0.13487972 -0.20643057 0.12978852 0.18806058 0.07679149 -0.07902575 0.0017018354 -0.022121694 0.30328616 -0.010255811 0.11337882 -0.06406885 -0.5156859 0.00076975714 -0.107560225 -0.099124886 0.2998614 -0.19247139 0.22329205 0.20772287 0.38466322 -0.22812693 0.05778596 0.20433149 -0.3836263 -0.25536016 -0.0916376 -0.10726102 0.22707625 0.027910743 -0.51620054 -0.2362739 -0.086764336 0.014575663 -0.19426352 0.14465386 0.24538529 -0.47528672 -0.010715968 -0.22137305 -0.061579674 0.19944736 0.30963692 -0.2594471 0.0660705
1968 -0.18208086 0.27238625 -0.3611533 -0.090137675 0.21072942 -0.08194899 0.4955858 -0.29270303 -0.380586 0.07723358 -0.15137589 0.49087507 0.1188092 -0.24249217 -0.0657797 -0.003650609 0.051552434 -0.62739414 -0.04356148 0.09727145 -0.1657513 0.126666 0.11101068 -0.04188553 0.2108075 0.1476191 -0.047509898 0.14882386 -0.48947632 0.1250293 -0.50058913 0.19651301 -0.25489432 0.31128037 -0.14767984 0.032872133 0.076655455 -0.30629346 -0.02746465 -0.009149907 0.13070147 -0.18883266 -0.12723702 0.28570727 0.025551222 -0.27995282 0.46818864 0.054539505 0.36286274 -0.24098119 0.0086046085 0.13765337 0.28787258 -0.18706226 0.09945092 -0.21122453 -0.49511218 0.3353143 -0.12120306 -0.05913838 -0.2330183 0.018107697 -0.34265143 0.193942 -0.09142838 0.33232936 -0.26321453 0.1666719 0.1629465 0.09290348 -0.11256317 0.25209063 0.028862668 0.018346837 0.08932276 -0.14346011 0.022653718 0.1316336 -0.1387232 -0.110746145 -0.04427904 -0.2264336 -0.29892588 0.38617948 0.10570469 0.42399064 -0.30654514 -0.1619906 0.22865985 0.33232868 -0.32120466 -0.2506735 0.027631471 0.2090374 -0.042658627 -0.30106643 -0.65390515 0.25039554 -0.25113073 -0.05311489 0.109453686 -0.28184405 -0.32277134 -1.9980987e-05 0.10499863 0.122130424 0.17458424 -0.04951072 -0.047341574 0.3128784 0.08022082 0.078515105 0.06584415 0.21076825 0.20362182 -0.06582842 0.34402904 0.088375285 -0.0428973 0.13443531 0.106865115 0.00121745 -0.1391767 -0.50517696 -0.028700015 0.23442963 -0.56736565 0.008352481
1938 0.110531986 -0.23503883 -0.16813569 -0.21123625 0.1522001 0.020397888 -0.08109658 0.31413898 0.14148855 0.1507431 -0.07473729 0.16699757 -0.21670702 0.06518853 -0.002101674 -0.2560561 0.22231638 0.19634485 0.20168778 -0.064821765 -0.16155997 -0.24825437 -0.65267956 0.08087483 0.20110877 -0.42505017 -0.21361388 0.14882678 -0.27370304 -0.22854602 -0.19761081 0.020077644 -0.16212624 0.2258438 -0.3899661 0.0074972184 -0.08236398 -0.00324016 -0.09989994 -0.0027578508 0.034521643 0.16714129 -0.39918113 0.32629162 0.10047051 -0.094582304 -0.17865527 0.30320993 0.029471016 -0.015065638 0.27506107 0.06100165 -0.23349994 0.3147547 -0.13619135 0.39708677 0.4421149 0.13700816 -0.04177744 0.099965274 -0.19458248 0.013479743 -0.10621578 -0.39763275 -0.34495965 -0.2148627 -0.015818346 -0.015110811 -0.54482263 0.28284332 -0.18559052 0.16542813 -0.18890055 -0.058005907 0.08883653 -0.053975284 -0.12465426 0.017550062 -0.7102516 -0.1823943 -0.17995423 0.14172703 0.38368535 -0.24716423 -0.2565601 0.19401583 -0.38231394 0.013089843 0.021400252 0.5527528 0.0033595897 -0.028293744 -0.2888846 0.35727364 0.189255 0.23019184 0.083536424 0.35830662 0.253764 0.08298547 -0.035657145 0.3532534 0.49330997 -0.09021901 0.42529675 0.5810166 0.1759021 0.12878032 -0.36326617 0.27593988 -0.30590463 0.04633905 -0.14859459 -0.025641305 -0.07740618 -0.3252888 0.45424575 0.21997613 0.24804029 -0.0017551703 0.17258644 -0.13216354 -0.1356613 0.1907959 -0.0330323 0.26877105 -0.028150868 -0.28845918
1954 0.34428692 -0.07526174 0.16704471 0.029594138 -0.45065892 0.44960475 0.25183672 -0.31753412 0.021719804 0.2018525 0.2740324 0.30004826 0.18841682 -0.039271835 0.3019763 -0.1810734 0.3697278 0.20656475 -0.060760945 0.027267056 -0.26269472 0.33263987 -0.29375228 -0.49085903 -0.2694731 0.18988374 -0.008516544 0.21527049 -0.3510994 0.14161019 -0.3013038 0.23380247 -0.08583831 -0.043437935 -0.33835664 0.08142649 -0.29510048 -0.060658 -0.17720531 -0.0018080771 0.17664884 0.50716484 -0.15998657 -0.1781411 -0.2920182 -0.009939157 0.0023052185 -0.323811 0.0442583 -0.21095529 -0.09230046 0.026715757 -0.11467527 -0.25406542 0.05532348 -0.33246687 -0.08550922 0.19292323 -0.41366065 -0.08854684 -0.0056632315 -0.2118109 -0.40226883 -0.05352392 -0.17664255 0.15424143 -0.021818371 0.015886866 0.012412119 0.12554447 -0.30495027 0.059586164 0.28835547 0.31241113 -0.16109346 0.41739723 -0.03267848 -0.10414134 0.3723479 -0.10134109 0.023599582 -0.11837167 -0.28446746 0.21038125 -0.14150862 0.46151975 -0.11095434 -0.005766356 0.0852815 0.057520073 0.17903452 0.5241369 0.13847251 -0.030548014 0.14230567 -0.15983728 0.4019418 0.14830554 -0.09639187 -0.05136563 -0.13194466 0.08199873 0.22305766 0.08812015 -0.19917914 0.0858727 -0.10134903 -0.38015088 0.5790391 -0.07267308 0.07107465 0.14209674 0.14380689 -0.33877587 0.3103136 -0.029913634 0.32448098 -0.016523123 0.36692393 -0.54049337 0.03245841 0.12682915 0.47722086 -0.0629781 0.11425239 0.3037652 0.10031248 0.18415079
1923 0.27019665 0.09311259 0.6056838 -0.20991018 -0.17044622 0.030998694 0.040078785 -0.16972513 0.010904222 -0.15852837 0.039016716 -0.16414198 -0.4118986 0.016114887 -0.28804773 -0.28513294 -0.23701155 -0.02298768 -0.17313212 -0.15847357 -0.07081824 0.20541474 0.28818727 0.32292563 0.56668025 0.3213095 0.10514327 -0.328245 -0.32496276 -0.35518909 -0.5014859 -0.4755961 -0.25131667 0.3584818 0.0024658793 -0.050883505 0.31136763 0.4807323 -0.133445 0.05493689 0.039214395 -0.19753928 -0.17464608 -0.16671115 -0.0020902425 0.31531805 -0.4042357 -0.10887987 -0.12527579 -0.23335186 0.5530989 0.30330548 -0.4993693 -0.08917161 0.101684935 0.27216378 -0.29739603 -0.04336703 -0.051799588 0.48724675 -0.3773826 0.054575242 -0.120716736 -0.107294194 0.13754714 0.09909415 0.29137993 0.20751731 -0.17371608 0.117316 -0.28999585 -0.14835098 0.41348156 0.063084036 0.0016760923 0.32974884 -0.49062693 0.36315894 0.20105094 -0.004309081 -0.12876663 -0.095231414 -0.11382727 0.07727255 0.16543834 -0.45770487 0.453109 -0.27227432 0.25257203 0.31074885 -0.22378777 -0.03154037 -0.45826757 -0.1123696 -0.17881589 0.117727734 0.14658193 0.2351179 -0.07414043 -0.034474455 -0.3288615 -0.055202235 -0.2293594 0.33639777 0.07363346 0.10606118 -0.31143627 -0.39355218 -0.094605945 0.23401497 0.0071302047 -0.111645065 0.016171994 0.10029988 -0.32460773 -0.28251478 0.35143653 0.089750975 0.40723896 -0.38908544 0.0773299 0.07682444 0.2996122 0.20171793 -0.10886473 0.18099158 -0.24051748 -0.018939544
1951 0.39782336 0.23149097 0.07711618 -0.4239446 0.18748428 -0.1714203 0.07710657 0.071529716 -0.18925597 -0.10806724 -0.07794094 -0.19407922 0.21893974 -0.12771845 0.13931881 -0.46928307 0.22929755 0.06867606 -0.046538312 0.09039744 -0.3099909 -0.32973745 -0.0030571711 -0.2181238 0.31953034 0.2799927 0.009472752 0.2711763 -0.50892156 0.13960285 0.077182405 0.08522418 0.2476453 -0.0004395082 -0.13826853 -0.19610852 0.18766189 0.107356854 -0.28683332 -0.15831296 -0.09145788 0.095108725 0.27163833 -0.14912185 -0.1469353 -0.55450857 -0.12892593 0.3787872 -0.052492693 0.06365505 0.090746544 -0.108105056 -0.8285717 0.35774073 -0.16103789 -0.40207225 -0.15836707 -0.11193937 -0.09419255 -0.09910522 -0.14393176 0.5132749 0.042350277 0.4519652 -0.27558234 0.53830916 -0.26635766 0.017765477 0.14826044 -0.0336016 0.07511028 -0.12412941 0.19006088 -0.31516123 0.08437865 0.19867913 -0.04636796 -0.0076258653 -0.35610604 0.41892534 -0.47695586 -0.19008425 -0.1345985 -0.03868622 -0.10903368 -0.0762987 -0.09124779 0.0959548 -0.37423664 0.0047980426 -0.32372105 0.27027622 0.04298695 -0.08510274 0.15665221 -0.49174392 -0.026028033 -0.057619505 0.3431395 -0.24267675 -0.16941062 0.19838527 -0.15656361 -0.10070394 -0.04204041 -0.1026482 0.0012090098 0.10176446 -0.038413696 0.18291937 -0.45442376 -0.194747 0.24661966 -0.21709856 0.102368854 -0.019698733 0.14287995 -0.0040296675 0.09972974 -0.3498263 0.24917793 -0.13140188 0.2694834 0.27422115 0.16494954 0.4741776 0.10113392 0.006910788
1936 -0.112396196 0.09582993 -0.24308501 -0.09318891 -0.12363559 -0.28119743 0.49432746 0.12608926 -0.27651313 0.13064013 0.21983317 -0.041642174 0.17007934 0.06283528 0.2881077 -0.0347575 0.022919878 -0.07674961 0.3499862 0.53928584 -0.24408412 -0.5353795 -0.22109567 0.04105914 0.6603934 0.2455081 -0.060572825 -0.01988716 -0.13546737 -0.13795182 -0.0393837 -0.3138983 0.47295937 0.25778827 0.16886124 0.31477198 -0.08172539 -0.19664094 -0.096750125 -0.030738177 -0.07461941 -0.37165955 -0.24699093 -0.40932536 0.09515085 0.08167289 -0.1242854 0.34598756 0.2920073 0.07377699 -0.02358745 0.4453579 0.27906734 -0.007943057 -0.22853272 0.38457316 -0.070783906 0.021210283 0.17744343 -0.25153264 -0.1281395 -0.1421876 -0.11579421 -0.0547456 -0.05436156 -0.03359782 0.054039404 -0.32294577 0.16501302 0.2715028 0.09275293 -0.1833721 0.11988236 0.25651085 0.84643626 0.08603395 -0.03298689 0.41420716 0.32336897 -0.036166623 0.13364907 -0.118440524 0.24523878 0.2001412 -0.09471476 0.63939714 0.0747419 -0.005053607 0.04577675 0.08911896 -0.29007226 0.73683685 0.14508124 -0.21748926 -0.32144618 0.4205069 -0.28848293 0.18871228 0.13672802 -0.27689615 0.17979266 -0.09940266 0.26027364 -0.3732849 -0.14131698 0.09586755 -0.34215784 -0.023310566 0.41072544 0.35136232 0.046475187 0.05446845 0.13592419 0.060103208 0.18009351 -0.063603416 -0.017022718 0.19027072 0.08017943 -0.27036273 0.05681012 0.09771926 0.043236934 0.2839479 0.20887263 0.06717086 -0.392951 -0.16932568
1928 0.16100006 0.1149026 -0.1112631 -0.036542628 -0.30780467 0.106009975 -0.21345569 0.15208338 -0.24689758 -0.08792955 0.280747 0.069203734 -0.2506837 0.35519767 -0.043986302 -0.3860716 0.4565085 -0.2819482 -0.26393223 -0.16432787 -0.08585651 -0.20928748 -0.5037629 -0.08542838 -0.08202552 0.17433906 0.08082429 0.21024944 0.104851246 -0.32633585 0.21541606 0.4016729 -0.24319898 0.33598286 -0.023747467 -0.08998971 -0.07005205 -0.03424206 -0.15524149 0.22526492 -0.41227317 0.06017777 -0.04795018 -0.2388274 -0.19687238 -0.1480536 -0.040711753 0.040767014 0.37283704 0.16750175 -0.044504743 0.08988575 -0.0948932 -0.14758421 0.18149395 0.07877604 0.0459853 0.48086625 0.2306201 -0.016982755 -0.123973615 -0.34224287 -0.23654914 0.38414025 0.00363344 0.024072157 -0.21350662 -0.28388122 -0.6908229 0.1154017 -0.12255418 -0.021452283 0.58096987 0.07954824 -0.3403592 0.09773849 0.10217003 0.10073811 -0.09861139 0.089840055 0.30064067 0.07045957 -0.033503644 -0.48197865 -0.10202886 0.07518932 0.14893724 -0.04759672 -0.2662465 -0.0024548993 0.39488795 -0.052286282 -0.37422615 0.23592813 0.4427642 -0.089220285 0.21021521 0.09387868 0.08429573 0.2842832 0.25680536 -0.08179851 -0.14668082 0.057448726 -0.29270715 -0.06271712 -0.15975934 0.3255575 0.28469127 0.22380462 0.0030299418 -0.021816429 0.3140176 -0.015225442 -0.13916264 0.23189956 -0.013790996 0.60385346 0.06751616 -0.04154983 0.6426401 -0.19115116 -0.09148168 -0.036642734 0.4355506 0.120146275 -0.7605854 -0.07278453
1953 -0.21554646 0.33337033 -0.22609463 -0.47451398 -0.08507466 -0.2913231 0.47058883 0.09104578 -0.4564374 -0.23952521 0.06687887 0.18334004 -0.2042267 0.09867175 0.47132528 -0.03558672 0.38831255 -0.1304039 0.15277208 0.2993202 0.055751856 0.11217088 -0.2715168 -0.25376275 0.33944884 0.009119235 -0.010673357 -0.26063302 0.13655345 -0.22245999 -0.040418882 -0.25301993 0.07444309 -0.16086638 -0.038481407 0.40640464 -0.029121675 0.2763921 -0.16729952 -0.46298417 0.06168654 0.5625435 0.19737868 -0.23824714 0.0475257 -0.12621538 -0.1817144 0.47712833 0.5461255 -0.15855376 0.22037512 0.50755435 0.13679114 0.117226705 -0.0025557403 0.32685262 0.027347166 0.06141997 0.25764412 -0.13827357 -0.26099837 -0.010688471 0.0075868806 -0.360532 -0.15587503 0.043926563 0.019407215 -0.06315726 -0.010000512 0.09452191 0.088875145 -0.079889394 0.17588751 0.41202322 0.31405368 0.13746221 -0.16768512 0.30456507 0.15485574 0.2605906 0.06023785 0.02652996 -0.26842237 0.14759432 -0.36259916 0.19957322 -0.13692869 -0.1082253 -0.24940126 0.5475583 0.022780925 0.28394583 -0.021746278 -0.511201 -0.088541985 -0.0053825662 -0.13983963 0.19246195 -0.26209635 -0.11799554 -0.1806341 -0.14670664 0.294495 -0.2808398 -0.13850692 -0.1166454 -0.20968804 0.14846963 0.34557897 0.32794005 -0.003178519 -0.34892523 0.06787643 -0.06354182 -0.120010644 -0.16239657 -0.37234703 0.10588632 -0.10108158 -0.24050237 0.091740906 0.12567548 -0.0939792 0.24649906 -0.05820484 0.1356175 0.020983927 -0.46769103
1926 0.26630324 0.2138012 -0.17518851 0.06789486 0.56378496 -0.15755573 -0.117498375 0.025746036 -0.6461764 -0.06476961 0.09138807 0.23766352 -0.107039005 0.16656093 0.09218909 -0.3444396 -0.018105917 0.089868605 -0.027930547 -0.015459624 0.23923117 -0.25323126 -0.10224138 -0.21216998 0.4949432 0.2771828 0.3974145 0.2590139 -0.15364048 0.3110705 0.098877735 -0.15757775 -0.22470865 0.14857137 0.1264668 0.025044827 -0.11337366 0.2250709 0.22824599 -0.3288808 0.036401793 0.112517774 0.21165037 0.25476122 0.02331408 -0.2347724 0.60221475 0.09545081 0.51341397 -0.098225 0.24973057 0.17971945 0.057601873 -0.42223686 0.108719826 -0.111327335 -0.57947356 0.18707886 -0.058276366 -0.05441444 -0.15016171 0.21004689 0.047398627 0.068316236 -0.37468624 0.43577796 -0.23207699 -0.30806378 -0.37401482 -0.19371802 -0.06553111 -0.21887277 0.21470344 0.3591873 0.35211346 0.23706988 -0.45595372 -0.0453657 0.061005045 0.039457206 -0.085759655 0.1513441 -0.040434595 -0.17034134 0.011986775 0.094669 -0.15012531 -0.22881311 -0.17124692 0.26694003 -0.11006353 -0.31788337 0.01539725 -0.16061491 0.22551349 -0.2590749 -0.1410236 0.19106244 -0.17045772 0.064868875 0.44129902 -0.31625003 -0.04821822 -0.14123267 0.23128809 0.23877516 -0.09402957 -0.36535206 0.113069244 0.07988178 -0.16957976 -0.05161764 -0.037794486 -0.26182088 -0.20236117 -0.13284816 -0.14787067 -0.12911552 -0.17422423 -0.055905756 -0.47421712 -0.12834507 -0.2878668 0.1218245 -0.027423006 -0.22782183 -0.26851752 -0.24796142
1943 0.39138374 0.4577338 -0.45761147 0.058265764 0.12907407 -0.1541927 -0.050581176 -0.011249386 0.10998641 -0.43738198 0.07147088 0.3501152 -0.0003454833 -0.012235947 0.042026073 -0.0983146 0.10865049 0.15748467 -0.037094794 0.009865417 -0.5952724 -0.21365288 0.13688508 -0.18678768 0.5507306 -0.13493921 -0.18418708 0.3947428 0.68655926 -0.021104166 0.24480902 -0.28904393 0.33292016 -0.26068023 -0.35170102 -0.11195372 -0.29694575 -0.031538896 0.08922742 -0.05897584 -0.32111675 -0.34533086 -0.15608512 -0.11872826 -0.33040392 -0.2512019 0.11298931 0.37098995 -0.076963365 0.12523106 -0.30369994 0.16892356 -0.19218603 -0.34095836 -0.36739263 0.19970202 0.13289072 0.2675675 -0.6745749 -0.06418594 0.0024088512 0.18858552 -0.22476912 -0.29718056 0.26034254 0.14212154 0.27181157 -0.21488515 -0.057778176 -0.10425056 -0.2953124 0.45340723 -0.31336024 -0.10348488 0.2640407 -0.19528271 0.11917681 -0.3697169 -0.14517836 -0.15139338 -0.40622154 -0.10680809 -0.4440434 0.17754158 0.10991285 -0.041123174 0.030404625 0.24716438 -0.15503776 0.4608473 0.1987685 0.065112874 -0.21350175 0.2058468 0.11285047 -0.24758837 -0.11702811 0.24849375 -0.035456978 0.048704363 0.23901892 -0.5268582 0.1622257 0.40512756 0.1920349 -0.40430963 -0.027594702 -0.12744471 0.008478819 -0.05877981 -0.05381384 -0.14256567 -0.107258104 -0.025762 0.28182912 0.019314634 0.117997184 -0.027728057 0.006872234 -0.02449072 0.15758477 0.051351137 -0.3492992 0.31923473 0.12542689 0.27396575 -0.1810433 -0.22170097
1915 -0.3659967 0.2033941 -0.048909456 -0.2188604 0.14171562 0.23479001 0.084260724 0.27620396 -0.13975488 0.17253976 0.2854037 -0.023672955 -0.33917412 0.26433355 0.25445524 -0.39770314 0.04103648 0.21109869 0.053808536 0.29912072 0.10843835 -0.07987215 -0.16830486 0.0951058 0.26294774 0.03936799 0.022083653 0.1229875 0.088855915 -0.66083026 0.17649093 0.12847914 -0.22403896 0.04135111 -0.5128801 -0.16407216 -0.19736338 -0.015878128 -0.15956931 0.09584864 -0.55640316 -0.2745161 -0.060512956 0.21168447 -0.25023425 -0.19911477 0.35315928 0.012229377 0.03547693 -0.040303122 -0.4040463 -0.1562779 -0.22025971 0.018558577 0.024967816 -0.08172508 0.17517172 -0.06032652 -0.55155987 0.09840723 -0.14497478 0.031316604 -0.34416884 -0.055651106 -0.07192808 -0.0007117028 0.0013988006 -0.29025146 0.21498989 -0.81760764 -0.153795 -0.075471245 -0.069382355 -0.62218463 0.045155037 0.13532268 -0.12623146 0.38755745 0.23489954 -0.3223035 -0.26760945 0.036286704 0.21157661 0.3081157 -0.43138137 -0.11601448 0.022092786 -0.460128 0.3346096 -0.18351226 -0.381626 0.08405751 0.13879673 0.27579355 0.17964739 -0.02570943 0.4335248 0.2913361 0.08565127 -0.0956052 0.053214904 0.23819214 -0.18282266 0.23249812 0.006995335 -0.1598465 0.006327535 0.013811133 -0.012263144 -0.13357751 0.20897084 0.36096975 -0.21097527 0.1471915 -0.09642412 0.16127756 -0.065135434 0.1642099 0.37801114 -0.6350282 0.12470994 0.20369147 0.20901571 0.043606542 0.06533329 0.22478282 -0.09904591 -0.17709996
