2000 128
1969 -0.016381701 0.07101881 -1.1761638 -0.01577353 0.7649768 -0.3306477 0.71137375 0.20737396 0.14019102 0.6894535 -0.50205535 -0.19700368 0.040858746 0.027077142 -0.10357973 0.15031943 -0.4894884 -0.14352377 0.06972253 0.08117449 0.29583973 0.4408121 -0.035140734 -0.27546299 0.2861607 0.42969075 0.548672 0.24671805 0.4989572 -0.035099547 0.07504377 0.30116174 -0.22136179 -0.49893013 0.35665232 -0.79739976 0.119925275 -0.005142302 0.24691635 0.10991977 -0.12346489 -0.42823386 -0.21499836 -0.083080396 0.14572634 -0.13119344 0.10214344 -0.74181336 -0.00070857856 0.5286996 -0.2552436 0.14146353 -0.22796686 0.030407432 -0.09943753 0.0689208 -0.36572728 0.2536194 0.65042746 -0.36597267 -0.11013215 -0.24857979 -0.03296483 -0.35067824 -0.020620087 0.6038997 0.51100993 -0.53487575 0.14594646 -0.7202257 0.35343271 -0.10456809 0.4885909 0.08162361 0.13927127 -0.91248685 -0.46536472 0.13857473 -0.4369707 -0.34676933 0.103246436 -0.27806997 -0.47997525 0.14394543 0.41303304 -0.6410323 0.5350515 -0.04085915 0.27384102 -0.35990533 -0.05358398 -0.7659088 -0.17909974 -0.1801322 -0.31710723 -0.120117314 -0.6357463 -0.24246392 0.20611845 -0.07912174 0.04044793 0.057126068 0.021851648 -0.08179882 -0.17178841 -0.35809138 0.712664 -0.0780619 0.16299726 0.10718753 -0.28313076 0.174631 -0.5582173 0.54045826 -0.4831554 -0.04635138 -0.23131804 -0.6317074 0.11985267 0.22953217 -0.2505261 0.6346081 -0.09370751 -0.24586442 0.103475034 0.38920143 0.08694531 -0.5485947
1997 -0.040642396 -0.73577166 0.12956798 -0.51416475 0.31118757 -0.7553643 -0.31279 -0.17132673 -0.25849766 -0.09733897 0.062051103 0.08067292 0.15218462 -0.2559828 0.2685472 -0.17112806 0.044403292 0.31082883 -0.34495854 -0.023619413 0.44365746 -0.1309053 0.04022591 -0.24216597 0.021124734 0.15363319 -0.14875723 0.1230919 -0.34855747 0.13949947 -0.04475006 0.028551754 0.00887091 -0.75155914 0.46947905 -0.08057808 0.095770776 -0.8147897 0.45405495 -0.16669832 0.78367454 -0.65138775 0.20796868 -0.11049397 -0.40814945 -0.14216264 -0.20768808 -0.6296015 0.33233663 -0.055105966 -0.100801885 0.29793742 -0.17856836 -0.24074747 -0.23602493 -0.48208976 -0.21739854 0.47018486 0.15860835 -0.19879602 0.319513 -0.6352101 0.078067556 -0.42639408 0.14457855 0.27644297 0.36343527 0.21922506 -0.6012717 -0.16000144 -0.483289 -0.24406499 -0.1521449 -0.048046198 -0.40353036 0.38501152 -0.1175145 -0.055679545 0.26743475 -0.19333225 -0.60152024 -0.1477603 0.32459566 0.11589368 0.60504097 0.064109534 -0.040950667 -0.22357255 0.107331246 0.47967628 0.7134792 -0.20916678 -0.12725788 -0.23702025 0.14787643 0.15285827 0.056661446 -0.37330532 0.19676423 0.16523285 0.5160824 0.25492147 -0.1228008 -0.09697654 0.076410875 0.28780887 -0.6422756 -0.2517225 0.33438122 -0.12958351 0.45741007 0.32718694 -0.5423268 1.0768836 -0.29092678 -0.27728248 -0.8873302 0.123506494 -0.08471699 -0.0075312196 0.28387144 -0.0065863556 0.49127275 -0.12636244 -0.11331052 0.21214488 0.23863484 -0.21638408
1949 -0.48178026 0.16223313 -0.14005142 0.24625067 0.37937683 -0.12195731 -0.21184987 -0.20892762 0.46980608 -0.44929275 -0.39884704 0.6309276 0.49533504 -0.029245384 -0.0691661 -1.1404341 -0.087072864 0.05750248 -0.45811862 0.39998004 -0.13980469 0.31932414 -0.04943318 -0.46037915 -0.19881092 -0.042420007 0.51879495 -0.0983774 0.2678086 0.42870408 0.11275503 0.14469928 0.042656988 -0.5026398 0.2781115 -0.23981684 0.13248609 -0.31339547 0.8211257 0.049950633 0.033892203 -0.45425844 -0.35571906 -0.07207092 0.70651 0.5293787 0.12821077 0.25298142 -0.078112766 -0.03601223 -0.2891221 0.3164883 -0.29438892 -0.4382298 0.16063523 -0.29337063 0.3359208 -0.08647585 0.546858 -0.13076483 0.3031661 -0.08897712 -0.54872924 -0.90283984 -0.12897067 -0.22445163 0.26429337 -0.04191022 0.09922142 0.11311588 0.24620172 -0.23310466 0.08281873 0.15476575 0.24634008 -0.14377691 -0.37261868 0.24717864 -0.5047807 0.52285886 -0.700681 -0.6607131 -0.07325847 0.016258797 0.27546588 0.7446802 -0.23907387 -0.28582963 -0.11649102 -0.22261332 -0.41845596 -0.54108375 0.07117877 0.24488845 -0.51431954 0.25296283 -0.23004481 -0.1040472 -0.045830213 0.27156267 -0.10781569 0.56566256 -0.3879777 0.33025503 0.1350822 -0.33223552 -0.1860112 0.10004559 0.5816527 0.16833086 0.24404564 -0.13112833 -0.10468788 -0.114737876 0.5834887 -0.19017485 -0.16712695 -0.37672988 -0.2264783 -0.0055734743 -0.031671405 0.53370047 0.03926607 -0.28565994 0.14340313 0.17468956 0.5906492 -0.5013061
1978 -0.18286234 -0.6773003 -0.19842976 0.03480654 0.47165668 0.39215147 0.29351833 -0.108619295 0.4354926 -0.32671383 -0.39970365 -0.4118637 -0.05194551 -0.24436234 0.33890933 -0.70159245 -0.57838124 0.2864641 -0.04894997 -0.14777583 -0.24996465 -0.23093368 -0.15933387 -0.27516773 0.27037865 -0.048924528 -0.14315677 0.40319467 -1.1065574 0.100838095 0.3913595 0.4680749 -0.27390802 -0.5930902 0.43320382 -0.56722665 -0.11243885 -0.010539107 0.21280886 -0.5512452 0.13412848 -0.02835858 -0.19486608 -0.30718663 0.12411529 -0.05064462 0.16531482 -1.0536057 -0.041207585 0.3419483 0.45335564 0.26599574 -0.47211742 0.47846296 -0.23424327 0.37929183 -0.04292643 -0.19652718 -0.021241168 -0.21438505 0.13966899 -0.24654894 0.44258037 0.21986113 -0.05401872 -0.08609715 0.17068735 0.13032565 0.12067053 -0.49988207 0.29576784 -0.26831037 -0.6812763 0.3307181 0.069533296 -0.16526705 0.2417278 0.13043234 0.16726136 0.4061105 -0.42890584 -0.23094063 0.2991346 -0.055657946 0.24408807 0.38908568 0.36197388 -0.24091433 -0.33300784 0.17314115 0.17551506 0.2980905 0.18877062 0.1459181 -0.42762935 -0.030173542 -0.033211965 -0.3832433 -0.02426571 0.47867873 0.09428934 0.62448263 -0.13883711 -0.525087 0.0040882784 0.046243984 0.65788704 0.31027454 -0.050337225 -0.26764974 0.20698452 0.52240354 0.026686566 0.34047097 -0.009502404 0.5282899 -0.10660518 -0.0066853897 0.15736444 -0.564152 -0.65704197 0.5615318 -0.38279143 -0.6348373 -0.824159 0.7288442 0.38617283 -0.13466999
1965 -0.019480927 -0.017531887 -1.34961 -0.18492115 0.6451084 0.123057015 0.5155881 -0.1265907 0.10724985 0.5819873 -0.29122368 0.11239086 0.26587075 -0.3849915 -0.14956394 -0.2587987 -0.40641955 0.14396794 0.23540005 -0.25249338 0.2745141 0.19584757 0.0036302973 -0.41585228 0.08089451 0.3733792 0.18615654 -0.07823524 -0.14671946 0.6706567 -0.10139927 0.16031824 -0.026541036 -0.41754502 0.4040436 -0.774782 0.7202643 -0.117959626 0.40302083 0.26467782 -0.038774543 -0.36524767 -0.28322533 -0.10816846 0.09092098 -0.16146883 0.21520148 -0.67069745 -0.20392872 0.62248284 0.10303404 0.5566194 -0.08997342 0.14970116 -0.11113812 0.16344516 -0.1505977 0.3822471 0.33920953 -0.41050702 -0.199523 -0.15589842 -0.19502187 -0.37219375 0.01644563 0.6982374 0.6956691 -0.6845741 0.07757861 -0.2233899 0.12917463 0.35318762 0.10631923 0.26767308 -0.28388596 -0.38035566 -0.487256 0.14931287 -0.13950217 -0.36331394 -0.019515192 -0.21461453 -0.2725814 -0.21884622 0.34473017 -0.52109367 0.35987404 -0.22336473 0.71566075 -0.475053 -0.22413234 -0.60896516 -0.3577187 0.016413242 -0.061388317 0.14211223 -0.67238104 -0.4011683 0.3457316 0.16436738 0.00048668621 0.07014568 0.03593762 0.0007258532 -0.38369036 -0.23836584 0.5517878 -0.28272137 -0.17378111 -0.019911893 -0.32346222 0.07718832 -0.4095683 0.57847863 -0.32659253 0.014595219 -0.1431535 -0.803601 0.11205875 0.14606446 0.20061961 0.6467984 0.41606414 -0.33544883 -0.03794663 0.30486876 0.017843805 -0.5946755
1954 0.1092858 -0.14632037 -0.17385097 0.058881085 0.4628301 -0.16558868 -0.2963755 -0.026336482 0.6189683 -0.7774109 -0.14580004 0.47732785 0.3678924 -0.45929176 -0.07946631 -0.92965317 0.23331974 0.20752446 -0.36278868 0.44645628 -0.1736743 0.02594299 -0.2493862 -0.42803955 -0.2149692 -0.16888683 0.72044426 0.031303644 0.26249117 0.17728572 0.65878963 0.5866941 0.36598247 -0.43243214 0.24869385 0.13280642 0.032846477 -0.29493472 0.46621585 0.5093073 -0.12128257 -0.7240193 -0.29196092 -0.48138523 0.15942319 0.42278686 -0.055162467 0.16947405 -0.09426315 0.016750453 -0.38965562 0.41766685 0.0628093 -0.37346283 0.14186509 -0.28139824 0.62212276 -0.048858523 0.41204512 -0.10537046 0.34388906 -0.06934839 -0.3477256 -0.9791742 -0.193449 -0.24428645 0.37595862 -0.63838106 0.085630625 0.22880428 -0.01091305 -0.35854635 0.3780994 0.26632386 -0.21041958 -0.1377162 -0.23015022 0.15429987 -0.24469322 0.18810706 -0.5833783 -0.34941345 -0.031511378 0.2997226 0.39804444 0.98321635 0.21318568 -0.08076647 0.256091 -0.006213048 -0.7540795 -0.5047749 0.47314417 0.17447612 -0.2864518 0.12949684 -0.47935995 -0.095302075 -0.23619522 0.31589803 -0.56458163 0.6005137 -0.30740365 0.054780085 0.39014375 -0.39491725 -0.2579673 -0.09362145 0.28331426 -0.07779452 0.05329272 -0.0239854 -0.32899383 -0.10031425 0.47337356 -0.12834938 -0.42227477 -0.35369563 0.22595216 0.3791476 0.2285349 0.27275848 -0.14033617 0.25348103 -0.15488736 0.15845971 0.88434225 -0.67455536
1964 -0.68545693 -0.18508026 -0.44648677 0.54174185 -0.2149229 -0.7706732 0.40196565 -0.48397344 0.66739935 0.14503847 0.4364054 -0.48248369 0.26816234 -0.43781903 -0.2434636 -0.058323458 0.19301543 0.1781766 0.09407656 -0.37040067 0.33539152 -0.24023362 0.042567085 -0.31008297 -0.0057281833 0.052113988 0.58484215 -0.23183523 0.06864819 0.4277342 0.49423712 -0.16790515 0.22035307 -0.018155292 -0.0205033 -0.646188 0.6365101 0.0083877165 0.09440488 0.18018824 -0.23971091 -0.43860665 0.24279386 -0.391041 0.21181737 0.13708954 0.27192542 0.16584446 0.21859258 0.6577949 -0.034573104 -0.013413963 0.4152713 0.22941884 -0.11650379 -0.13422984 0.28421918 0.45751616 0.2260725 -0.108009785 0.0017242568 -0.2414667 0.18079455 0.15339977 -0.11619096 -0.33439425 0.46388924 -0.09423697 -1.0641848 -0.3929618 -0.2801452 0.12849884 0.4635731 -0.84027416 -0.5649298 -0.10344198 0.21331434 -0.2395685 -0.17472412 -0.044024218 -0.27668533 -0.20504422 -0.22052982 0.401442 0.21343258 0.75073165 0.16794349 -0.323861 -0.7383762 0.07878375 0.3809759 0.094260186 -0.32784718 -0.056489214 -0.581311 -0.004530702 -0.62675244 0.23446177 -0.26052707 0.44013318 0.12444098 0.08435804 -0.34528437 -0.49766144 -0.32869872 -0.03674162 -0.31419846 -0.22414374 0.20182845 -0.30750468 -0.31099582 -0.45278114 -0.5540695 0.07211131 -0.54886013 -0.31809276 0.59502363 0.15372726 0.10231276 0.46627724 0.05633524 -0.04108378 -0.061823584 0.03664508 0.30605942 0.6712354 -0.5157827 -0.073827006
1927 0.2675366 -0.21409693 -1.4891199 0.122163154 0.8082569 0.031451307 0.37308553 -0.13370296 0.028710065 0.42113858 -0.4560017 0.033471603 0.41882303 -0.6294544 -0.24292839 -0.17112666 -0.2751934 0.105551295 0.07762886 0.13388243 0.19768757 0.31954154 0.09171493 -0.21057013 0.5800686 0.42538053 -0.09877817 0.45282277 0.20239398 0.4210354 -0.6167975 -0.46499977 -0.0037440741 -0.78355026 0.27443987 -0.87853676 0.4180882 -0.013576945 -0.0033234272 0.051892523 0.114371546 -0.19149007 -0.019504854 -0.004957871 0.0623613 0.009477886 -0.13585664 -0.2345345 -0.032489788 0.44960192 -0.2282918 0.2536524 -0.24545966 -0.20499426 -0.119672 -0.025304828 0.2645925 0.4856501 0.65045905 -0.7158678 -0.049787946 -0.25811094 0.10646537 -0.07211371 -0.03876507 0.21563075 0.5450589 -0.5856205 -0.06371199 -0.49265525 0.020692918 0.26071295 0.17620826 0.26547673 -0.037210435 -0.27847356 -0.1185946 0.3527411 -0.18213132 -0.30360666 0.2810344 -0.049467787 -0.29002807 -0.28997952 0.12806705 -0.61196816 0.5068442 -0.15185463 0.3011423 -0.013490543 -0.25779578 -0.38485497 -0.31179455 0.13334802 -0.3560558 0.20399086 -0.40644524 -0.5413233 -0.19727632 0.15767017 0.056911424 0.24716237 -0.16748044 -0.08534231 -0.28898117 0.09001935 0.5299409 -0.03983532 0.41066366 0.09381088 -0.19611563 0.32554266 -0.47811493 0.8055046 -0.14870088 -0.31958467 -0.015432242 -0.5520649 -0.29647362 0.29101872 0.034644153 0.9545442 0.06875243 -0.40925738 0.25491336 0.43345693 -0.33515877 -0.3513743
1952 0.37135586 0.049200915 -0.2804869 -0.21798998 0.036953826 -0.006075933 0.05436301 -0.0053212736 0.008725006 -0.00804357 0.18812956 -0.081721574 0.23530099 -0.16110383 0.26113078 0.06600291 -0.77970034 0.11670484 0.13994408 -0.04075772 0.23635924 0.1731044 0.27823105 0.1177494 0.18062066 0.3311222 0.038805846 0.26631564 0.42419007 -0.13993399 0.3272509 0.23579758 1.0006777 -0.41947374 -0.44578946 -0.66679686 -0.37142828 0.20239201 -0.22755466 -0.1711177 0.3981735 0.2019079 -0.3008616 -0.49700135 0.302589 0.17940956 -0.5309539 -0.3320371 0.046400927 0.5575087 0.51914215 -0.18588851 0.011126 -0.19700785 0.2259857 0.25382328 -0.37219554 0.5760425 0.24359755 0.29290473 -0.07625171 0.20606036 -0.3219526 -0.78576636 -0.23875606 0.13870966 -0.16792096 0.056209225 -0.5396369 -0.696975 -0.46862096 -0.24559842 -0.27945718 0.5128881 -0.502511 -0.009889194 -0.23041968 -0.7637107 -0.17991228 -0.35841754 -0.056591876 0.07372223 -0.24149576 0.3962242 0.84684193 0.31282583 0.83155596 0.17038326 0.14530289 0.5992459 -0.029860348 -0.21253522 -0.2067827 0.28936803 -0.5187492 -0.40790302 -0.35422036 -0.5428996 -0.03356641 -0.082653046 0.25327802 0.33434948 -0.1996366 -0.33355963 -0.014669647 -0.48425138 -0.25399378 -0.67805046 0.09726374 -0.2831591 0.10503257 0.36797187 -0.056830343 0.48873988 0.51484746 0.002783487 0.124025464 -0.12657247 0.41690633 -0.36011446 -0.07619585 0.3084491 -0.7376897 0.16220057 0.026050335 0.3228894 0.32956085 0.33999422
1980 -0.082836226 -0.42034125 -0.8040728 -0.51834625 0.24322572 0.025052061 0.67991996 0.396666 0.2756505 0.14982682 -0.3621083 -0.2311959 0.32539943 -0.29198498 -0.010088349 -0.44547552 0.07843076 0.08482029 -0.008503042 0.24954353 -0.73898304 0.1520121 -0.20895149 -0.08014056 0.094984315 -0.16232805 -0.52931565 0.35775334 0.08379024 0.029283855 0.3683197 0.29156768 -0.27420828 -0.41542348 -0.4677509 -0.54441094 -0.46755028 0.5455519 0.6744854 0.037490603 0.41293812 -0.15091419 -0.068697736 0.20909873 0.7829353 -0.3013219 -0.32368088 0.20485714 0.8569388 0.2235524 0.29380298 0.070570886 0.41148072 0.089357145 -0.48976132 0.31868896 -0.31795 0.03812739 0.4032855 -0.16210899 -0.017417304 -0.491536 -0.034856305 0.03490257 -0.29473746 -0.35184583 0.4561304 0.03566973 -0.11139296 -0.29484972 -0.38799194 0.0034547194 -0.26732513 0.19329403 0.34715226 -0.1473996 -0.13773336 -0.024256844 -0.19716488 -0.07730981 -0.00808448 -0.28105476 0.40908235 0.6111275 -0.3228886 0.06392748 0.20808446 -0.08505551 -0.2733047 0.5139724 0.19213656 -0.3364866 0.2880603 0.6172234 -0.522411 0.3280382 0.20589451 -0.35082024 0.16803992 0.37810126 -0.46896097 0.21107204 -0.499551 0.7646084 -0.33822232 0.36059248 -0.20548794 -0.54606485 0.008054289 -0.05077898 0.27602553 0.4105786 -0.3658997 0.2617358 -0.03506705 -0.42103505 -0.21141462 -0.006522386 -0.17678794 0.12827556 -0.3095771 0.5426651 -0.18803445 -0.4260612 0.02293609 0.6598294 0.10896687 -0.10267833
1993 -0.0809148 -0.114238314 0.048746318 -0.050501 -0.544761 0.5660781 -0.83660114 -0.2721837 0.07218489 0.26285672 -0.65839857 -0.05947762 0.113306746 -0.75341517 0.7230991 -0.36451706 0.024805842 0.16719198 -0.30557933 0.021702863 -0.30943513 -0.5168782 -0.07861379 -0.2864871 -0.061325666 0.3441393 0.65154976 0.4291988 -0.15833756 0.12316014 -0.35521793 0.16975784 0.11954831 -0.26519594 0.26057267 -0.47211772 -0.40594482 -0.21871746 0.9041323 0.4594356 -0.30034927 0.18574944 -0.429965 0.35729098 0.20286338 0.027970985 -0.45445588 -0.3167336 -0.07997347 0.31540963 0.067083344 0.20957561 -0.72177595 0.046883807 0.03760765 0.15640315 -0.28318396 0.19206408 -0.3459961 0.17121819 0.7676766 -0.31168404 0.11391565 -0.4779286 0.2602295 0.14592865 -0.03991076 -0.43651432 -0.3781035 -0.28028807 -0.7427376 -0.20049833 0.2739158 0.3323657 -0.5634513 0.22286402 -0.041613754 0.17988475 -0.09273344 0.42735055 0.42722285 -0.33339068 0.09547589 0.22840028 0.43228307 0.6063543 0.18505931 -0.26053858 -0.2897861 0.62939155 -0.30447847 -0.6700379 0.08719524 -0.10233686 -0.48516446 0.11022543 0.20394668 -0.07997676 0.15107283 0.09648453 -0.021475889 -0.2527717 0.22272906 -0.15769933 0.062432196 -0.23252833 0.008432619 -0.25514823 -0.42602006 -0.06618294 -0.02036555 0.26019424 -0.4739299 0.42785403 -0.35191646 -0.66407764 -0.037656706 -0.30139133 -0.13662118 0.5284309 0.55613077 -0.1366612 0.23164473 -0.36314017 -0.09958823 0.044869494 0.23025638 0.33952457
1912 -0.08690496 0.5160874 -0.29113114 -0.3233519 0.12049671 0.38323256 0.700114 -0.717797 -0.29245728 -0.20096484 0.008764635 -0.6523826 -0.15155834 -0.58156234 -0.09841672 -0.3672729 0.081402704 0.13768777 -0.08486499 0.22506075 -0.088698156 -0.023130737 -0.25151795 -0.3016645 0.054463115 -0.012059493 0.100871764 0.16897832 -0.4640975 0.49671674 -0.5337789 1.2801943 -0.089283705 -0.58636445 0.2173299 0.046668015 0.38084644 -0.35815817 -0.21331294 0.18549876 0.65760744 0.17172697 0.3786525 0.07150774 0.10437651 -0.031322412 -0.27715945 -0.9690369 0.094644494 -0.21737704 0.12985648 -0.25061768 -0.18908378 -0.07408235 0.053043015 0.19830799 -0.4120509 -0.21500027 0.20929524 0.053719256 -0.12593046 -0.26252538 0.5815375 -0.09124801 -0.103703275 -0.60139674 0.2234682 0.15548572 -0.4328375 0.005216496 0.32947588 -0.60415757 0.18634412 0.09970039 -0.08004396 -0.4131567 0.11939572 -0.24003409 0.48397118 0.44503385 -0.7112236 -0.29275694 0.019695096 0.56530845 -0.09119323 0.2183671 0.4430519 0.10523829 -0.19373815 0.25560647 -0.18493155 0.28315634 -0.22316346 -0.111711755 -0.5419705 0.25659052 -0.2883795 -0.054783996 -0.15398061 0.31955326 -0.032116774 0.59062195 -0.39389113 -0.36858508 -0.107652456 -0.4675205 -0.23580074 -0.23104993 -0.19316258 0.4756868 -0.15553105 -0.5750708 0.040279713 0.0213109 0.51165354 -0.29592705 0.028773477 0.036607582 0.051219497 -0.2577375 0.6421401 0.20485441 -0.7540494 -0.21957316 -0.25588486 0.31579402 0.25097695 -0.40985212
1869 0.16102555 -0.25075597 -0.12891439 0.60802335 0.397079 0.32743728 0.2973785 0.008160404 0.13646168 0.14163673 0.16101404 -0.6882645 -0.1710905 -0.015360769 0.097818226 -0.7019728 -0.34058425 0.4642188 0.22026622 0.4325329 -0.14725068 -0.03539101 -0.19713017 0.1258604 0.43039823 -0.4397668 -0.09596519 -0.2806989 -0.410299 -0.110042445 0.80769145 0.017769061 0.16386212 -0.2301098 0.008857658 -0.34275794 -0.21047884 0.09101794 0.54470503 -0.5719696 0.0512934 -0.28220052 -0.08763977 -0.36242262 -0.058760718 -0.49139214 -0.07899854 -0.5757455 0.16440663 0.26995707 -0.25622076 -0.048658937 -0.5961838 0.17525886 -0.044704787 0.47114497 0.28728768 0.23868826 -0.13739772 -0.55153465 0.12962842 -0.27323356 0.00020321304 0.60095686 -0.078525685 -0.2833399 0.0963401 -0.25510326 -0.1286948 -0.37643176 -0.64682114 -0.14900798 -0.5939674 -0.1716529 -0.07602936 -0.16667123 0.18535495 -0.46071127 -0.017658705 0.09397999 -0.5879413 -0.3381007 0.2787304 0.017909037 0.7609147 -0.061354693 0.013606875 -0.33947432 -0.0866621 0.33812088 -0.041818164 -0.1532171 0.012130397 0.06910366 -0.1462742 0.09508712 0.3447226 -0.5805112 -0.013415403 0.23036556 0.5586066 0.53652906 -0.90543246 -0.6772778 -0.060078405 0.054336917 0.23823276 -0.061174113 0.31845644 -0.44964427 0.48096594 0.61806947 -0.2210172 0.06464002 0.23095074 0.4877816 -0.017284838 -0.13911091 0.6830912 -0.9751062 -0.16628075 0.44419608 -0.2435987 -0.7658953 -0.21497212 0.25896743 -0.21894039 -0.5950505
1984 -0.12886582 -0.16714911 -0.26355207 0.27646458 0.062206477 -0.410804 0.0993887 -0.3886354 0.45141643 0.40059036 -0.08756736 -0.27356192 0.17971395 -0.2965364 -0.4460356 -0.09368447 -0.2588098 0.021798437 -0.27846423 0.6661047 0.13676359 -0.29965663 0.33393982 -0.029639056 -0.12979364 0.15743876 0.6200736 -0.33763635 -0.25417933 0.08966218 0.8513012 0.15337834 0.23288675 -0.57322323 0.038670264 -0.75084007 0.33427277 -0.49259347 0.16549397 0.001464972 -0.050553557 -0.28788427 0.48403835 -0.59151334 0.46094325 0.30142108 0.2915401 -0.08662225 0.18114294 0.37185174 0.21373236 0.5470949 0.2649098 0.45258832 0.23928073 -0.38494176 -0.027592963 0.3421135 0.087554276 -0.14797202 0.12567417 -0.08353543 0.12939064 0.15695484 0.319702 -0.16956417 0.049436014 -0.14970703 -0.98931366 -0.4652561 -0.4735616 -0.10636586 0.58239084 -0.63135695 -0.10186951 -0.046563752 -0.011666423 -0.28667158 0.25135794 0.051420353 -0.4958676 0.04597465 0.07863718 0.1601201 0.43462595 0.49184257 -0.20396724 -0.42663884 -0.84685946 0.06723365 0.32392222 -0.2574142 0.12553757 -0.5811418 -0.8130798 -0.04172381 -0.2185672 0.0992116 -0.53542495 0.4680271 -0.22478531 0.13173291 0.083920375 -0.46394122 -0.3587401 0.41270366 0.1847172 -0.114641994 0.26282594 -0.32391012 -0.3982405 -0.31921732 -0.36604786 -0.007681972 -0.25891122 0.049778797 -0.06172089 0.6053927 0.07243143 0.31745577 -0.22228022 0.4707608 -0.11900301 -0.03006497 0.49432373 0.67909175 -0.612803 0.32197326
1903 -0.1337218 -0.27371278 -0.705886 -0.13236503 0.5400485 -0.82418144 0.25645322 -0.062077828 0.31712788 0.15375367 -0.07475835 -0.62202394 0.46984306 0.27928248 0.8122619 -0.045627836 0.33081672 -0.15565729 0.07381183 0.031719435 -0.23883192 0.4424516 0.54471534 -0.012293855 0.028175175 -0.48989907 0.74671906 -0.26516196 0.19352672 0.11025742 -0.18706018 0.45840496 -0.07555243 -0.5819674 0.5781935 0.6389869 0.10828332 -0.52960956 0.44067276 0.3643685 -0.1649787 0.06634699 0.058959823 0.30410898 0.45499763 -0.62372917 0.16802321 0.23226628 -0.18768911 0.1839482 0.491721 0.47516802 -0.27790257 0.54385257 -0.60771984 0.22185245 0.46922043 0.2563098 0.19124708 -0.1455113 0.3633715 -0.34980917 0.46070558 -0.27859464 -0.34850606 -0.08568893 -0.4602924 -0.35526305 0.026187692 -0.33956838 -0.6108777 -0.22703698 0.16534801 -0.2274501 -0.57613814 -0.13243616 0.24850911 0.12262201 -0.027052537 0.4311165 -0.59051687 -0.16750221 -0.10714963 -0.12730439 -0.43719032 0.21687865 0.36230925 -0.13304448 0.24209496 0.6731203 -0.06692336 0.4366218 0.18553892 -0.71368164 -0.15076481 0.10420539 -0.22378871 -0.35433036 -0.47304115 -0.007375024 -0.17829749 0.53511316 0.085617796 -0.22800179 -0.023846759 0.4271439 -0.2820028 -0.20834006 0.15851468 -0.91931677 -0.3958119 -0.49312276 0.041268848 0.49365777 0.5274734 -0.21257533 -0.38054106 -0.3385996 -0.07885607 -0.33545983 0.3371391 0.5931835 0.049087778 0.34839305 -0.4054003 0.4699784 0.08297293 -0.2013247
1986 -0.7651036 -0.44928217 -0.24864668 -0.35803488 0.14894648 -0.55000865 0.16870509 -0.15597785 0.40647784 0.2427285 -0.22173268 0.20574316 0.6003799 -0.17767729 0.45714086 -0.2110908 -0.3589266 -0.21759751 -0.11617852 0.13847284 -0.40987834 0.3103639 0.062130496 -0.8173576 0.26711246 -0.36886945 -0.14617829 0.6945902 0.4394854 0.4820066 0.29852858 0.13966233 -0.14700115 -0.44023457 -0.14199074 0.3779723 -0.20882304 -0.46376687 0.13334526 -0.22212294 -0.047770668 -0.01253381 0.16043954 -0.07290175 0.388288 -0.29002437 0.23878358 -0.2895181 0.12229417 0.22510768 -0.04265363 0.31195787 -0.117294736 -0.6929198 0.81532764 -0.018237947 0.6036163 0.59125495 0.3431977 0.34823975 0.41787064 -0.50328404 0.43857157 -0.46832174 -0.54181224 0.23056355 -0.44252107 -0.21927513 -0.45333934 -0.027628984 -0.43564495 -0.08075424 -0.39343944 0.39077252 0.30892047 -0.16380104 0.15835665 -0.43005913 0.20843555 0.6126481 -0.012530514 0.62156206 -0.11572312 -0.12568077 -0.08954788 -0.070308045 0.13477442 0.47890982 -0.36901292 -0.078311056 0.4652123 -0.1430458 0.019139756 -0.68752754 -1.0262382 0.5959603 -0.52905595 0.14668757 -0.29689476 -0.07534432 -0.22734696 0.066008754 -0.07345877 -0.48408937 -0.15855972 -0.41337836 -0.24738699 -0.7436919 0.13502255 0.025420742 -0.35723934 -0.42680624 -0.078270346 0.02664993 -0.16919188 0.011467948 0.017676992 -0.3060129 0.1995916 -0.17052767 -0.4065232 0.20427553 -0.1746727 -0.3289699 -0.21475503 0.5169009 0.8891268 0.022095142
1982 -0.14119883 -0.13376872 -0.030621612 0.21456951 -0.13389449 -0.07904896 0.04964747 0.2559309 0.14461087 0.41835716 -0.1297973 0.21257006 0.02177678 -1.0602663 0.4433127 -0.72076434 -0.026873307 0.1188926 -0.26366535 -0.14789887 -0.2838374 -0.3589979 -0.28236026 -0.11998561 0.022038026 0.054763723 0.475274 0.8671828 -0.15888989 0.2815486 -0.16676183 0.035611596 0.22714305 -0.3773599 0.23689689 -0.23624149 -0.9727561 -0.04311422 0.64509183 0.4562792 -0.028381282 0.1374807 -0.21930304 0.22915801 0.47666392 -0.35165802 -0.2733032 -0.31535453 -0.47767723 -0.3535364 -0.37559462 0.31840634 -0.58759016 -0.18597518 -0.22413556 -0.20224465 -0.19433393 0.18781552 -0.19275457 0.49436355 0.630756 -0.10823779 0.12904711 -0.2042721 0.4139498 0.07212018 -0.25373524 -0.27659222 -0.19495307 -0.26357818 -0.43411824 -0.11041089 -0.1907638 0.8759824 -0.05655527 0.4855826 -0.103304975 0.19261143 0.03132838 0.6961753 -0.013622773 -0.49577585 0.12584558 0.120501965 0.3325276 0.39366278 0.5079797 -0.23010442 -0.30734694 0.44915473 0.11020224 -0.5541104 0.43953645 -0.23574805 0.030021219 0.20825268 0.27822712 -0.43825927 -0.45748848 0.18229505 0.048879124 -0.24263881 -0.38837007 -0.3842274 -0.11664008 0.21510883 -0.21273908 -0.59673357 -0.28000918 0.1336908 0.17378442 0.29826632 -0.3502194 0.2947621 -0.14799389 -0.555465 0.2476778 -0.40763614 0.048504103 0.34524694 0.45020616 -0.058721613 0.306838 0.21078454 -0.032202266 0.62789804 -0.07746858 0.046004985
1936 -0.37877062 -0.31486163 0.11219551 -0.75164336 0.22255039 -0.2648146 -0.049682196 -0.5621426 0.36281458 -0.13668469 -0.26047924 0.42112106 0.38306442 -0.15498587 0.13393253 -0.36007342 -0.7019187 0.080929145 0.13303201 -0.09997249 -0.3547856 0.13275419 0.19114006 -0.5064279 0.067275345 -0.46618184 -0.14184721 0.47299227 0.21968494 0.66848 0.19866584 0.16254325 -0.4769351 -0.52942866 0.2699975 0.17622137 -0.2632034 -0.42945385 0.27464584 -0.300389 -0.27446675 0.20719573 0.12095025 0.20115834 0.18539035 -0.49661955 0.0038909898 -0.08948103 0.04682168 0.20770851 0.063219 0.4146968 0.31240958 -0.24285744 0.18667205 -0.3570586 0.59180295 -0.04687184 0.6220608 0.19763643 0.46821058 -0.39065364 0.6778282 -0.1316432 -0.9856653 0.61928844 -0.32763276 -0.040411435 -0.94038045 -0.20560578 -0.06982027 0.0280219 -0.09136358 0.33975747 -0.14262211 -0.52103627 -0.14993565 -0.8473791 0.24820633 0.3517142 -0.5152325 0.57358795 -0.23723142 0.051657926 0.59921527 0.018258814 -0.31930602 0.03489075 -0.23177685 -0.3295203 -0.016919173 -0.19834907 -0.030447876 -0.09472259 -0.6634345 0.56008554 -0.60096437 0.07274036 -0.50174665 0.12199333 0.06657387 -0.09930525 0.056726277 -0.6758265 0.1937877 -0.031249415 -0.23037292 -0.6494633 -0.040132333 0.35215765 -0.4347507 -0.22973429 -0.15352517 0.07316648 -0.21852751 -0.035609223 -0.43516743 -0.49954006 -0.21547933 -0.11427628 0.004069344 0.23476449 -0.01263283 -0.65228075 -0.2407317 -0.42630875 0.876619 -0.25427303
1988 0.36641407 -0.019541748 -0.5739749 0.15013316 -0.3292017 0.2474484 0.122000985 -0.37848523 0.10008275 -0.31181225 -0.038820125 -0.9748048 0.07753165 0.033792675 -0.016370747 -0.61977965 0.037979785 0.059384592 -0.43803412 -0.057872724 -0.12431718 -0.17322175 -0.19583097 -0.4336775 0.3024866 -0.12821622 0.22791047 0.33222777 -0.12840267 -0.52545416 -0.2898447 0.54919595 -0.6155413 -0.6236877 -0.45575863 -0.30570343 -0.063300505 -0.45517734 0.466928 0.37913284 -0.1575678 0.047995437 0.20108837 -0.123967014 0.5867644 -0.38195005 0.8371412 0.019771948 0.05603727 -0.050842617 0.3524536 0.19290742 -0.042439904 0.15716988 -0.5217048 0.37897578 0.05023749 0.40574953 0.14240417 -0.1801645 -0.104966566 0.25116417 0.3303991 0.027893374 -0.4591749 0.10144386 -0.045936875 0.2330641 -0.056824293 -0.03927432 -0.33858144 -0.5407107 0.22941291 0.29149878 0.17308028 -0.9414346 0.28430015 -0.44132417 -0.42538399 0.37728837 0.1320335 -0.41560248 -0.24586256 -0.05590345 0.3291413 -0.12199204 0.22647616 -0.74580616 -0.21853662 -0.02294698 -0.014625836 -0.23720758 0.30852848 0.19058134 -0.8564497 0.2132907 0.2670262 -0.11701899 -0.19574477 -0.16946314 0.81292593 -0.5641311 -0.044780284 -0.074578375 -0.20336932 -0.53973716 0.04633189 -0.19329526 0.6451034 0.26658127 -0.018460698 0.064417586 -0.3957135 0.32239684 0.08714946 -0.18439427 0.30362514 0.3416774 0.7378076 0.29076084 0.2792663 0.18310289 -0.12639627 -0.1056102 0.79179883 -0.08679013 0.5265512 0.010326867
1998 0.5072093 0.6633334 -0.25747964 -0.30615792 0.053738263 0.29671806 0.24306649 -0.39075124 -0.37313372 -0.15760332 0.12247283 -0.09862704 -0.2063164 -0.29677516 -0.38577712 -0.5363507 0.11727244 0.2726051 0.004208597 0.24648318 0.74634254 -0.49855405 -0.2528132 -0.15107203 -0.010649493 -0.053438827 -0.17267075 -0.3892516 -0.4161579 -0.12738232 -0.37554842 1.3483484 -0.44397053 -0.7199092 0.5313973 -0.093559116 0.15941262 -0.052814048 -0.01209126 0.40929842 0.2865202 -0.31464025 -0.027159646 -0.052192356 -0.022609696 -0.1981267 0.042115852 -0.060696974 0.41698834 -0.07720359 0.13806097 -0.26696995 -0.3782602 -0.46549624 0.23627456 0.11139677 -0.027718263 -0.23600805 0.3474204 -0.20371604 0.03836117 -0.14034897 0.3546416 -0.5878943 -0.23719475 -0.55705196 0.08267992 -0.4378062 -0.35562825 -0.002437948 -0.09485276 -0.61893845 0.08694841 -0.0750722 0.08676162 -0.3302469 0.314009 -0.728046 0.15254793 0.65372044 -1.3240377 -0.31563455 -0.51756036 0.14306648 -0.068497516 0.36753106 0.57386416 0.3366981 -0.20890543 0.37202695 -0.43904254 -0.024241747 0.1603485 -0.17882922 -0.2092911 -0.13617651 -0.5338243 0.4134711 -0.6190793 0.47321758 -0.12898889 -0.04888351 -0.6235206 -0.428308 0.14139596 -0.6284079 -0.25359172 -0.2877768 0.12821549 0.18257163 -0.5319575 -0.33937457 -0.0062529333 -0.16092527 -0.09496898 -0.02090331 -0.316999 -0.6549863 0.015780069 0.021693643 0.06910425 0.36947247 -0.092293635 -0.43073016 -0.251765 0.35216728 0.5462261 -0.1575926
1974 0.012815831 -0.28327587 -0.14141485 -0.05194846 0.022590732 -0.18282445 -0.2143 -0.37216255 0.23333238 0.18219712 -0.5499754 0.35981178 -0.050716028 -0.92730874 0.5098457 -0.74649775 -0.14272568 0.19229405 -0.3929544 -0.29197362 -0.14505899 -0.45238176 -0.3260004 -0.06084401 0.06801867 0.55876964 0.15954176 0.43865877 -0.1946529 0.08213357 -0.41051754 0.23026143 0.2574074 -0.4293767 -0.21202119 -0.09404513 -0.49754116 -0.20054795 0.7139747 0.23409006 -0.20605609 0.10972179 -0.5303811 0.4055316 0.5235627 -0.53466654 0.47153327 -0.4285517 -0.4139691 0.09890254 0.10827732 0.35999045 -0.69226015 0.0634259 -0.22552292 0.060682405 -0.02630029 -0.6358505 -0.25873095 -0.07904949 0.5316872 0.1476591 0.11047073 -0.28169984 0.29803696 -0.21842456 -0.42071468 -0.6489712 -0.43684208 0.08988745 -0.35980397 0.07169246 0.14797959 0.06792162 -0.5172009 0.07434962 -0.4105894 -0.16881219 0.27596968 0.5206199 0.4744137 -0.51532507 -0.5808902 -0.04749071 0.3660303 -0.04576416 0.9813599 0.16609953 -0.5695124 0.44323868 -0.013972036 -0.45679563 0.08489346 -0.23014994 -0.13836654 0.11160524 0.33562183 -0.24472293 -0.07179945 0.37811026 -0.17690273 -0.32293716 -0.016240923 -0.51190984 0.023093417 -0.13075621 -0.15843175 -0.14663485 -0.30557922 -0.21462461 0.12201691 0.569895 -0.50939214 0.51492226 -0.44982672 -1.0048131 0.35837302 -0.2899479 -0.12999532 0.1985111 0.17539464 0.33638445 0.15527748 -0.014710807 -0.35012892 0.0031074786 -0.106184915 0.3719871
1960 -0.7315453 -0.75122184 -0.044924248 0.20795763 0.8087466 0.118211776 0.43446824 -0.33660823 0.4821198 0.64222515 -0.58120936 0.13906187 0.13999684 -0.47092456 0.24840005 -0.41818896 0.6005667 0.44521573 0.09845683 0.45016363 -0.17763923 -0.04775368 -1.0113107 0.14466348 -0.15872477 0.09655595 -0.50131154 -0.21783146 0.8149442 0.0644723 -0.12322531 -0.22990681 -0.057494827 -0.8907495 -0.13384713 -0.90517366 -0.2773368 -0.3705075 0.7663651 -0.0776913 -0.53455323 -0.012142938 0.6141877 -0.14854585 0.37984663 0.19956918 0.5369553 -0.716599 0.3235138 0.49645573 0.63996816 -0.4631582 -0.41453838 0.07847691 0.2458581 0.11764233 -0.15792575 0.15526758 0.39402032 -0.21830735 0.38655156 -0.02061684 -0.21952568 -0.4728388 -0.6982167 0.0007180807 0.056102596 0.31891266 -0.20156166 -0.38153583 0.16411513 -0.21460307 -0.24884959 -0.3431825 -0.021336574 0.1915403 0.3813624 -0.17544812 0.36588416 -0.16267984 0.043945596 0.046805535 -0.28325018 -0.24894837 0.11501 0.024210293 -0.3736459 0.48534483 0.08700825 -0.21664074 -0.25754318 -0.03239217 0.6011098 -0.60464054 -0.6079988 0.13371955 0.06806726 -0.16930556 -0.24094597 -0.48100886 -0.57398516 0.21581633 -0.2956284 -0.1688886 -0.11776174 0.07821155 -0.29831725 -0.15200973 0.06646735 -0.45251274 -0.12922515 0.10588168 0.15809584 -0.016715216 0.12246261 -0.18283062 0.08223598 0.29224858 0.6754516 0.16431776 0.9769486 0.18925743 -0.23073784 0.02841366 -0.56974024 -0.010124337 -0.22231816 0.21344611
1901 -0.1772635 -0.5406339 -0.013337524 0.00475448 -0.0950405 -0.8258939 0.10047118 -0.41563344 -0.20071237 0.4834384 -0.1618017 0.4689385 0.3307572 -0.21908712 0.08443402 -0.42402926 -0.47209862 -0.49163586 -0.036923565 0.12371384 -0.2577939 0.1155962 0.5419214 -0.37577757 0.065115735 -0.36771268 -0.58599436 0.7190761 0.46927804 0.54663146 0.3163017 -0.1304951 -0.4104871 -0.619367 0.26846004 -0.16178657 -0.47312787 -0.84727854 0.40019637 0.2310121 0.3831899 0.10670994 0.29194877 -0.10372052 0.7425845 -0.67791903 0.14577971 -0.28474414 0.46540126 0.44193304 -0.17166418 0.55706215 -0.0706353 -0.23870763 0.5948088 0.003937238 0.20551926 0.31070742 0.5262456 0.31934232 0.43078843 -0.109739624 0.43560046 0.08360148 -0.55816585 -0.09800044 -0.48029032 -0.55732703 -0.51406354 0.05609072 -0.5030543 0.12149907 -0.100937754 0.35675484 0.0077944044 -0.086478904 -0.25395426 -0.28872815 -0.0057892497 0.6458297 0.53201896 0.37559536 0.1669458 0.24130222 0.427162 -0.291206 0.022757703 -0.4338153 -0.60121936 -0.36298835 0.4317316 0.092810206 -0.06587647 -0.37395513 -0.36743617 0.7638734 -0.31176698 -0.30611035 -0.3112278 0.18924734 -0.4345089 0.08045655 -0.120185256 -0.15114665 0.4966097 -0.06416856 -0.081677146 -0.17859702 -0.12257299 0.36959106 -0.20506567 -0.0049405205 -0.20220046 -0.24716708 -0.40875113 -0.16481844 0.14129083 -0.60174274 -0.36346868 -0.04310299 -0.1382135 -0.042291228 -0.35727453 -0.44112355 -0.41327482 0.32429996 0.82587236 -0.48164526
1956 -0.16543938 -0.1283958 -0.86790437 -0.17405331 0.6206472 0.16508266 0.660016 0.22754514 0.21639194 0.1395808 -0.10241578 -0.15794449 -0.0016934106 -0.07591542 -0.03673261 -0.215472 0.54362893 -0.16724697 0.50729924 0.25662622 -0.48046485 0.21905878 -0.57528526 -0.51368666 0.1481335 0.020557601 -0.13636525 0.036955807 0.277431 0.013520554 0.36525258 0.33116218 -0.12613066 -0.09988015 -0.66067964 -0.47183645 -0.6859299 0.63412076 0.8305845 0.68541086 0.20527212 -0.062039874 0.11881334 0.01887688 0.7697369 -0.00480956 -0.10239599 -0.04231702 0.46172988 0.2193412 0.4799314 -0.32305035 0.5345623 0.26068345 -0.10135134 0.36630523 -0.46875668 -0.069897644 0.2342746 -0.21107009 0.06084238 -0.62296444 -0.19963533 0.22103296 0.16543856 -0.355049 0.22238138 -0.1085609 -0.02851715 0.19585638 -0.6025922 -0.5384546 0.30209693 0.07012702 0.44288468 0.07727332 0.25856084 -0.17913078 -0.131519 -0.18492238 0.04308222 -0.47595283 0.041829128 0.5197293 -0.2883963 0.3971497 0.37734887 -0.3656206 -0.18178807 0.27817482 0.15879588 -0.45029357 0.16529553 0.31800684 -0.66394407 -0.18029551 0.28357264 -0.07388687 -0.024732161 0.10514586 -0.620054 0.10015462 -0.5771308 0.49261284 -0.23721355 0.2594073 -0.41451323 -0.44256598 0.21232045 -0.33860722 0.06305377 0.4654564 -0.1900852 0.073647484 -0.24476042 -0.8872182 -0.28240803 -0.6159605 -0.20208219 0.22646393 -0.054091733 0.05511479 0.10177337 -0.14492579 -0.0044968133 0.7465678 0.23711531 0.10272725
1899 -0.31637967 -0.35172388 -0.32329932 -0.04166797 0.29326823 -0.21013488 -0.79995364 -0.50304955 0.5694824 -0.23940697 -0.8856955 0.28025526 0.5225708 -0.049350716 0.10673298 -0.34772527 0.011111478 0.22619201 -0.57761186 0.3662845 -0.40675753 0.24801232 -0.02692181 -0.23721452 -0.06690227 -0.38287312 0.6420823 -0.20405404 0.008249188 -0.19257033 0.16590376 0.25707066 -0.0060462314 -0.43624756 0.5382216 -0.29586512 0.27059764 -0.604717 0.3742057 0.44626766 -0.3450705 -0.34920758 -0.098546654 -0.19388154 0.80223614 0.7754252 0.20236444 -0.09958198 -0.13969307 0.21923749 -0.6455656 0.053796317 -0.0103329485 0.02596038 0.15742444 -0.23255393 0.23764756 -0.16446915 -0.06762121 -0.22894676 0.6902538 -0.60498863 -0.6622633 -0.51445514 -0.30543575 0.010392422 -0.48154524 -0.35606417 -0.4505685 0.3157823 -0.09779453 0.32750937 0.33638045 0.22601968 0.13070497 0.3509667 -0.19370574 0.54689556 -0.27509186 0.15050982 -0.33460552 -0.18121399 -0.246761 0.05141846 0.9669243 0.46453115 0.28034696 -0.10374339 0.07417367 0.056065407 -0.5573794 -0.2425164 -0.012461994 -0.12616387 -0.07748644 -0.22167842 0.024987845 0.24116974 -0.037681427 0.1840509 -0.22220409 0.4652156 -0.407676 -0.034154665 0.3305616 -0.022487625 -0.26052946 -0.29254064 0.36234504 -0.007922855 -0.065475 0.22269581 0.057503447 0.042854182 0.2924464 -0.23790237 -0.3608806 -0.30544057 -0.13258135 0.53123194 -0.02633411 0.5224753 0.086421035 -0.091434926 0.2241971 0.32890394 0.07574753 -0.5041412
1946 -0.10176948 -0.15932733 0.07214037 -0.16360733 0.19483308 0.641472 0.24593018 -0.36933467 0.37740487 0.18369222 0.00710845 -0.35216218 -0.28759375 0.13983484 0.108810715 -0.2988056 -0.018481174 0.4457239 -0.21306756 0.26342806 -0.81747866 0.26192346 -0.09353141 -0.021989776 0.4493096 -0.07648793 -0.2050331 0.1283034 -0.42009622 -0.015037281 0.28083023 -0.028462127 0.34939742 -0.5870005 0.37212685 -0.44436398 -0.16801676 0.21689488 0.48602712 -0.6751982 -0.0142625915 -0.41872415 -0.33723697 -0.3350253 -0.040015597 0.046096012 0.060364906 -1.0952138 0.2960563 0.3070708 0.15535554 -0.044127 -0.37439948 -0.01012465 -0.21626492 0.46697956 0.022263814 -0.34518057 0.13041632 -0.68454784 0.20364448 -0.20879008 0.34106484 0.5537334 0.08459242 -0.13293608 0.26832297 -0.31711313 0.04707845 -0.3676384 0.013627682 -0.4451324 -0.33562222 0.35013375 -0.12944463 0.3233402 0.13387649 -0.12428274 0.056195788 -0.21340197 -0.7521821 -0.35619846 0.026803358 -0.3982599 0.28820428 -0.25135222 0.76873857 -0.2578652 0.09244481 0.13919744 0.17831565 -0.17463215 0.24737135 0.25536168 -0.32440957 0.23496398 -0.50886554 -0.49822044 0.2704834 -0.03235249 0.38464904 0.36381462 -0.9897553 -0.1173749 -0.14702527 0.39783028 0.6261052 0.17064495 0.13410363 -0.43852606 -0.016358843 -0.1522522 -0.34831133 0.06468516 0.07769097 0.27925244 0.30957 0.21481979 0.3158259 -0.19242948 -0.19581006 0.30604953 0.06630462 -0.60204613 -0.8601981 0.65495396 0.401108 -0.14642799
1931 -0.038557105 -0.48567742 -0.25725833 0.21099381 0.54190296 0.18598604 0.636486 0.0134347435 0.45318922 -0.4034491 -0.30531016 -0.72235227 -0.38529164 0.11612133 -0.08343219 -0.5636652 -0.13030435 -0.032509804 -0.40102887 0.28392357 0.08138659 -0.24424756 0.026204027 -0.14276873 0.24313168 -0.67208374 -0.35747096 -0.3775113 -0.38017067 0.05932245 0.43747613 -0.2511561 -0.25761217 -0.18591076 0.18809575 -0.4917139 -0.4262747 0.44720936 0.26689824 -0.089304246 -0.35299268 -0.3275728 -0.648171 -0.081998065 0.10940725 -0.6796003 -0.15476449 -0.80258614 0.13468406 0.3643087 0.20740023 -0.17234637 -0.4699856 0.29559845 -0.09194506 -0.10046638 0.012518883 0.16978736 -0.015729308 -0.22148773 0.20474325 -0.3140921 0.07918418 0.32294536 -0.13301784 0.1445832 -0.21033862 -0.38011047 0.015703559 -0.3261547 -0.17097978 -0.27718097 -0.07724494 0.27468467 -0.21707794 0.047178216 0.1759848 0.03944023 0.17272064 0.12720989 -0.40175956 0.026085932 0.37249216 0.28731593 0.79220015 -0.16544849 0.17714241 -0.31081197 -0.25632733 0.2382434 0.072135404 0.09528251 0.24868864 0.49217084 0.008516381 0.05273263 -0.3216562 -0.47005087 0.30639428 0.34025332 0.7628578 0.12937076 -0.83206826 -0.9180899 0.30606943 -0.13596167 0.47559202 -0.15344507 -0.15306358 -0.2661904 0.3779103 0.19840854 -0.057320345 0.025408713 0.08751025 0.545387 0.10411975 -0.07221357 0.7299254 -0.8060202 0.088270456 0.2807356 -0.050810914 -0.36932003 -0.2393334 0.3493504 0.1368648 -0.28265437
1968 -0.042963527 -0.11746212 -0.8685971 -0.14585067 0.65633595 -0.5157462 0.10058694 -0.21242765 0.46581927 0.14938718 0.1728928 -0.5380705 0.22204313 0.18049954 0.5344419 0.012908458 0.22728212 -0.10742552 0.093574785 -0.11064309 -0.47203863 0.22429512 0.2959288 -0.12075714 -0.24396281 0.034569778 0.2035596 -0.29199067 0.3356494 0.2562199 -0.16399711 0.26139307 -0.1055334 -0.37725988 0.35261568 0.25075907 -0.102270015 -0.07870727 0.49550414 0.25188854 -0.25976926 -0.35061532 0.10129052 -0.2582665 0.7317335 -0.8784308 -0.21203125 0.10089459 -0.16109191 0.053047 0.35390583 0.1293306 -0.62045425 0.42633158 -0.42525128 -0.09600031 0.4697858 -0.10472529 0.15145569 -0.30361894 0.2518631 -0.5968426 0.64264023 -0.09890148 -0.14096788 -0.12855649 -0.44528887 -0.518805 -0.13468136 -0.30622792 -0.5438922 0.13845934 0.10614371 -0.2955043 -0.7640756 0.32270053 0.109920055 0.2335058 -0.22436751 0.25299457 -0.6017183 -0.06608878 0.41567025 0.27504078 -0.47280052 0.5552813 0.10573411 0.009589101 0.76706696 0.7098958 -0.926448 0.32851392 0.16128716 -0.10488562 -0.11235497 0.4005136 -0.10368311 -0.2711522 -0.22732699 -0.075027466 -0.4562235 0.32005948 -0.084141016 0.09403023 -0.18400496 -0.075566284 -0.23855263 -0.7632312 0.30506015 -0.6897425 0.15053342 -0.46260077 0.03650876 0.095018476 0.51588565 -0.46555728 -0.0839854 -0.096913174 -0.1739748 -0.0039925673 0.43857193 0.5384167 0.16948801 -0.38749763 -0.23954964 0.0961373 0.10110191 -0.48954996
1918 0.00028130156 -0.0007869847 -0.2886852 0.28176984 0.293743 -0.41700748 0.315436 0.18297116 0.2384811 0.41884723 0.25566873 0.57785183 -0.16835757 0.38933206 -0.05498361 -0.58271044 -0.0041941553 0.39297882 -0.32612062 0.1341726 -0.4291809 0.21978712 -0.7140002 -0.8820461 0.3990549 -0.11028538 0.17298496 0.11740459 0.7594203 0.17086919 -0.20006572 -0.08536483 0.19680868 -0.5058343 0.0956808 -0.02581263 0.36771125 -0.3930134 0.20440474 -0.1885986 0.29410344 0.34303895 -0.18963836 -0.44281352 -0.10720058 0.65857244 0.28614536 -0.5074359 -0.021619024 0.13599662 0.48730057 0.16263536 0.2527063 -0.04412534 -0.14844294 0.2355695 -0.28900614 -0.1951734 0.081760176 0.3965088 -0.3181384 0.12939844 0.43722728 0.24477252 -0.29009992 0.03863596 -0.0754917 -0.032748923 -0.26977488 0.11770134 -0.23592895 0.497161 0.5920709 0.39844534 -0.84021366 0.14340945 -0.49828905 -0.15951487 0.52742624 0.43236795 -0.21215943 -0.60649055 0.41143766 0.34992522 0.5190045 0.27560946 -0.20862067 -0.18739235 -0.39094615 -0.5326881 0.22315791 0.39669618 -0.67465436 -0.166911 -0.38493684 0.70590156 -0.42558 -0.82762873 -0.3740074 0.5333129 0.24604566 -0.4416779 -0.32563534 -0.31937674 -0.34361917 -0.17406392 0.08268609 -0.06884355 -0.35272205 0.031904254 0.3271086 0.058354806 -0.57711065 0.41226432 0.31107813 -0.6037191 0.02415883 -0.04845652 -0.07951538 0.43177933 0.36173168 0.5138984 0.22403571 -0.48052275 -0.5521546 0.10676699 0.27007964 -0.23415929
1893 0.5623166 0.028843286 -0.9108861 0.2997989 0.6182647 -0.0052174903 0.40072045 -0.392266 -0.18526453 0.9539971 -0.6135466 0.12425756 0.48622906 0.119985186 0.15387638 0.16571532 -0.44515678 -0.39732176 0.013197459 -0.22028409 0.48746645 0.2788106 0.26695672 -0.28252566 0.3575769 0.31052157 -0.019436184 0.26960263 0.0756923 0.5327558 -0.19826473 -0.08486007 -0.084333465 -0.6110949 -0.026595406 -1.0185958 0.2752076 0.62025505 0.08478145 0.012281934 0.34680027 -0.33580345 -0.61665124 -0.12535673 -0.072517104 -0.30541202 -0.16469324 -0.38453612 -0.13771123 0.90192264 -0.4689155 0.09504402 -0.22166936 -0.2334612 -0.008914416 -0.116727084 -0.16879079 0.6412014 0.35410616 -0.52872777 0.13809861 -0.17548905 -0.19894697 -0.37417504 -0.18109176 0.26135775 0.88573146 -0.4961047 -0.20807616 -0.7226012 -0.060959283 0.17769599 0.38126543 0.25191864 -0.03171616 -0.56498015 -0.35600188 0.14433141 -0.41829222 -0.2382607 0.096002005 -0.17254029 -0.33676648 0.15339014 0.5732743 -0.93703264 0.023325814 -0.3396566 0.00551416 -0.26161504 -0.4819874 -0.4002076 -0.60858065 0.1996125 -0.67833126 0.32857183 -0.5332114 -0.49036273 0.041196294 -0.1161762 0.20304745 0.41971228 -0.23181246 -0.12046925 -0.17080225 -0.06904191 0.4639286 -0.13631043 0.09874637 -0.048392273 0.23419084 0.015537766 -0.5679607 0.7798025 -0.2906981 0.046229765 -0.31777874 -0.45537415 0.018805332 -0.10094255 0.41492054 0.77882755 0.0670771 -0.5330405 0.1380412 0.5351191 0.31357813 -0.41288373
1972 0.3873443 0.3338671 -0.6526619 0.20252965 -0.1840111 -0.6143829 0.20170228 -0.024668127 0.14179718 0.4566514 0.17360732 -0.49793375 -0.009927223 0.040492922 0.1775985 -0.48938242 0.5687336 -0.21988651 0.32518736 -0.27097747 0.23234536 -0.2601711 0.13341479 -0.03444863 0.04929991 0.2054718 0.5509157 -0.017979668 0.0741572 -0.07793297 -0.35170913 0.51099336 0.107161514 -0.26480857 0.41986138 -0.08866519 0.0088196825 -0.13246337 0.07268606 -0.5118466 -0.17163919 -0.21347374 -0.38091758 -0.24613601 0.3422223 -0.069801055 0.112259306 0.08985615 0.21542268 -0.06697542 -0.32910463 0.12647977 -0.14084873 -0.36183497 -0.25071058 0.285848 -0.2650224 0.08007111 -0.15453215 -0.3495496 0.18239129 -0.3688958 -0.19683652 -0.07735519 -0.61977136 0.07185442 -0.3841052 0.10590423 -0.32790145 -0.34565645 -0.56222975 -0.039505873 0.22128044 0.45950383 -0.15572396 0.11248388 0.21234328 -0.35239097 0.3098779 -0.28794017 -0.31025296 0.43858862 -0.21429329 0.5714004 -0.09772689 0.24800704 -0.53527623 0.54472345 -0.32590586 -0.342974 0.26838955 0.08633149 -0.42458495 0.23152621 0.2217446 -0.043884076 0.35866275 -0.58641 0.42746982 -0.2600187 -0.43000656 0.023113133 -0.39689204 0.06945423 -0.0030248 -0.68184125 0.080675945 -0.64393616 0.7807649 -0.12298468 0.16918454 -0.20076779 0.08190998 0.4010753 -0.10178787 -0.3144749 0.16069813 -0.2179898 0.24848585 0.045591682 0.37543294 0.48208618 0.16350552 -0.59076536 -0.11969553 0.534336 0.9134269 -0.66833353
1928 -0.7192091 -0.24601655 -0.45542693 0.42819276 0.554494 0.42476448 0.19264637 -0.8518345 -0.27286547 0.60964036 -0.2289824 0.26040676 0.17753905 -0.11840891 -0.256458 -0.63339245 0.3288632 0.8279718 -0.061419003 0.059518445 -0.13004908 -0.0642074 -0.5678417 -0.13988265 -0.43409067 0.021353362 -0.071429655 0.12589611 0.20870355 0.6725397 -0.2806346 0.021957489 0.0483031 -0.6977132 0.26840284 -0.6945826 -0.273556 0.048521064 0.2694212 0.25479248 0.008469958 -0.34848782 0.16446511 -0.17408939 0.28324592 -0.17948717 0.095306195 -0.9748176 -0.5579826 0.6121011 0.6532996 -0.7428234 -0.4284378 0.47280917 0.15427446 0.008123708 -0.20970368 0.22999828 0.5250918 -0.30001682 0.26623815 -0.6306807 -0.33243763 -0.17777562 -0.9347005 0.20263267 0.041834045 -0.52899325 -0.25731725 -0.30086136 -0.31565565 -0.62895626 -0.32707846 0.01632045 0.21119757 0.0035293975 -0.057590526 -0.6285907 0.6148381 -0.15382643 -0.11807835 0.07176 -0.87514925 0.082749106 -0.44435465 -0.3999784 -0.36472178 0.23003562 -0.13858144 -0.2415338 -0.16202429 0.31155145 0.6642255 -0.10840407 -0.090794034 0.008032902 0.65855736 -0.077146135 0.1856341 -0.14991169 -0.11083049 0.2916245 -0.33466414 -0.13156839 -0.3456438 -0.34669188 -0.5480498 -0.034544688 -0.12242788 -0.33035612 -0.12719531 0.16901676 0.25136754 -0.30545396 -0.52400595 -0.24510528 0.10595159 0.036892526 0.46049577 0.021577932 0.36853802 0.12158425 -0.3133827 0.18677239 0.01599228 0.29662606 0.043129567 0.079857096
1951 0.44008687 -0.28293368 0.12725309 -0.21430805 0.62071526 -0.14151469 0.22616036 0.2748221 0.3553618 0.13281271 -0.31302303 -0.34398478 -0.07616384 -0.07561507 0.3121921 0.106216244 -0.19726233 0.31586835 -0.16453177 -0.35921964 -0.24106939 0.25568193 -0.08672256 -0.0683483 -0.0539129 0.3632748 0.37854767 -0.3023883 0.0480938 -0.41088197 0.5616172 0.42306104 0.49256822 0.028120732 -0.55252784 -0.12926728 -0.7205846 -0.20243166 0.14628327 -0.3046684 0.14869285 -0.1858452 -0.18330188 -0.34980586 0.310751 -0.20264764 -0.7825338 -0.15469873 0.30388135 0.06636261 -0.07518769 -0.1138525 -0.15733768 -0.35860297 0.19111247 0.52746964 0.2017198 0.61104304 0.22305413 0.6437501 0.09097079 0.19985509 -0.39509228 -0.23253353 0.16522278 0.26549757 -0.3328748 -0.3106432 -0.60140383 -0.5518671 -0.28046235 -0.108027354 0.37788212 0.07499421 -0.34008145 -0.034469996 0.10915167 -0.37557837 -0.10993191 -0.18857062 -0.26585945 0.132377 -0.23532932 0.22946253 1.2918783 0.14712738 0.26616466 -0.17488068 0.13851681 0.85470843 -0.08312466 0.050108347 -0.21315129 -0.051287256 0.09986837 -0.6183429 -0.3840421 -0.4728479 0.022121191 0.2608331 -0.009353574 -0.3329031 -0.55280733 0.18575664 0.41352504 -0.24877763 -0.21784954 -0.49003386 0.12527913 -0.7528023 -0.64197916 -0.095472366 -0.29978007 -0.18992653 0.11632584 -0.301259 -0.051766217 -0.22287375 0.40714797 0.04274604 -0.14618625 0.14765969 -0.68213063 -0.016455092 -0.1657356 0.7295036 0.0462986 0.23732829
1920 -0.15310487 -0.43871254 -0.19095907 -0.84580874 0.3986383 -0.6714484 0.16057874 0.019233525 -0.49937475 -0.5558353 -0.13949189 -0.13427508 0.2533945 -0.28204226 -0.18121126 -0.53428096 -0.2822112 0.25622183 -0.28274813 -0.21430005 0.63692755 0.08209857 -0.1237934 -0.55527896 0.47215798 -0.06689298 0.19424151 -0.3119446 -0.23088959 -0.017895265 -0.1322383 -0.026770879 -0.052223075 -1.0341669 0.18944241 -0.47770107 0.6419727 -0.57917976 0.7642122 0.120624155 0.8051948 -0.69759434 -0.34845853 0.3829175 -0.1306436 -0.28591198 -0.122848675 -0.5235471 -0.016436506 0.12653922 -0.2621212 0.2967244 -0.1480915 0.19348535 -0.27239594 -0.7138449 -0.032901432 0.39660966 0.21767016 0.2302735 0.3955367 -0.6022793 0.059887134 -0.63923395 0.41075617 0.22876105 0.012223906 -0.5426213 -0.6963095 0.026478173 -0.30156448 -0.36949226 0.01819637 0.24851511 -0.24157004 0.3315233 -0.38720343 -0.39872497 -0.06489958 -0.038056962 -0.18264034 -0.048474543 0.21211791 0.053625666 0.5616786 0.02466577 0.02902476 -0.24825066 0.021185592 0.16585022 0.261662 0.111317106 0.35703862 -0.4394769 0.55986404 -0.24310726 -0.06881862 -0.55491585 0.4635398 0.24829008 0.5404628 -0.0031843763 -0.11645478 0.10621538 -0.25215337 0.1218296 -0.27956098 -0.09733144 0.009989277 0.17506994 0.13511206 0.080130726 -0.4461226 0.25737438 -0.06537028 -0.35455367 -0.6810322 0.42991352 -0.6025763 0.15804666 -0.4019896 -0.00752049 0.09893301 0.5771733 0.1064221 0.34101966 0.27040434 -0.23781139
1929 -0.6380799 -0.27007493 -0.14081484 -0.18882887 0.024181705 -0.49735117 0.24005924 0.057675455 0.22539891 0.18228956 -0.18347976 -0.21070662 -0.112220876 -0.97444725 0.46706286 -0.69429183 0.17467181 0.48759672 -0.04397407 0.17830479 0.14147423 0.17201568 0.5062833 0.07528062 -0.59207046 0.5059011 -0.2055535 -0.166259 -0.14164898 -0.08641141 -0.16867286 0.3245189 -0.011421669 -0.3724284 -0.13620459 -0.5431891 -0.2616842 -0.17244567 -0.021464432 0.20651609 -0.20809807 0.06605014 0.18990876 -0.116339125 0.29438764 0.16732794 0.19860749 -0.27222145 0.40513575 0.091690056 0.16419673 -0.30200517 -0.7117498 -0.4181777 -0.12955762 0.13693838 -0.3575339 0.005234632 0.60999477 0.2998384 0.2576698 -0.36369386 -0.104224294 0.4640874 0.20489188 0.04170059 -0.16642532 0.26225424 -0.6020333 0.11016586 0.5286216 -0.37801415 0.000732877 -0.5199805 0.0073582265 0.4310736 -0.32642183 -0.14285167 -0.17411049 0.6055005 -0.17361756 -0.17612055 -0.45253944 -0.05760008 0.67197007 0.037384048 0.01668097 -0.3727071 0.13401791 -0.20138058 0.013856609 0.262432 0.18647808 0.26518077 -0.36202252 0.6326488 -0.060934935 -0.16313437 -0.81327796 -0.07210614 -0.32219493 -0.21810089 0.46423617 0.25742742 -0.5238002 0.025333168 0.09368013 -0.16711374 0.3965603 -0.104191445 -0.43786535 0.35466015 0.020732347 -0.57056105 0.6400531 -0.6777479 -0.059041783 -0.07693363 -0.12167645 0.2159367 0.06504516 0.5821126 0.39313474 -0.37660772 -0.349046 0.7019796 0.058753934 -0.044514712
1971 -0.23635353 -0.1912776 0.16512418 -0.44518545 -0.084479384 -0.23884785 -0.024563035 -0.15763701 0.3346192 0.44791657 -0.27248868 -0.34957352 0.44651967 0.044428285 0.14685376 -0.94745255 -0.41217628 0.086853206 -0.5674739 0.21917322 -0.28571728 -0.49580505 0.24539961 -0.19374223 -0.21307029 0.13032645 0.22829491 -0.38679382 0.11065423 0.29627332 -0.18625171 -0.028675262 -0.04427661 0.20117937 0.32130313 -0.23449625 -0.51276517 0.109271646 0.38406795 0.44469923 0.2414326 0.08841595 -0.45943886 0.11302511 0.68543357 -0.42982888 -0.35627693 -0.06496811 -0.7254932 0.71934223 -0.17320049 -0.47371814 0.12963231 -0.042238273 -0.47023925 0.1158553 0.29509577 0.24293923 -0.027532184 -0.3724138 -0.24321833 -0.006107941 0.13413522 -0.49133795 -0.22185309 -0.5351991 -0.27769002 -0.20561048 -0.81893885 0.39688113 -0.49558133 -0.43896508 0.100244425 0.14917754 -0.01554599 0.004815 -0.645988 -0.32626918 -0.48553196 -0.120972276 0.25444913 -0.2896241 0.2814589 0.069944955 0.4427589 -0.06959979 0.086940154 -0.5684243 -0.1282464 -0.6820303 -0.788505 0.053640883 0.17306428 0.22201008 -0.48387298 0.27167267 -0.096560314 0.13612927 -0.08827996 -0.07720068 0.10843677 0.057723824 0.031942178 -0.41109902 -0.112849034 -0.27980658 0.020712148 0.2844464 0.20974271 -0.24565941 -0.113984995 0.0882906 -0.65307933 0.7470053 0.20768829 -0.4662668 -0.09897764 -0.34033316 -0.08047203 -0.42574617 -0.28905064 0.21240692 -0.004923527 -0.047882047 0.08860754 0.1585183 0.59338206 -0.5192998
1985 0.2102589 -0.48186675 0.24436432 0.012740861 0.57972616 -0.36419317 0.36721367 0.4826997 0.52677655 -0.58852637 -0.5868868 0.28196853 0.09875506 0.3511995 0.4621531 -0.62432325 -0.18767092 0.33084744 -0.34831625 -0.16068567 0.559899 -0.14218636 0.47184917 -0.3060942 -0.42462853 -0.6480931 0.00655373 -0.017388852 -0.15049034 -0.19649643 0.21778522 0.1626357 -0.19914055 -0.6917499 0.555912 -0.080348335 0.009798431 0.2649109 0.09261618 -0.16125566 0.25944522 0.115954325 0.12761931 -0.34617117 0.2847558 -0.4214936 -0.37991095 0.012123071 0.5267345 0.064087376 -0.30177096 0.20877211 0.1369723 0.0044462 0.2219869 -0.72024757 -0.12503713 0.23142649 0.21638891 0.017688835 -0.20961724 0.101199314 0.38268456 -0.4848084 -0.480491 0.12396397 0.4103441 0.2446997 -0.7612651 -0.111250624 -0.5436782 -0.4274246 -0.023188714 0.6230485 0.016069688 -0.35481042 0.4016145 -0.51707274 0.16297269 0.0442336 -0.060554575 -0.09123707 0.21735834 -0.65274894 0.090526335 -0.107321836 0.21876913 -0.31126502 -0.3289672 0.2689607 0.17146276 -0.4036455 0.0932585 -0.44173735 -0.15148836 0.16279241 -0.12700711 -0.21358591 0.23113161 0.062911324 -0.4983983 -0.1350575 -0.5190797 0.402896 -0.45286185 -0.051745545 0.1667576 -0.13041471 -0.049907476 -0.29016128 0.685711 0.04131694 -0.5933391 -0.07085623 0.29700094 0.08405916 0.1846616 0.13332821 0.55847955 0.26506114 0.04741948 0.7600624 0.38363293 -0.26047638 0.022084316 0.26686305 0.011333644 0.7963401
1923 0.39486343 -0.36604172 -0.49054605 -0.22857013 0.1545386 -1.0188113 0.35895887 -0.5735364 0.05166048 0.5331729 -0.06490047 -0.13220698 0.066796325 -0.41916907 -0.048448227 0.048922617 -0.018858863 0.5929633 -0.12723802 -0.038364794 1.0107887 -0.26046473 0.06352885 0.27960914 -0.25244838 0.32173505 0.8214305 0.037402194 0.05868385 0.00034076383 -0.37608066 0.4590092 0.076805584 -0.17672694 0.13182916 0.38705823 0.1298543 -0.3711578 0.149668 -0.28553024 -0.53218156 -0.008953705 0.14913371 -0.30746534 0.4581809 0.38251132 0.008926538 -0.09402819 0.12744583 -0.21739724 0.28002918 0.103815384 0.24168083 -0.5992126 -0.007603603 0.28892288 0.025453543 0.047570884 -0.007073604 0.06208581 0.043838363 -0.18024462 -0.11690867 0.04294429 -0.25038263 -0.26990613 0.36679727 0.35561353 -0.17646998 0.121316954 -0.1560753 -0.28314504 0.21118869 0.5908689 -0.2711937 0.22247301 0.4436904 0.065237984 0.35632673 0.13863447 -0.35705724 -0.41932392 0.046264187 0.37608057 0.19206263 0.3133347 -0.7233592 0.3726637 -0.94902503 -0.38751033 0.25064564 -0.16913502 -0.6692546 0.26243693 -0.02826982 0.8523829 -0.40069693 -1.1400497 -0.040434245 -0.50494486 -0.4505869 -0.017973986 -0.19779858 0.019585349 -0.54554504 -0.32135147 0.21247528 -0.4288224 0.3278682 -0.2954446 0.37274128 -0.2412155 -0.1645079 0.20894788 0.45266122 -0.2490413 0.27830777 0.392575 0.06438463 -0.05433182 0.18416373 0.35446852 0.5801886 -0.4064782 -0.38693744 0.4252528 0.57356673 -0.52010834
1907 -0.5570967 0.37027183 0.15504894 -0.044683207 0.13661164 -0.14423686 0.21391931 0.24723057 -0.06723221 0.7834255 0.11773567 -0.44478345 0.20173755 0.898931 -0.30706176 -0.49033964 -0.17858523 0.49854136 0.15926304 -0.40665954 -0.037022065 -0.008290771 0.32173985 -0.49315792 0.25856438 0.29023913 0.59763956 0.2973348 -0.068273224 -0.08811776 0.05567487 0.3364344 0.07620482 -0.37308076 0.059110645 -0.5323933 -0.4414471 -0.29683912 0.185092 -0.09244808 0.01688292 -0.44299453 -0.03718242 0.07870443 0.020074507 -0.16077943 -0.090571746 -0.3539918 0.13886899 0.027643343 -0.19820106 0.2392433 -0.96182 -0.013745975 -0.05933937 0.56412363 -0.37200925 0.4183327 -0.10658355 0.38166422 -0.46147949 -0.20450416 -0.23251604 -0.5405954 -0.004703189 0.4823127 0.05648964 0.55275846 -0.6122677 -0.5674593 0.13305287 -0.35063562 -0.16777484 0.40222386 0.1152177 -0.061207578 -0.0056254175 -0.34628904 -0.059179716 0.23779905 -0.32332352 -0.2135605 -0.3069118 -0.15749994 0.31144747 -0.014457667 -0.026793081 0.032668255 -0.32723093 0.82325256 0.053696405 -0.5569947 -0.0074430164 0.478479 -0.06969873 -0.31843987 -0.6804465 -0.40618968 -0.45209166 -0.1126434 -0.16170412 -0.08154167 -0.6621546 -0.17102551 0.17732127 -0.34617582 0.117935896 0.31836188 0.2590208 0.15144727 -0.62314767 0.56309485 -0.22132434 -0.44483548 -0.10415449 -0.27382788 0.01698125 0.16763069 0.1359334 -0.2024079 0.15876824 0.22280896 0.26305807 -0.2157563 -0.6443361 0.36160186 -0.45247677 -0.09736059
1772 -0.6709031 -0.22980037 -0.44557375 -0.39268672 0.19030108 -0.5985922 0.3358047 -0.36943367 0.6095365 -0.07150189 0.11989619 -0.014959901 -0.2706756 -0.59217256 -0.084074505 -1.0152957 0.56364095 0.3697077 -0.27948877 -0.103148796 0.05306919 -0.3968206 0.08334003 -0.45416313 -0.2915298 0.4432105 -0.16754985 0.28379607 0.13315724 -0.2441397 -0.29974243 0.37261295 0.4468537 -0.018700767 0.27687827 -0.6522518 -0.4284578 -0.30598933 -0.01928737 0.34840116 -0.22046354 -0.6464803 -0.26333544 -0.21064505 0.34850094 0.10172807 -0.042913098 0.117675334 0.2854804 0.74738336 0.34582087 -0.20861982 -0.035026103 -0.30802366 -0.19595636 0.090258904 -0.33607253 0.16552211 0.5836017 0.47444665 0.1875134 -0.1235854 -0.22121008 0.329277 0.24004562 0.31392214 0.14867568 -0.30713835 0.019779684 0.17196569 0.03320965 -0.10386309 -0.33675215 -0.33680382 0.044675026 -0.051742923 -0.010526893 -0.36538386 0.09177691 0.2750379 -0.40163907 0.4198783 -0.42434278 0.03791696 0.7202354 0.4930261 0.2735126 -0.3309213 0.29556897 0.11986292 0.5375902 0.5598898 0.13911788 0.5605727 -0.5992985 0.109354556 0.14648882 -0.23300344 -0.034790885 0.42311692 -0.3471282 -0.7198392 0.23124856 -0.40030792 0.08702742 -0.23892441 0.19947372 0.16247678 0.610361 -0.3749817 0.085364655 0.1286114 0.15225308 -0.25093603 0.11823713 -0.6567614 -0.42791024 -0.09985309 0.03163727 0.16051072 0.6227726 0.19718389 0.12637232 0.38317516 -0.31927937 -0.15157412 0.041100282 0.5655871
1945 -0.27769467 0.0925302 -0.24727654 0.5810161 0.32710445 -0.3177353 -0.14528218 -0.17121471 0.26266778 -0.15103239 -0.4831568 -0.4903177 -0.027062325 -0.4183403 -0.008859551 -0.33832183 0.17727567 0.39163256 -0.07621404 -0.26787007 0.1984191 -0.4568097 0.11935061 -0.37413836 0.1923947 0.025721882 0.025997592 0.6016779 0.2456195 0.16809446 0.48811534 0.76917696 -0.25947288 -0.13095713 0.446347 -0.3382362 -0.5117109 -0.224332 -0.033501536 -0.2790272 -0.10781049 0.16719174 0.44358215 0.79823226 0.29992476 -0.44412476 -0.107658945 -0.04132456 0.7248426 -0.30545035 0.1946313 -0.086653806 -0.4247227 0.002401006 -0.1936722 0.3575428 -0.62613785 0.42849484 0.014207666 0.1465814 -0.30120757 -0.16939549 -0.15779223 0.026667524 -0.023695748 0.531327 0.24544924 0.143279 -0.9908495 -0.3422289 0.038754348 -0.10030343 0.44920868 0.035822358 0.1381554 0.45408648 -0.4916575 0.1462757 0.468904 0.22628094 -0.22386934 -0.5620874 -0.0028397546 0.37838364 0.6042207 -0.10335369 0.5140713 -0.06570134 0.14607821 0.3857903 -0.31377548 -0.25738046 -0.051944677 0.3973299 0.05344018 0.597381 0.25116155 -0.20210597 0.6683365 -0.06530067 0.40176758 -0.0437699 -0.23854254 0.34459126 0.060896285 0.7453859 0.092477255 0.02791824 0.10415154 -1.1359568 -0.040284444 -0.44550574 -0.43189356 0.15343666 0.21026403 -0.013571334 0.11449485 -0.21403636 -0.23187345 0.009506956 -0.16188201 -0.012942535 0.22285487 -0.22451338 -0.20075719 0.102953166 -0.012799134 -0.07133771
1922 -0.24761899 -0.4240025 -0.6094995 0.1254196 0.14110766 -0.33389404 0.2460628 -0.485982 -0.6815115 0.3205218 0.22551963 0.5957205 -0.32230303 -0.04705796 0.52684736 -0.43347687 -0.257611 -0.23783259 0.32748803 0.09467722 0.24948469 0.03873074 -0.0866632 -0.062105864 0.15747294 -0.5974309 0.12000193 -0.13964589 0.10758829 -0.35948953 0.5891024 0.2702543 -0.033267505 -0.0018040687 0.39736181 -0.8151132 -0.1308454 -0.67239064 0.71658593 -0.19417857 -0.21524087 0.15242772 -0.22081527 0.39898032 0.60464513 -0.25840712 -0.4197574 -0.19701795 0.001999523 -0.19713064 -0.25406152 -0.5409204 0.066503346 0.277802 0.20162891 0.2626979 -0.49311125 0.6865995 -0.38002142 0.35365114 0.37861145 0.05501252 0.48506123 0.32957545 0.23766474 0.0190336 -0.098562226 0.08903597 -0.38905603 -0.3099104 -0.3417129 0.6184576 -0.5431148 -0.08684896 -0.20283745 -0.031592306 0.63798136 -0.04057043 -0.10816717 0.15333837 -0.19125389 -0.11281441 -0.5489735 0.26850724 0.4301254 0.04141947 0.26351696 0.41700625 -0.42305437 -0.15340735 -0.057281315 -0.40254965 -0.022876188 0.10563957 -0.6592986 0.14747594 -0.14419012 -0.4944729 -0.073080264 -0.14500222 -0.30948034 0.26108718 -0.34781814 0.02847717 -0.1552975 -0.2376609 -0.46539852 0.2710828 0.08859371 -0.30472454 -0.5058647 0.30762377 0.0979108 -0.103547364 0.11289393 0.0023848622 -0.05731532 0.65208334 0.30618694 0.64688706 0.55879635 -0.20384069 0.20685066 -0.09746897 0.28746864 0.35638902 0.6816076 -0.12507774
1939 -0.4774864 -0.5640776 0.13855742 0.14351602 0.5406417 0.19617224 0.525329 -0.46419963 0.83795524 0.047263492 -0.003131092 -0.677683 -0.11922485 -0.14102477 0.093607545 -0.5100349 -0.12778589 0.14648955 -0.5823341 0.05865916 -0.18741438 -0.3584266 0.24088953 -0.43365717 0.20852913 -0.8027579 -0.22888601 0.21881735 -0.06986425 -0.12650853 0.51121 0.006762237 -0.31518632 -0.1427078 0.41189048 -0.061514243 -0.2736231 -0.15498114 0.38987893 -0.6463419 -0.025321756 0.4814343 -0.15026413 0.34922907 -0.0021759982 -0.20196396 -0.2730526 -0.22744569 0.4430189 0.5492532 0.06100476 0.2985944 0.07392691 0.3732678 0.29424575 -0.08887982 0.058060195 -0.3263668 0.26588786 -0.30533618 0.76264495 -0.33626348 0.17942336 -0.11565784 -0.3238765 0.6911773 0.2538266 -0.054136224 0.14762057 -0.41828918 0.033531584 -0.43118304 -0.36822018 0.20798299 -0.5267039 -0.081038825 0.22717623 0.11662483 0.105710745 0.3737739 -0.1701725 -0.3740793 -0.10058104 -0.03859957 0.7055784 -0.12790883 0.20987473 -0.1609945 -0.15873061 -0.25513086 0.26261023 0.13752952 0.09521055 0.057074122 -0.14228903 -0.17461096 -0.06553953 -0.5307737 0.17036778 0.5775347 0.29013157 0.048408486 -0.38976273 -0.79950505 0.28337094 0.43222535 0.2048999 0.0086379815 0.027232451 -0.057110123 0.45840135 0.7542024 -0.4544057 0.30271435 0.15915337 0.41294587 0.067283966 -0.0755419 0.5947511 -0.6713809 -0.4937883 0.046990488 0.1548319 -0.54415 -0.40444434 0.15344469 0.55033094 -0.15371543
1967 -0.38211882 0.093105055 0.24242184 0.5243769 -0.11902082 -0.5438409 0.1587674 0.01594961 -0.023595495 -0.19964178 0.8896658 -0.05879636 -0.031908073 0.359423 0.31291282 0.029609667 -0.49110508 -0.6270887 -0.3575369 -0.5678799 -0.16105086 0.21552075 0.2653564 -0.28487107 0.21276708 0.09267934 -0.06950681 -0.15991296 0.25936556 -0.19160718 0.22825567 -0.2641041 0.12166309 -0.54853547 0.08122175 -0.5107323 -0.42648003 0.61108625 0.21863124 0.097542465 -0.25233907 -0.384187 0.41313118 0.66177785 -0.2681774 0.20726179 0.4248998 -0.02903354 0.1416521 0.40345356 -0.016948368 0.3731109 -0.22836109 0.45381096 -0.4556558 0.12647754 -0.34315825 0.95173794 0.120475724 -0.40486676 0.2052919 -0.080973566 0.0036691048 0.002638371 -0.36650258 -0.035936575 -0.34903306 0.076061115 -0.58232784 0.10748766 -0.43941095 -0.7197064 0.21800059 0.3520542 0.055198073 -0.44340023 -0.39544815 -0.46625945 0.18564683 0.118169546 -0.6133879 -0.3365197 -0.587817 0.01829902 0.08798036 0.21882889 0.34332392 0.09131888 -0.2661325 -0.15260756 -0.37275842 -0.029651491 0.12114915 -0.2914654 -0.36836395 -0.06652549 -0.2217708 -0.43510962 -0.15562181 0.414487 0.044610657 -0.08132519 -0.6039271 0.31068686 -0.28017464 -0.33001933 -0.021495106 0.40931132 0.5476408 -0.28392595 0.17363696 0.0069073485 -0.5030186 0.2878334 -0.18527403 -0.6303469 -0.000116602125 0.29790023 0.047433555 0.2513645 0.27304062 -0.078605235 -0.14421076 -1.0261078 0.18034887 0.48616794 0.4269358 -0.6566298
1848 -0.28969604 -0.37083435 -1.0386196 -0.5038209 -0.037005983 -0.57969016 0.60072136 -0.5298649 0.6231478 -0.07292014 -0.1987202 -0.014736455 0.370701 -0.82467544 0.12471198 -0.9200581 -0.21848825 0.2833839 -0.30723166 -0.17280649 0.14292789 0.39541945 0.49517816 -0.26837656 -0.28952342 0.66254944 -0.5847469 0.35161376 -0.6071906 0.11588574 0.047591083 0.43302602 0.79786766 -0.10012025 -0.1339127 -0.49193394 -0.2708298 -0.31681257 -0.23573895 0.15611771 -0.23032933 -0.10016631 0.17218302 0.07287483 0.3039172 0.17618786 -0.11721615 -0.11721143 0.19329375 0.2745848 -0.023477888 0.10052187 -0.25534576 -0.3114584 -0.6909064 0.43985587 -0.4989876 0.47752228 0.7348902 0.010579429 0.2834308 -0.3041453 -0.07696755 0.75493914 0.7314793 -0.18154223 0.07828667 0.30759254 -0.08273704 -0.044163004 0.539019 -0.24071066 -0.37989843 -0.3582186 0.036632527 -0.5189171 0.0025756857 -0.07926425 0.068585806 0.36279842 -0.700951 -0.11427098 -0.79040676 -0.05795936 0.6428773 -0.19695055 -0.17803355 -0.24419267 0.12709637 0.1798945 -0.27709466 0.1595509 0.117251895 0.5493848 -0.37472558 0.4263494 -0.16344851 -0.043040823 -0.02295352 0.25248364 -0.6021512 -0.24323447 0.31301865 -0.033540893 -0.58981466 -0.20102295 0.10224051 -0.34537977 0.24479267 0.22751759 -0.22063214 -0.08102558 0.5221526 0.033693787 0.18637282 -0.23914565 0.016532782 -0.31589386 -0.440212 0.0733913 0.030915786 0.24461268 0.05510873 -0.094315976 -0.42562276 0.7140956 0.22120094 0.14716929
1905 -0.21196017 -0.21845865 -0.12498032 -0.05853217 0.14362486 -0.14019896 0.7074512 -0.07703416 0.77071106 0.0779423 -0.33552095 -0.59024507 -0.08549538 0.1435086 -0.09030012 -0.3271939 -0.09444287 -0.16732384 -0.03745381 0.18832564 -0.31316015 -0.32316375 0.22149391 0.039109673 0.22085558 0.050451882 -0.07314263 0.008063302 -0.41909617 -0.14602223 0.35938445 -0.02714319 -0.14703141 -0.5238897 0.3193505 -0.54516256 -0.4506683 0.23740071 0.29368645 -0.5810828 -0.095670864 -0.51668864 -0.74686736 -0.08079672 -0.51917464 -0.59302795 0.3123011 -0.53292215 0.1349327 0.09220528 0.10590294 0.057013776 -0.40913776 -0.2736112 -0.2890893 0.12694918 0.100669704 0.036830265 -0.08847607 -0.47022948 0.113840185 -0.43066946 0.086534865 0.62847996 0.07465625 0.5662359 0.12297491 -0.27799484 -0.06715483 -0.97278816 0.10916214 -0.35777208 -0.48571268 0.2914583 0.018919293 0.00883236 -0.34940413 -0.40525803 0.41046938 0.101304375 -0.52763194 -0.50600255 -0.014974353 0.15623307 0.7439262 0.24330859 0.4460962 -0.36187878 -0.1956296 0.55891865 0.49461222 -0.14274007 -0.13992293 0.40900865 0.49785262 -0.03664974 -0.09081195 -0.6241013 0.48307693 0.2313018 0.6333474 0.355958 -0.70403373 -0.840443 -0.032145657 0.112891346 0.48700163 0.25453994 -0.27019086 -0.59252536 -0.028373795 0.4468226 0.021192096 0.0030301064 -0.030797804 0.41797876 0.13358977 -0.21556893 0.2670174 -0.605088 -0.061013196 0.15100484 -0.19097279 -0.31778795 -0.25534123 0.70376843 0.33041635 -0.06478978
1942 0.051511478 -0.63395095 0.098827824 -0.1488926 0.1554219 -0.027410585 0.29702753 0.06497351 -0.08401071 0.22304288 0.12993212 -0.3922977 -0.2081974 -0.33672914 0.5206358 -0.09059064 -0.38484645 -0.02784134 0.008210238 -0.28854647 -0.007676305 -0.26848546 0.07942437 -0.28279778 0.15729906 0.35958597 0.37695646 0.069769114 0.5055499 -0.18780856 0.445499 0.35119787 0.8108026 -0.41239566 -0.004321817 -0.067264855 -0.32578304 -0.37922037 0.4567198 0.059102967 -0.22345357 -0.65142965 -0.08954636 -0.23660098 -0.106363736 0.33919612 -0.5378062 -0.38197166 0.009928767 -0.45264068 0.10573405 -0.045088563 0.11805636 -0.9598112 0.1913348 -0.15042739 0.29113746 0.8929901 0.2738169 -0.0035694465 -0.6048662 0.04277124 -0.4407712 -0.321211 0.062399086 0.64018947 -0.18103115 -0.39390513 0.053292595 -0.41343653 -0.25793687 -0.5104166 0.00392012 0.35799542 -0.73773307 -0.38809872 0.03651834 -0.6508751 -0.18968597 -0.07806441 0.10881013 -0.08458856 0.13613804 0.9575262 0.52794963 0.4786214 0.49304533 0.35300502 0.41696024 0.4564352 -0.1490085 0.2592487 -0.49449244 0.267015 -0.40026402 -0.35064942 -0.8196392 -0.9708468 -0.07879083 -0.1762697 -0.20166352 -0.31041113 -0.13613172 -0.1088858 0.091109864 -0.6788868 -0.15033948 -0.5799379 0.045464046 -0.33571115 -0.01399261 0.06145329 -0.16151106 0.02594005 0.6963499 -0.07068033 -0.3861948 0.4585794 0.32284755 -0.5439612 -0.30504572 0.08397294 -0.10046244 0.26914796 0.036042944 0.49153146 -0.14963593 0.32718018
1926 0.26673666 -0.17719787 0.13578923 0.046769377 -0.27728888 -0.06919794 -0.00928594 -0.13522114 -0.054620873 0.18950158 -0.5441802 0.17521438 0.34217867 -1.0504823 0.36949682 -0.9124413 0.38830316 0.08324142 -0.34703007 -0.4645259 -0.2524648 -0.4625944 -0.53706443 -0.18061714 0.197768 0.013813098 0.24485032 0.628453 0.46512747 -0.15359326 -0.4702767 -0.05389533 0.13275959 -0.33701417 0.11145317 -0.19507559 -0.18344706 -0.051958177 0.75924057 0.39906952 -0.10950687 0.11408463 -0.16015244 0.28213823 0.38211748 -0.27354074 -0.45097113 -0.15298231 -0.27955246 0.13338012 -0.12600045 0.19414641 -0.7784053 -0.09987121 0.01278066 -0.078753844 -0.0518229 0.24110197 -0.5218752 -0.3027614 0.49406555 0.13764174 0.014124179 -0.03223475 0.09791847 0.08880132 -0.66282797 -0.50938374 -0.08129468 -0.36420444 -0.9941937 0.13894753 -0.16213796 0.43290964 -0.5887698 0.12480224 -0.15552166 0.023535201 0.36683407 0.49511445 0.104075916 -0.588521 0.3376161 0.0033068694 0.4862384 -0.02813554 0.30845645 -0.107696995 -0.44077477 0.3782247 -0.07938057 -0.63181823 -0.34425235 -0.19027664 -0.11018821 0.39132932 0.39019957 -0.09220459 -0.35648063 0.27719274 0.16580567 -0.12290842 -0.37556118 -0.30362 0.17958377 -0.3200486 0.14632758 -0.08032726 -0.40471527 -0.3609431 0.18274146 0.5323837 -0.7050023 0.35870624 0.015020331 -0.79783165 0.108774744 0.06627095 0.09574812 0.017989922 0.27593806 0.17123002 0.19980174 0.38755143 -0.08766338 0.273407 -0.35817742 0.22617288
1996 0.048520673 -0.096861504 -0.15610848 0.039532617 -0.3642905 -0.15355971 0.00498289 0.038872745 0.12825662 0.36937916 -0.5177215 0.045591 0.00048716288 -0.43728578 0.4081369 -0.38250625 0.5023982 -0.43722314 -0.3508512 -0.42500484 -0.34528023 -0.7317841 -0.23255122 -0.41571784 0.010189007 -0.11551213 0.47044793 0.42282644 -0.30192858 0.35766274 -0.15968235 0.05115892 0.054645333 -0.11186337 0.036865618 -0.19582465 -0.56206936 0.2323548 0.44534844 0.42290604 0.13972732 -0.39150456 -0.34374058 0.31434396 0.746223 -0.14767839 -0.057510104 -0.120811455 -0.116029225 0.080119655 -0.20726253 0.2261311 -0.4412157 0.09516314 0.33004993 0.25252327 -0.2520593 0.028397514 -0.048502244 -0.0669062 0.8821524 -0.06201434 0.36367187 -0.23228288 0.56083995 -0.1556296 -0.21089229 -0.4600749 -0.2849163 0.0697397 -0.6005106 -0.3469506 -0.05251088 0.41930723 -0.3698504 0.49695668 -0.59834915 -0.35410395 0.29759562 0.51481813 0.2235725 -0.6070671 -0.12501052 0.15838748 0.4499117 0.35758048 0.44010696 -0.36862066 -0.48065194 0.5500237 -0.56086576 -0.5003554 0.14841571 0.069719605 -0.2554107 0.2099166 0.37767774 -0.10959296 -0.054754853 0.23385589 -0.1963167 -0.22942287 -0.18069676 -0.46630532 -0.0967673 -0.18628164 0.067565046 -0.2842277 -0.6608301 0.15374483 0.15341295 0.27134612 -0.5821845 0.27559203 -0.24800225 -0.5213745 0.07954247 -0.46387723 -0.20687501 0.22042915 0.43776402 0.085303664 0.43389234 0.26204494 0.029481497 0.121312074 0.03905065 0.5485543
1994 -0.032954868 -0.3834774 -0.62420356 -0.9778074 0.3796354 -0.662627 0.045002077 0.07271866 -0.10718728 0.1211731 -0.41370618 -0.06689277 -0.019500308 -0.04137423 0.29776242 -0.23571669 0.19437373 0.32830212 -0.22883429 -0.046921186 0.623706 -0.39631617 0.05946368 -0.43232498 -0.016109008 0.13870127 -0.05866666 -0.1625599 -0.07707901 0.085954115 -0.10533418 -0.0032636414 0.15458237 -0.62754977 -0.12658738 -0.33747348 -0.029743323 -0.13879862 0.20419356 0.03272714 1.0080599 -0.77682126 0.124708824 0.35837752 -0.2759089 -0.106701545 0.08469794 -0.15739283 0.37009975 -0.16360702 0.058097064 0.12410569 -0.5318449 -0.09376186 -0.25314766 -0.4343723 0.23004584 0.031238222 0.28535247 -0.36267835 0.4786172 -0.68666506 0.119775474 -0.2497352 0.2815609 0.048617467 0.18483756 0.031345785 -0.58920026 -0.024044361 -0.55489504 0.1654388 0.07488364 -0.10808578 -0.75293005 0.10195525 -0.55823064 -0.29003775 0.09365139 0.23141517 -0.23057663 0.017766295 -0.22748104 0.030123059 0.62930894 0.11593686 -0.5454669 -0.22795072 -0.2032648 0.35910314 0.3832122 0.09744579 -0.39677438 -0.048297755 0.88139784 0.1303368 0.14471631 -0.8289034 0.3842425 0.2848345 0.3428584 0.25487825 -0.20644312 -0.05920156 -0.34188846 0.1273182 -0.7759158 -0.14206824 0.17360105 0.177569 0.13046256 0.3529137 -0.26795778 0.2957402 -0.047595214 -0.5540925 -1.0206201 0.5244043 -0.40596712 0.006751065 0.20584774 0.16624045 -0.0051966766 -0.10632551 0.43896672 0.06331991 0.46221802 -0.11012941
1829 0.22942947 0.8859552 -0.15913801 -0.2846022 -0.0572106 0.19323187 0.27321798 -0.65474504 -0.6758178 0.10903113 -0.52847844 -0.71173793 -0.23626629 -0.52272946 0.26159593 -0.39399406 0.0038036953 0.39030358 -0.364183 0.4283532 0.13037165 0.19197433 -0.23459119 0.107837774 -0.068562746 0.29320607 0.049585663 -0.11963323 -0.47526744 0.2795054 -0.22418734 1.0091221 -0.44304055 -0.23856921 0.26457533 -0.4485311 0.22882256 -0.19194314 -0.088192746 -0.49146986 0.18623865 -0.029878583 -0.520223 0.12666821 0.4773751 0.0011122462 0.1675223 -0.6627787 0.23689052 0.38657376 0.29284066 -0.36812928 -0.51629597 -0.35208693 0.19704856 0.07033023 -0.51923585 0.027525371 0.30315778 -0.22621737 -0.16573708 -0.32310608 0.558639 -0.068437524 0.21779072 -0.2581973 0.13700311 0.17719029 -0.638132 -0.2738689 -0.46599552 -0.7772505 0.11908717 0.07600548 -0.3925989 -0.36752534 0.2189893 -0.5307772 0.32697216 -0.10635863 -0.07466542 -0.41352123 -0.6156461 0.062837444 0.23540032 0.0018551081 0.70437765 0.19362913 -0.17289984 -0.05058046 -0.080314025 0.14762828 -0.532203 -0.48841408 -0.32242945 0.17601629 0.107898474 0.27795744 0.2683315 0.91262555 -0.46822324 -0.045340907 -0.6794474 0.102078736 0.34311903 -0.31751508 0.002452946 -0.073549666 0.24385977 -0.13838062 0.10228366 -0.6328964 -0.29771158 -0.26601812 0.22853994 0.20442678 0.38647163 -0.14999996 0.19759473 -0.026186315 0.24027817 0.018683905 -0.22370656 -0.22190373 0.17123003 -0.37738425 -0.12479686 -0.44570765
1792 -0.03418746 -0.03611917 -1.2945954 0.1989141 0.9469515 -0.30166054 0.51928574 -0.2606282 -0.22671363 0.8675596 -0.5703849 0.23595643 0.50879157 -0.26095548 -0.17488788 -0.14035277 -0.3379665 -0.13017735 0.05904832 0.03306366 0.6136691 0.18248576 -0.18136758 -0.7505483 0.55559707 0.0330854 0.014462144 0.39950264 0.62804276 0.63510627 -0.1317596 0.12237927 0.03724419 -0.22322091 0.4927831 -0.8353999 0.5693329 -0.020931784 0.16210833 0.18303633 -0.031932205 0.046801567 -0.29212052 0.037712153 0.20298374 -0.6499834 -0.3285453 -0.34216377 0.22864746 0.6051029 -0.7255334 0.12412854 -0.18865016 0.05514909 0.13026719 0.041262146 -0.08852495 -0.060583074 0.21229452 0.017334133 -0.070703484 -0.109514356 -0.08973982 -0.3048391 -0.03911225 0.38837156 0.8984991 -0.6260548 -0.035018757 -0.22072065 -0.023430308 0.3905498 0.32805693 -0.047364745 0.06347119 -0.510749 -0.3647298 -0.29287675 -0.04610589 -0.37300944 0.3031092 -0.010946905 0.1711943 0.024889821 0.25415146 -0.5283298 0.37663943 -0.41646028 0.6240041 -0.18003766 -0.14177261 -0.27545536 -0.3921009 0.16685347 -0.32841328 -0.012518222 -0.8546984 -0.3984602 -0.04709893 -0.019591406 -0.01606983 0.11652167 -0.30202982 -0.0706129 -0.001612147 -0.112202615 0.3723807 -0.1284401 0.18400215 -0.028469708 -0.28310412 0.24133153 -0.5390812 0.6574872 -0.63601553 0.33897293 0.32127753 -0.6427174 -0.22837707 0.015847428 0.076352336 0.6090896 0.04257441 -0.5642856 0.5929377 0.45035487 0.1589004 -0.8436733
1906 -0.119827 0.5649349 -0.08525444 -0.25823754 0.2954261 0.044540793 0.7059025 -0.2973258 -0.18939693 -0.09998903 -0.08778382 -0.6324882 -0.005471809 -0.5970667 -0.39915532 -0.36254856 -0.14276227 0.3648025 -0.25251442 0.3121235 0.21845436 -0.19559117 -0.14739831 -0.077448845 -0.13815749 -0.32180047 0.003566391 0.018566037 -0.36360282 0.6259415 -0.2704596 0.46769667 -0.47637197 -0.5285177 0.421779 -0.25337216 0.6324406 0.028153935 -0.24728835 0.29814136 0.43038788 -0.1274182 0.21382165 -0.23433533 0.47694775 -0.055887498 -0.39890838 -0.71523166 0.007224472 0.44193304 0.42681074 -0.15185936 -0.32940507 0.21299058 0.56159204 0.15640199 -0.19010815 -0.33638427 0.4652812 -0.19980575 -0.055855155 0.5662559 1.032591 -0.09367727 -0.2778385 -0.79555243 0.120161824 -0.22902773 -0.4863097 -0.059344858 -0.27338594 -0.46453577 0.34834933 0.27170977 -0.7452218 -0.50799966 0.5954817 -0.4407601 0.025075516 0.16547915 -0.45339125 -0.26674837 0.041454006 0.46688867 0.21439815 -0.02111255 0.6470297 0.30087176 0.006219942 0.28975114 -0.559433 0.003945002 -0.37426314 0.020613909 -0.3352214 0.2174425 -0.3940681 -0.12712604 -0.072341226 0.5351063 -0.5920096 0.018040981 -1.1771864 -0.22501221 0.22202475 -0.4158776 -0.3142862 -0.14231393 0.016226344 0.08292161 -0.104075655 -0.3980534 0.05450911 -0.20969157 0.12091767 0.5120594 -0.08564661 -0.3699786 -0.46796295 -0.22635312 0.39976427 -0.41499883 -0.15935998 -0.24875353 -0.042427104 0.11614966 -0.033048797 -0.4625312
1932 -0.22280987 -0.6889541 -0.21031752 0.13890909 0.43071952 -0.24921364 0.45327836 -0.21906464 0.06037378 -0.012792996 -0.24378313 0.29769403 -0.21796788 0.0012723313 0.25669613 -0.35969767 -0.11411978 -0.44285932 -0.647737 0.11992527 -0.4985447 0.07736179 -0.11012317 -0.14047071 -0.2165984 0.25621146 0.2841147 -0.12157179 -0.34925476 0.044585276 -0.13291919 0.16219565 -0.8377897 -0.26923576 -0.32402757 0.4451396 -0.09832996 0.047923606 -0.1826811 0.14773335 -0.61923325 -0.45080566 -0.6644086 0.4466994 -0.5179048 -0.54386586 -0.113792315 -0.0123981 0.18244138 -0.35751235 0.25560805 0.47522867 -0.06133654 -0.2093581 0.11283902 -1.0072589 -0.29006916 0.596614 -0.21336444 -0.28693402 0.1507356 -0.06465462 -0.4071934 0.35426483 -0.1489207 -0.05567034 0.66876113 -0.7756907 -0.5399272 -0.38363734 -0.22023459 -0.8960971 0.20615028 1.1184713 -0.29934454 -0.42300436 0.10370301 -0.56114966 0.037689034 0.25073773 0.20792918 0.34628534 -0.038392052 -0.29745156 -0.00010642753 -0.40507317 0.37543187 -0.16821204 -0.012439211 0.011039551 -0.21093476 -0.2666726 0.17929222 0.019551856 -0.45929217 0.15867953 -0.03350097 -0.35938668 -0.23422517 -0.07682231 0.18025024 -0.10949607 -0.09450533 -0.33907482 -0.09485726 -0.62990886 -0.07512725 -0.31396797 0.5141067 0.14672658 -0.1605394 0.045718584 -0.065395996 0.057696734 -0.07797794 -0.4668147 0.49707183 0.4061206 -0.21386768 0.095734924 -0.05571595 0.88860047 -0.39601284 0.05739384 -0.012661955 0.45329627 -0.12839513 -0.3503447
1813 -0.27767825 0.09363152 -0.1952416 -0.35687155 0.14404704 -0.5201574 0.06716032 -0.40009394 0.19021095 0.3095883 0.016252527 0.66339207 0.45003745 -0.37271821 0.3687226 -0.30797255 -0.34905156 -0.12524712 -0.05700148 -0.1348716 -0.80388725 -0.011610161 0.2639858 -0.56466615 -0.3049098 -0.35871983 -0.58709526 0.861093 0.0020352572 0.61745185 0.5681604 0.3988571 -0.22042432 -0.39171723 0.24574071 0.25851384 -0.59485465 -0.58675796 0.08741492 -0.2664196 0.32126758 0.09911538 0.21721496 0.18298295 0.41254568 -0.31904227 0.26078233 -0.35571575 0.61828333 0.18014011 -0.021796137 0.4036453 -0.16367152 -0.3279756 0.6649143 -0.38521942 0.10845131 -0.31816694 0.11994858 -0.20652968 0.6342532 -0.6472274 0.41311035 -0.104627304 -0.78193605 0.07914753 -0.30290926 -0.11788896 -0.37841517 0.0124392705 -0.2056228 -0.27315003 0.12364626 0.022834122 -0.14157571 -0.019166397 0.06586922 -0.5895501 0.3858893 0.73594505 0.32004368 0.2292567 -0.16848847 0.34963626 0.40706208 -0.102542706 0.16787851 0.32182008 -0.5051754 -0.4119094 0.33819994 0.27490646 -0.34097818 -0.021489276 -0.7440762 0.412107 -0.164205 -0.038680524 -0.19909343 0.1005311 -0.33490545 -0.4340157 0.052277207 -0.18401621 0.13013849 -0.1518156 -0.25262582 -0.51383567 -0.040732298 0.4317688 -0.41178665 0.12352357 -0.019842016 -0.13296421 -0.349417 -0.13543876 -0.010788412 -0.15907976 -0.012629778 0.11813866 -0.1995313 -0.14256983 -0.21941872 -0.24838379 -0.22872545 0.3679343 1.215781 -0.19639438
1979 0.021016086 -0.49390796 -0.21038781 0.14203364 0.13106012 -0.6239999 0.7669231 -0.14739008 0.5307123 -0.4883124 -0.595815 0.30906013 0.089678615 0.21339597 0.58894295 -0.3687817 0.33810437 0.28903446 -0.34309658 -0.1007397 0.40196478 0.37840754 -0.3502151 -0.71014047 0.09214347 -0.44465268 -0.081869185 0.035248164 0.17516442 0.22641227 0.037904054 0.3093482 0.33362028 -0.3413196 0.13336012 -0.649399 -0.005362388 -0.47803515 0.35795167 -0.040980812 0.3391794 -0.32851782 -0.4908028 0.37718984 0.13598661 -0.25000095 -0.27449074 -0.4112563 0.73972714 -0.085653715 -0.9683981 -0.022281202 -0.12639311 -0.13985735 0.104058675 -0.48608196 0.10305676 0.04959416 0.12716722 0.038647577 0.43805876 -0.2871447 0.04847994 -0.29442495 -0.36477548 0.4189496 0.14599195 0.73277915 0.022111058 -0.08559357 -0.003898309 -0.31002748 0.17078942 0.5417526 -0.10682418 -0.83269954 0.29975978 -0.8838542 0.045279812 0.16042821 -0.25180134 -0.03769757 -0.11175801 -0.9335453 0.14529198 0.2728344 -0.33721527 -0.22100276 0.04058028 0.16814956 0.28398606 -0.059171848 -0.14257927 -0.089209095 -0.2756177 -0.026124766 -0.107473336 -0.339745 0.41424933 0.4026813 -0.13314265 0.0408616 -0.8382582 -0.06569282 -0.5012012 0.4245615 0.16638297 0.11517779 -0.04930449 0.017886547 0.5239112 -0.17545426 -0.39193043 -0.0856512 0.37384588 -0.22781864 0.42824322 0.09695779 -0.026190521 0.28504246 0.3158687 0.3705241 0.08097599 -0.15048996 -0.29786533 0.637011 -0.1548231 0.5736248
1888 -0.16127458 -0.15877321 -0.6342561 -0.22004081 0.31643647 -0.7807792 -0.00060114515 -0.09677412 0.6192102 0.4938749 -0.20742993 -0.36667132 -0.44918805 -0.25122988 -0.110118344 -0.9202302 0.4566467 -0.24930187 0.11386327 -0.20585075 0.41517878 -0.10090276 0.5288291 -0.5165639 -0.23788565 0.078081116 -0.22190645 -0.16636367 -1.0342051 -0.0031426433 -0.2173614 0.66524106 0.3528858 -0.19526976 0.15002817 -0.12181906 -0.7383097 0.29437563 0.26110497 0.51342934 -0.014589009 -0.43085164 -0.095479876 -0.2781084 0.15371875 0.20315622 -0.6303919 0.1147965 0.31174314 -0.2960466 0.0027938036 0.18977098 -0.07686856 0.004364569 -0.42476895 0.5574479 -0.2718416 0.40751418 0.3832074 0.20436445 0.26806235 -0.356082 0.07997856 0.18405864 0.45821136 0.13111402 -0.0916582 -0.17508917 0.10852597 0.407699 -0.30587408 -0.49749872 -0.3333792 0.19707139 -0.1697079 -0.0720857 0.16191888 -0.06407481 0.39935902 0.145354 -0.17583473 -0.18824165 -0.6448579 -0.1883708 0.4402594 -0.26029038 0.13949707 -0.6524139 0.60065854 0.37168387 -0.24702865 0.11882153 0.2046962 0.374472 -0.28890973 0.1349852 0.14219803 0.25744885 -0.10068404 0.23131688 -0.38934755 -0.7725882 -0.10544168 -0.52365834 -0.52966636 -0.051376276 0.16088255 -0.39872175 0.105490066 -0.05268008 -0.4972565 0.095515184 0.14561525 -0.15091923 0.06339904 -0.7122362 -0.10687589 -0.25364676 0.333571 0.15634048 0.48787975 0.20134896 0.17042318 0.18427671 -0.38750994 0.5155125 0.26902947 0.71313703
1841 -0.68964386 -0.044487312 -0.47887748 -0.33959326 0.11679172 -0.26111513 0.3108336 -0.569812 0.4423616 0.11807015 -0.36769938 -0.4007998 -0.13676874 -0.09001553 0.36182466 -0.7303867 0.58376265 0.7097598 0.03663339 0.19214255 0.19946107 0.06550726 0.26066124 -0.42149204 -0.8197536 0.24458867 -0.5285346 -0.17337026 -0.3558872 -0.119938366 -0.23833074 0.06942036 0.52334785 -0.2848972 -0.02691483 -0.7254655 -0.5004403 -0.1518079 0.032727744 0.33959395 0.09616425 -0.068450786 0.21649057 -0.20291956 0.34726152 -0.21279636 0.01865084 -0.5694963 0.029564004 0.35197866 0.109556474 -0.116177574 -0.33917123 -0.042494882 0.08544327 0.4568085 -0.47386354 -0.034137968 0.8817257 0.12144891 0.418085 -0.030026315 -0.2886511 0.5028472 0.12224417 0.11385686 0.28929105 -0.11475117 -0.08978771 -0.16451298 0.121419504 -0.5341224 -0.19659606 -0.1961971 -0.11752183 0.11091316 -0.1011919 -0.08716717 0.23745686 0.18847299 -0.61921585 -0.26879773 -0.8402612 -0.19153236 0.73770946 -0.28527462 -0.35967207 -0.093842916 0.5364423 0.045480896 -0.12756704 0.22364426 0.5284672 0.25935024 -0.67724717 0.46452063 -0.09988799 -0.3218413 -0.16199815 0.27250102 -0.5299315 -0.281579 0.3956341 -0.25352764 -0.13971813 0.45357388 -0.48063073 -0.18596922 0.3041952 0.08179769 -0.14377744 0.23417954 0.20933688 -0.6653224 -0.08968824 -0.42451832 0.14883566 -0.52332056 -0.15588267 -0.0335915 0.24640588 0.39166337 -0.12516497 -0.044850584 -0.25178102 0.4821676 0.56517565 0.36224493
1935 -0.28822142 -0.5173855 -0.326454 0.38516676 0.46271262 0.26882222 0.1281355 -0.48467502 -0.0841747 0.4586538 -0.06914946 -0.7277157 -0.19760585 -0.06353494 -0.14967732 -0.52346504 -0.17875035 0.13557106 0.12350694 0.3648428 0.19555627 -0.07041406 -0.53721774 -0.4804248 0.22293313 0.18742591 -0.021415079 -0.2194309 0.34929073 -0.07192791 0.0044478048 -0.60096455 -0.22684479 0.13229026 -0.14975268 -0.10710485 -0.44293514 0.27812442 0.2404536 0.0928646 -0.011560585 0.04368452 -0.012892015 0.06904849 0.46240246 0.7367544 0.009951323 -0.5245776 -0.31128317 0.04887879 1.0115131 -0.24936727 -0.20839754 0.014319522 0.4509621 0.35416794 0.44038212 -0.26577446 0.5859313 -0.36452445 0.13737334 -0.09833907 -0.1281244 -0.12745675 -0.3901952 0.035703085 0.094586864 0.31673697 -0.08491353 -0.03888717 -0.19514808 -0.448989 0.2292963 0.22643892 -0.5194285 0.014765195 0.14729363 -0.5666688 0.12221693 -0.27941784 -0.050723366 -0.15037602 -0.19313154 0.26991802 0.20837766 -0.54843986 0.008491404 -0.08343136 -0.22558294 0.27301964 -0.52283406 0.22961134 0.3757886 0.08977031 -0.28102034 0.3440018 0.2739851 -0.49244702 0.4978348 -0.22415087 -0.25605538 0.16010652 -0.913361 -0.29661602 -0.23164861 -0.37978995 -0.5039878 0.17537609 0.4469306 -0.10961299 -0.34811068 -0.093231805 0.4178529 0.025273476 0.26056963 0.13696556 -0.03478057 0.0073479693 -0.16272266 -0.020667054 0.80885786 0.114069186 0.31429744 0.07390377 -0.15100732 0.5081211 -0.31268963 0.04214189
1995 -0.5065295 0.5143441 0.12139579 -0.5866728 0.37283072 -0.5460344 0.07751855 -0.4188473 0.06347338 0.17245728 -0.26783812 -0.33755073 0.70351005 0.19782127 -0.059578463 -0.71215653 0.1873617 -0.026126914 -0.0118422005 -0.2669336 0.18270315 0.14737765 0.2801323 0.13551372 -0.016706554 0.4553873 0.3666116 -0.27340132 -0.60069996 0.59165186 -0.09103268 -0.39477146 -0.51921535 -0.40270972 -0.063393354 -0.0046415012 0.17372356 -0.68490505 0.5784141 -0.06565954 -0.5062827 -0.35686663 0.01054336 0.07373786 0.318477 -0.34087786 -0.030381372 0.21677347 -0.19321881 0.26857919 -0.34959006 0.3393087 -0.3577546 -0.59015703 -0.13211495 -0.008678406 0.006129957 0.6801981 -0.071411766 -0.6409326 0.1519922 0.31763005 -0.048043713 -0.014055227 -0.02664428 -0.26017898 1.0497416 0.022001883 0.09210574 0.13257599 -0.39802992 0.032777563 -0.2664941 0.41150197 -0.32639152 0.10191432 0.029111238 -0.4649364 0.028641274 -0.21659325 -0.1612061 0.009750869 -0.016470833 0.6479317 0.10404554 -0.008893855 0.25430945 0.18326098 -0.5313842 0.074204974 -0.09633958 0.46315804 0.105230376 0.23182198 -0.45595214 0.23100953 0.36472186 -0.2687412 -0.14308728 -0.25661254 -0.41744944 -0.07063902 -0.3839417 -0.30722228 -0.11972183 -0.09823186 -0.3212707 -0.25806904 0.15211867 -0.8794838 -0.03680997 -0.37873986 -0.31710467 0.026014341 0.053724587 0.049292225 -0.09120073 0.15866154 0.15555766 0.23182175 -0.28565 -0.487359 -0.050298244 0.06820525 -0.3955294 1.1254258 -0.12656994 0.5725166
1892 -0.17420797 -0.1361283 -0.26914605 0.6876581 -0.19387558 -0.36286387 0.15023522 -0.6320043 0.3239359 0.14678401 -0.118366405 -0.4308721 0.36555162 0.008017407 -0.16985941 -0.2533979 0.20110549 0.27031818 -0.06579615 -0.005249763 -0.05765717 0.03245205 0.10623686 0.23765647 -0.20262294 0.14347191 0.6548596 0.20691866 -0.3565411 -0.056269392 0.72492737 0.07217912 0.045576673 0.026697038 0.4727823 -0.7263434 0.5749538 -0.26881167 0.2895608 -0.3035981 -0.26608306 -0.004317683 0.2865624 -0.3122048 0.04201363 0.466428 -0.028883826 -0.18223092 -0.02420903 0.55713445 -0.3517548 0.019594347 0.012570351 0.049245406 0.13594478 0.16844666 0.039357267 0.2868027 0.1300197 -0.026766175 0.24029966 -0.62757236 0.19925216 0.5053589 0.060525224 -0.29144025 -0.059386052 -0.034837842 -1.4163218 -0.29379374 -0.1242215 0.30000186 0.41429913 -0.6217812 -0.6065542 -0.02476707 0.2194903 -0.39910477 0.09416371 0.25250748 -0.1128335 -0.5468271 -0.22910829 0.022405699 0.70650214 0.39947802 -0.018588854 -0.5986461 -0.6522713 0.41147888 0.40809926 0.10290401 0.26141283 -0.2574333 -0.5596012 0.40418065 -0.24622813 -0.016787365 -0.99031544 0.07222619 -0.013572578 -0.303285 0.014995648 0.35513538 0.22514735 0.44703782 -0.0823212 -0.38305572 0.52499664 -0.5917565 -0.35667127 -0.30860892 -0.42691058 -0.022936184 -0.5233215 0.066110566 -0.03339549 0.04359906 0.10307716 0.7938286 -0.16040348 0.32440457 -0.035272874 -0.021442298 0.3548473 0.6834414 -0.3297194 0.19020417
1845 0.14053927 -0.5174935 -0.16327281 -0.71782976 0.43882674 -0.48553777 0.30471072 -0.47359014 -0.2672532 0.039937623 0.113617554 -0.1770447 0.16003448 -0.29976013 0.08466633 -0.50957274 0.057193004 0.11769281 -0.58187073 -0.08306606 0.71398973 -0.29959562 -0.09343281 -0.6527488 0.14656073 -0.31157917 0.17215325 0.49500623 -0.016936889 0.14855425 -0.09891409 -0.026554616 -0.0022191012 -0.43216935 0.095568135 -0.13374542 0.13904744 -0.032240007 0.5640373 -0.24816974 1.0622299 -0.4846329 0.29260513 0.52475387 0.068786964 -0.04705978 0.046304513 -0.48391908 0.093141876 -0.28527364 -0.011091879 -0.034697197 -0.33642787 0.35563865 0.19545051 -0.12537894 -0.3243082 0.29474613 0.4657888 -0.24909374 0.7437729 -0.50635904 -0.22211145 -0.21508288 0.6371224 -0.24474873 0.061011236 -0.24141048 -0.15780796 -0.044642724 -0.74305624 -0.13007449 -0.17535958 0.30446377 -0.45451483 0.57969236 -0.48364937 -0.17636661 0.23714398 -0.014864542 -0.20479165 0.101112515 0.16134335 0.05206004 0.77550054 0.00815408 -0.37341037 -0.942766 -0.15659398 0.7664346 0.08876873 -0.25857234 -0.14330094 -0.08728386 0.07049762 0.004660585 -0.011052002 -0.037315764 0.2938699 0.5645711 0.72841626 0.88553876 -0.4505717 0.17502072 -0.38426694 -0.058202844 -0.1408747 0.0027570224 0.5009572 0.016009798 0.48848018 -0.2523713 -0.26756135 0.60377175 -0.30785242 -0.4670054 -0.8796898 0.47375774 -0.4821325 -0.16603324 -0.09618496 -0.030464662 0.5019485 0.2731198 0.51661944 0.11747445 0.26046774 -0.47967643
1885 0.40131035 -0.47380382 -0.2623037 0.12880847 0.29802355 -0.15257826 0.13949646 0.017310375 0.21312861 -0.6993247 -0.051341306 0.10055452 0.27146548 0.06439936 0.9047093 -0.6054679 0.19135472 0.6033603 -0.47364306 0.293121 0.37252536 -0.076382 0.09288536 -0.39460564 -0.4344298 -0.44748855 -0.12586658 0.12336504 -0.036805876 0.2729932 0.4222006 0.21063529 -0.15965842 -0.5704524 0.49374995 -0.19930735 0.11405473 -0.1291655 -0.1421095 -0.3182523 0.17460482 -0.3817878 -0.45673797 0.057317182 0.30876058 -0.42256114 -0.36395088 -0.078391574 0.49357122 0.763063 -0.50721467 0.077689536 -0.08652942 -0.11432367 0.3659569 -0.21565636 -0.29058546 0.14080535 0.0742339 0.0143051 0.002267867 -0.45414808 0.7510826 -0.49155882 -0.2603136 0.20966646 0.16955125 0.68810534 -0.38956952 -0.078078166 -0.5417255 0.2651673 0.00882064 0.348803 0.12038173 -0.61640567 0.16920713 -0.3553782 -0.33219784 -0.23733018 0.23710282 -0.5779348 -0.01766795 -0.5058267 0.4897386 -0.28437182 0.07020902 -0.27455407 0.18928677 0.36068898 -0.093686864 -0.19051406 0.09725219 0.03950714 0.33983302 -0.2634544 0.11009565 -0.5039489 0.30350563 1.0013741 -0.5250095 0.35611716 -0.64152825 0.04077276 -0.3096656 0.23755407 0.11529014 0.15214586 -0.33231807 0.23013064 0.1133231 -0.1782703 -0.66188616 0.003095514 0.6256079 -0.16003934 0.5937724 0.27035582 0.42477146 0.17799771 0.5485087 0.71838266 0.4798268 -0.14294294 -0.2629172 0.61282766 -0.53499067 0.5677153
1812 -0.20058802 -0.53803974 0.088209406 0.27171943 -0.002466076 -0.30916163 -0.73522836 0.15156561 -0.22898643 0.14931226 -0.3326006 0.1942609 0.5142392 -0.53720266 0.54730207 -0.46334872 0.2727531 0.093896545 -0.40423423 0.11672042 -0.19949038 -0.5539849 -0.2966216 -0.75865746 0.018922713 0.08520302 0.51580435 0.5274241 0.15513049 -0.057301022 -0.34542766 0.12577307 0.107464366 -0.42686954 0.049704503 0.027185902 -0.3723958 -0.19751117 0.61534446 0.29307848 0.443297 -0.057673827 -0.20806086 0.62098044 0.7877694 -0.18286198 -0.21575592 0.022593506 -0.29094595 0.16291098 -0.2847167 0.47512448 -0.7277678 0.07958955 0.28322202 0.20432977 -0.4116817 -0.22349644 -0.1782436 0.15310344 -0.029739467 -0.023360841 -0.16101742 -0.12091722 0.119830474 0.33089107 -0.1609338 -0.40054458 -0.3836856 -0.13575538 -0.48973453 -0.41835338 0.32550052 0.324466 -0.250078 0.53810966 -0.12256496 -0.12827414 0.10423071 0.6828049 0.3849593 -0.32057825 0.11947728 -0.08569346 0.63009536 0.012780416 0.5819875 0.15620315 -0.7528032 0.57865065 -0.12949221 -0.61067355 -0.3159569 -0.3047942 -0.0690615 0.4205359 0.4870437 -0.4826359 -0.05948707 0.42387295 0.19760513 -0.31908122 -0.25167555 -0.35843304 -0.0057470794 -0.31345385 -0.28861588 -0.33796477 -0.40716833 -0.08305018 0.1528672 0.31802833 -0.69420844 0.46855628 -0.19525447 -0.45986852 0.1857923 -0.6329586 -0.14263341 0.49914834 0.6369914 0.09159895 0.41245034 -0.053058553 -0.34967446 0.24507676 -0.45839706 0.50762516
1890 0.16408516 0.011937689 -0.6622777 0.034933418 0.18355985 -0.23766175 0.38173518 -0.18749759 -0.041612767 0.6166687 -0.12614763 0.30852896 -0.22006571 0.03699459 0.1499977 -0.7470898 -0.7313879 0.0710648 0.32425922 -0.21638611 0.01797602 -0.16068485 -0.22350584 -0.40461698 0.27331066 -0.46848667 0.13120326 0.19219509 0.2002385 -0.42199466 0.3646987 0.4043132 -0.015839873 -0.05886007 0.43697244 -0.7406048 -0.19389223 -0.07898286 0.783008 0.60576457 -0.06888595 0.6465735 -0.4222576 0.5337144 0.16418815 0.02499326 -0.4606673 -0.042856377 -0.2388968 0.13737062 -0.4012725 -0.19010092 0.06545013 0.08857792 0.017956017 -0.18574886 -0.54627097 0.8617947 -0.24893737 -0.23135762 0.25136194 -0.008562401 0.52679116 0.30727732 0.024643226 0.268234 -0.35824674 0.18699454 -0.6437897 -0.21191351 -0.46339893 0.4676918 -0.30665067 0.048319135 -0.2695625 -0.17413412 -0.052143194 -0.1004897 -0.20267639 0.18627346 0.08749173 -0.1392989 -0.029956114 0.37685245 0.25017637 0.10530449 0.6100264 0.122120775 0.1723637 -0.06682058 0.23228407 -0.77681446 -0.025014393 0.5275671 -0.45824054 -0.04024308 -0.103868745 -0.17901653 -0.12601273 0.17627065 0.3050581 0.58364373 -0.18121178 0.07251853 -0.18855831 -0.45697826 -0.81459546 0.095816225 0.011724082 -0.82319707 -0.65516734 0.28589913 -0.40888274 -0.07930318 0.27400595 0.17286536 0.1944647 0.584702 0.42276454 0.6198242 0.35159448 0.1377757 -0.3862458 -0.59652627 -0.27225646 -0.39707273 0.37527943 -0.23807819
1955 -0.17427061 -0.30577382 -0.6878274 0.0783359 -0.19708903 -0.5363888 0.38269284 -0.1518845 0.7395188 0.40870622 -0.10774523 -0.12239017 -0.3927362 -0.4704144 -0.24922009 -0.92660403 -0.24019043 0.34416437 -0.023779497 -0.43038353 0.24175355 -0.41956806 0.6343746 -0.518011 0.08001392 0.029315388 -0.5898655 -0.049145248 -0.5016895 0.24426596 0.38340092 -0.20162326 0.46209177 0.11193531 0.24052371 -0.5849497 -0.5644902 -0.10125564 -0.14526711 1.0147537 0.25962546 -0.19459029 0.034301285 0.23101394 0.4381329 0.23986563 -0.07770385 0.019872632 0.40592065 0.6179729 0.01926341 0.084176704 -0.1211792 0.124802224 0.007360801 0.4735822 -0.08112196 0.07588059 0.45794618 -0.31661057 0.6224526 -0.41392562 -0.35286117 0.089233115 0.5878804 -0.37035695 -0.10298619 -0.44892073 -0.13250655 0.2639804 0.059353713 -0.6103176 0.08266923 0.07741126 0.083135955 0.6672044 0.00065272005 -0.4541225 0.45192477 0.09420442 0.038692612 0.031044964 -0.16368815 -0.084242724 0.6013779 -0.5036648 0.44309738 -0.22243223 0.13042143 0.2734003 0.26096207 -0.06434483 -0.18041492 0.67849404 -0.58210653 -0.13340318 -0.32697102 -0.025596146 0.16791311 0.380908 -0.1279093 -0.390396 0.17062107 -0.14205131 -0.4747262 -0.21652603 -0.17394528 -0.5713279 0.41851717 -0.19446819 -0.19209325 0.27481407 0.09041151 -0.14995529 -0.22187929 -0.42597815 -0.06694472 -0.55639285 0.34126645 0.5213282 0.115279265 0.22130775 0.53468525 0.14372562 -0.45334274 0.18525712 0.72667515 0.30765057
1902 -0.4904525 -0.22522573 -0.9785558 0.013913313 0.4931037 -0.11781061 -0.100105 0.01184078 0.07790483 0.2520244 0.09966343 -0.053362645 0.41471678 0.5153458 0.255818 0.13753723 -0.116928004 -0.45668346 -0.30843553 0.11565313 -0.5042124 -0.4006057 0.84588355 -0.28534177 -0.11022376 -0.111804806 -0.4286161 -0.12819673 -0.59552467 0.057443157 0.4766326 0.29450393 -0.28572845 -0.92348063 0.40325716 0.30078804 -0.18214263 -0.5929752 0.31909192 0.07033149 0.099916205 -0.012352278 0.19681746 -0.23671538 0.020204434 0.31444722 0.15508913 -0.076727636 0.4992274 0.54540086 0.23493867 0.1147826 0.2779964 -0.1114692 0.50964385 0.07104161 -0.045778837 0.07538735 0.28717494 -0.36765197 0.21679768 0.21797708 -0.2870552 -0.33822048 0.19591358 -0.3308003 0.2110313 -0.15260188 -0.42987102 0.12782025 -0.53134716 0.017802358 -0.15657747 0.24003534 -0.23699014 0.21244149 0.29304388 -0.6926688 -0.11515403 -0.050553046 -0.14711286 0.099803664 0.5144745 0.42274258 0.86177 0.10755117 0.4093418 0.23306513 -0.18186118 -0.4799324 -0.6780826 -0.5126354 -0.44081342 0.06251593 -0.23246063 0.20396332 0.11588994 0.28215107 0.7512862 -0.19372861 -0.56834424 -0.6887507 -0.10138262 -0.14296712 -0.6319424 0.07267707 -0.013852568 0.72874385 0.270908 0.08689458 -0.39492187 0.2515505 -0.059082035 0.37433198 0.16662139 0.48415074 -0.20341866 -0.48742354 -0.19590665 0.18354665 0.27998766 0.27455223 0.53528094 -0.56061953 -0.015283651 0.47444597 -0.024923226 -0.10226085
1828 -0.31958824 0.5992358 0.02688267 -0.07420185 0.67828393 -0.19410637 0.038213998 0.5331709 0.21396092 0.65272987 -0.25830042 -0.27372524 0.36637312 0.27150464 0.093812406 -0.39111778 -0.1863121 0.34057605 0.053923413 -0.09258041 -0.103893 0.04749614 -0.16385415 0.066640064 -0.15096936 0.4505232 0.48421502 0.22061269 -0.14287607 -0.35826764 0.21321331 0.46992493 -0.08335502 -0.33433828 0.15857051 -0.767714 -0.05605677 -1.0641541 0.31146926 -0.24478109 0.19465974 -0.0796289 -0.006264782 0.3248138 0.015547795 -0.12615912 0.09504049 -0.5406569 0.08092854 0.106842875 -0.15201436 0.14618735 -1.0249611 0.26474944 -0.20368208 0.5110792 -0.22364321 0.5253194 -0.05691902 0.6283425 -0.05667634 -0.75937206 -0.33303186 -0.39295137 -0.33393657 -0.29096907 0.18794595 0.82310194 -0.7794426 -0.29655015 0.12983671 0.21678248 0.17022963 -0.05703775 -0.15219554 -0.25235158 0.011985687 -0.38222107 0.21994038 0.045666013 -0.26520586 -0.30676734 -0.020655606 0.11299795 0.0026458206 0.1531193 0.09593669 -0.039368186 -0.19597675 0.41132158 0.4915295 -0.8329218 0.19561891 0.26916936 0.32460213 -0.19833343 -0.92885745 0.0743841 -0.30827692 -0.12343432 -0.050543 0.3053215 -0.3564899 -0.3004156 -0.13736387 -0.16793764 -0.21304022 0.3322988 0.5863356 0.75328934 -0.37118354 0.9004317 -0.4291525 -0.52984416 -0.1324727 -0.5977311 -0.21718743 0.22120978 0.24121864 0.20785554 0.27720365 0.13689852 -0.049209148 -0.3907987 -0.73343635 0.42308408 -0.0916806 -0.53268206
